,harmony_1,harmony_2,harmony_3,harmony_4,harmony_5,harmony_6,harmony_7,harmony_8,harmony_9,harmony_10,harmony_11,harmony_12,harmony_13,harmony_14,harmony_15,harmony_16,harmony_17,harmony_18,harmony_19,harmony_20,harmony_21,harmony_22,harmony_23,harmony_24,harmony_25,harmony_26,harmony_27,harmony_28,harmony_29,harmony_30,harmony_31,harmony_32,harmony_33,harmony_34,harmony_35,harmony_36,harmony_37,harmony_38,harmony_39,harmony_40,harmony_41,harmony_42,harmony_43,harmony_44,harmony_45,harmony_46,harmony_47,harmony_48,harmony_49,harmony_50
CD141_P10_S73,0.149183728953077,10.4849315270974,-6.6021574851318,-0.759746529940763,-1.20771418544285,-0.91072973561848,1.44814547698802,1.58244748617707,-0.208222291246419,1.24943997559975,2.21781474330691,-0.522761644705701,0.188325172408233,-0.199741555226383,-1.81150042506582,-0.606180108414661,0.888190652230625,1.15572637294365,-0.553519278864742,1.58002464364621,-1.63740870697903,1.64255094753859,0.361907495388012,-3.14582091309934,-2.23645224681971,2.0806448945998,-1.74608603887828,-1.28453449079231,-3.08964850768102,2.21768120901175,1.33994479774443,-1.27731866437292,0.0212156863464041,0.671368761502926,-0.302084135874036,0.402661710828426,-4.45768972840881,-1.71024597548908,0.58392601951344,-0.176849508452718,-2.91485433979043,1.37544423451386,0.124905912147633,4.05612778505902,-1.83657662082632,-2.66479343481499,-0.592444029939894,0.213394188800875,0.925155226227985,1.86450050040176
CD141_P10_S74,3.24117874474693,2.30706687347962,-0.912919936433911,3.8031113536745,-3.79546856724958,10.6494558251122,-1.51300786181044,1.00388495637118,2.17872987057564,0.939519121174742,1.298608645722,0.994961770902289,0.0849583121090201,-2.01662183779868,-1.20379411391662,-0.67517968937822,-2.84049836694441,-2.38307353348001,-2.80562321258233,-3.89190152606828,-0.234445846908619,-2.50119693206868,-4.27090289658712,1.04459302805312,2.68285537141407,-3.25852265234773,0.761749405655713,0.587997586782379,-2.39717985680735,-1.29261303264298,0.88278079416178,1.20390718218016,-0.123807214864277,1.5885608996319,-0.61629105601681,0.737157864368639,-0.674657590530502,1.14416025947053,-0.706955851025807,4.06972961482868,-1.35422346206359,-0.135150341877571,-1.85387640946302,-0.555998387386065,0.189741739640868,-3.77301253048762,1.34017427023703,-0.129122951973957,-1.17699583074235,1.78317692757092
CD141_P10_S75,1.05957153880593,11.5619421238403,-9.3644152090281,-3.54543243894888,1.17195727190903,-2.67587404562675,1.33799998380675,-0.41683329701687,2.2080653967473,-2.99496095542963,2.78249893996061,2.28893594851965,-1.74230222239006,0.62349289224259,-0.928431633234029,5.67916354461017,2.22520470676578,3.60252498215744,6.0614512138772,-1.18305919879603,-7.96627253649575,-6.03410913402579,-0.742187511409992,-0.817045817801416,1.99162800589968,-6.16255675272952,-8.16320545406917,-3.28334516721523,-6.48627847003676,5.04597877789163,0.191699267357054,-5.70920864655293,-0.732151694066405,1.4846531844561,1.30748342272336,0.542435612076768,0.436147030465927,-1.07667565746704,-0.997109298084868,-0.995814785460969,-2.89337467929741,1.14174404488421,-0.771371715298038,-0.637192596204717,-3.36548990648445,-2.25718313855208,-4.06194619079635,-1.59269164866,5.45363569055663,-3.66100779554017
CD141_P10_S76,2.76698637924202,10.1537096940272,-10.2235869983668,0.808444549769127,0.935980526379926,-2.09905536416018,-0.349531197004129,-0.443242043433997,1.07208413439641,0.345517233123538,2.05331571296809,-2.07632916376065,-0.872575546638967,2.01112666208336,-0.26316709929669,4.80453148099919,0.643275127524359,2.58129258579048,2.30282415735768,0.695315496121912,1.20325474171814,1.29244540561139,-0.0264429403843465,-4.97770652709936,1.94995074430452,-0.118679385131422,-0.679220448880852,-1.55837873393477,-0.569004282357204,3.04376157843502,1.59596700452321,-1.31910945927529,1.51406891521988,0.432628500730309,2.26559430217802,-1.80939619633732,-1.46616021260354,1.97355557863026,-1.55960142647803,-2.54331557535236,-1.54397138852133,-0.73652955239154,-1.05823062064689,-0.142328287455974,-3.70911292554206,1.97859500783816,1.14918447480943,-1.38888417702486,-3.34138660609204,1.4093988459606
CD141_P10_S77,1.09337596019254,11.0248463062901,-8.10051052991009,-0.219805762235266,0.0635698386505636,0.308562477183388,0.0289797987505401,0.26469629460095,3.1672283351648,-1.44313306477391,1.32862215552024,-2.3475798381709,-0.398979796475333,-1.92364464897946,-1.03685303518491,-1.96881731646266,1.60475561670977,-0.993899180740406,1.70820613638009,0.461282360945971,-1.59570032673467,-0.788009759383514,-1.43301314437305,-1.0534043973272,1.27250713421881,0.344325579957362,-1.39670508693112,-1.01639747930442,0.377441861466922,-1.41603295906139,3.53955428880112,5.22799019120218,-3.81543790403711,1.83703452377346,3.12989404155957,-3.08972115798044,0.0625310250858903,0.127001602718562,1.07791891596305,1.63802467340666,-3.02317010817932,-1.02956167955653,-1.5384363483527,-0.713353704686177,1.73440411312311,-0.537903573193102,-3.87460455865892,-3.32288685791769,-1.86109422765901,-0.706293723461679
CD141_P10_S78,2.76440885585083,4.45177625709989,2.36747748165493,-0.578624956065858,-0.0527498148226069,11.3877909262104,2.6127504369793,-0.502118724586011,-3.14677651566452,3.74552402898176,3.58483230344623,3.36664353373274,-2.71963789036929,-1.24424136230264,-1.59279660552094,-1.42472010872942,0.843238614195581,-1.17039468952023,-2.69308963626122,5.44497848203036,-2.34735970161887,2.72103004389382,-2.92753925386842,-6.40156079693989,-1.0364057705384,4.82727669657649,-5.25911021609811,5.38949375423114,-2.35389819239952,-4.46318575541248,3.30959338403296,0.279076806424946,-3.2721993235067,-1.55337534059845,0.121231357565827,3.84195973727998,-2.77161833697274,-1.69711139257951,-0.0795326503825163,4.5332776021212,1.14735157618348,2.20850777463589,-2.65936325681982,2.91309540038602,-1.36645613891562,-5.12606091475986,-4.31066594691636,-6.1185119071012,-1.31038744395506,-3.77270167343539
CD141_P10_S79,1.67939585831559,10.4420602741102,-9.15836546172886,-1.49179563833176,0.643248572888687,-0.282708110448427,-1.79353109941932,-2.24878339753274,0.986727052814276,0.958083817528693,0.318978618348573,0.0671799885122767,1.36433909972046,0.0820725280429482,2.33045047188834,-1.0024947310997,-1.60852148638365,3.93491963424402,-1.58001504800051,0.405446791712614,-4.32663271702249,-0.861681807234707,-1.32151514676214,0.474759909879597,2.78211851986855,2.01931668536468,6.76801801421059,-5.22159844958204,3.2080205243122,-3.72203177446899,-2.72928924229956,-0.25553315988904,0.450627557672971,-0.139801068451327,-2.70330693079614,-4.71207635287735,2.86773157800495,4.10640486225638,-0.852418578075606,2.49067515039037,-0.671819605190205,1.40761379827709,-4.24939027177347,-1.64452821578457,-2.05523675202445,-1.56923121048786,-0.0988995369033524,1.47910703049975,-3.03231185718085,0.36599893564188
CD141_P10_S80,1.08688955109111,11.5439416172655,-8.52418799437877,-1.73581183005279,0.393320558273135,-2.03136923500937,-0.426293911725274,-1.40711343749198,1.33139160602625,-2.70718876776651,-3.65903025784674,-2.9908419873549,-0.425313953637455,-0.453536656989836,0.227778607221324,4.66236051165104,-2.14691191186895,-1.02448965004496,-1.18976368871842,-1.8867377128106,3.09618367953789,0.927863445714822,2.65393914927503,3.88215911385113,1.63069401347128,-1.92707143669032,2.28209385002466,1.73661555539691,-0.958351767266257,4.15080727610847,-1.19149811961083,-4.19069686153767,-0.027096991626426,-2.09147164269081,0.329936251481362,-0.539490369231844,1.32690443012198,-2.4793512123464,0.401401485801961,2.42177644321683,2.21378388155641,-1.000099054037,-2.89280839327273,-3.22128700106896,-3.66926128503056,-2.74282447463854,-0.671776316064504,-1.90549774223651,0.52280881111332,-1.08464332848759
CD141_P10_S81,5.12434827172597,2.89140660880714,-1.21999973487533,4.50755034741284,-2.70100044756426,8.66555652445962,0.964828667807631,0.577745186191273,3.73766795986407,2.50133228747381,1.66148778325258,0.622572465951852,-2.10916661099466,-2.04893979281081,1.74754978511021,-1.31765287065683,0.657559382046843,0.915501479492614,-0.702092590910576,-1.98994824314243,1.96313201821301,-2.08994217692634,-0.631574752348655,-0.676048133972111,3.1086481259017,-2.05564742007375,0.842220815708374,1.21435750019094,-0.603983523406709,-1.29043313951499,3.28347010183318,1.18862759446491,-0.00985174158050308,-0.416772838442501,-3.51284710600651,1.47902109026505,-1.28483691515867,-0.311059113939853,-2.77343621225058,3.31972677754805,-3.40135489026711,-0.752240511102922,0.588518505647774,0.204971156890338,0.00903816399824814,-0.814261280321547,0.243940579193642,-2.17578132019895,2.26382160515865,0.440597983578664
CD141_P10_S82,0.741463436360376,12.8349756309772,-4.79501878023413,-1.84466876141419,-1.5164574421167,-0.528910134317096,0.664934027784975,0.328005350945658,0.562168904917036,1.48820652546211,0.203443840729098,-1.14039300798637,1.09041727902164,-1.32083949576949,-0.0472516641625485,-4.58658580362073,3.97655451396797,0.61784675194015,-0.23995460010161,0.321732413293181,2.93548217845469,-0.517820749807611,0.329831027522939,-0.865889461070515,-0.0520129541205651,1.54669624334163,0.597588831231239,0.356063268105748,-2.78624041676639,0.102319176517714,1.51883274460236,-0.0254549906072848,2.68054234246267,-2.40635844571045,0.765811929783526,-1.57593006894309,-2.81037664556186,-3.91197582571033,3.54347946194298,-1.0799076562857,-4.95053750622185,0.272066760492328,4.97841543052277,0.0206356477298488,-0.585128089657221,-3.52972240671392,2.76494412180986,0.227305375088519,2.78160978147206,-0.738074113639989
CD141_P10_S83,3.65854906248821,5.88442797211078,-11.6831662573142,5.32653723254941,-1.82587378128512,-1.31291013594019,0.832775369289573,0.425677036174709,1.88806180599876,0.530073555837972,-2.1241017457175,0.122418526736852,-1.35388322756211,-0.171583930949923,-1.20978554468807,-2.56643103713113,-0.278509201255406,3.66262959289028,-1.41412975676588,0.440036016148548,-1.20462374297516,-0.22687218452978,-1.15315917179577,-0.874690555825762,1.43182065812444,-0.873416884266036,0.850962999151704,-0.724932571750298,-3.62958576732007,-0.603700980437109,0.158669463463928,-0.741069506878281,1.45906620879985,-0.0787834387639454,0.30809933837921,-0.629060121294642,-0.142776289885265,1.64478843871986,0.633232638813298,-0.775109027081006,-2.06817362780329,0.853430826109006,-0.727524612782855,-0.835377715899155,0.458839903410277,-0.848973242847067,1.47133797966495,0.0240438486357247,0.132683754944164,0.295254108751578
CD141_P10_S84,1.41613380862192,11.1242339108673,-4.79793668521584,-0.0749639516415024,-1.41861459817637,0.857135129475355,4.73001446144684,0.15457214528677,-2.05442996100902,1.53662925618638,-0.384426605926118,-2.09229755692542,-0.525541539143814,-1.8120073928769,-1.42108547541144,-2.77141406851567,-1.33332499377388,-2.38787268397683,-0.332386324019788,-3.52767335528377,-4.37479616963133,2.2612792841739,1.16434196094002,-2.03923385969535,0.684785781184913,1.50895992629911,-3.26675614215606,-4.03203663388103,-3.25510455643583,3.78200652636163,-2.51935710916764,0.494613462532631,0.306807598142942,-2.72098736647304,1.49447483090054,3.53660882311142,0.724816447771654,-2.00783313983799,3.79217807387846,2.62261934214859,-0.610175357236932,-1.32456414040374,0.662692896305845,0.99959579062566,-0.145222652789094,2.58932731762945,-3.20378397154005,2.36457287598093,-0.394928338880954,-2.6740286812536
CD141_P10_S85,0.408831147699472,10.5186445064299,-6.25979751617916,-0.755864176888157,-1.34388374593706,0.830764406684184,2.69798135966172,-0.53365481404538,0.242517588187201,0.750812511285453,-0.0540121843609551,1.77367718501484,-1.39785498201632,-1.16103920782788,3.38159361222353,-2.83617974352825,2.41433604188366,1.75762614348019,-1.62744700752138,-1.44974896230715,0.583819947082262,-1.72565484827138,-2.44469375421985,0.0850177038628122,-0.250143128689002,1.81364686367281,4.23369695281473,-0.150642254317737,-1.24676863718852,1.67838654708909,0.121058655095068,1.25516908123281,0.877321240681125,0.760084010023625,-0.701144439239832,-0.254808557408131,-3.01986966920416,1.92544672778506,1.94967454378167,-0.101068747220475,-1.65609597427211,0.721142189835951,-0.985288800818292,1.21777823954072,3.8561697676639,-1.35851207460388,0.156383067807607,-2.23511424784463,0.892248506882531,0.441950626093819
CD141_P10_S86,1.77459913215821,10.8886852551447,-8.38926326485313,0.257069543643471,-0.475881918254032,-0.784885521156139,-0.941918308450909,-0.210927522545872,0.565877150519581,-0.440300903280621,1.27833244035891,-2.87557706427264,-1.32407057432382,-1.86549194778639,1.26804756266548,-0.92058959812172,-2.99380256950816,3.36411608692031,-1.7165821372407,0.654900403293003,4.17984466572996,0.872464435288816,3.33236505990579,-1.3367355563096,-1.90109453008879,-0.108454428185262,-0.299206091846942,0.268420880754656,-0.109828613640808,1.99776697429786,2.49166040534128,1.53672164286788,-1.84519108431343,-0.53929649708845,0.0843274711214535,0.501686973511362,-1.57207873806621,-0.817600058402959,-1.13380435048121,0.483489614820149,3.99269287545526,-5.29913684794523,1.90809336691982,2.37719109693778,3.56874895790828,2.76223521546833,-5.04758739659314,-3.33065771856521,-0.258927210895191,-1.64363271661771
CD141_P10_S87,6.30659498736587,0.654119181934475,-0.605123391631234,3.32606276787063,-3.15862206793237,13.3451255585826,3.38557655699806,-1.86520772474728,4.87504917025583,-0.847019602388117,-1.16608709643492,0.655648169349449,-1.00630636150722,-2.12057667448028,1.695160422451,2.80028826360853,4.87018175427085,3.77203390910443,-1.78775905128923,-1.55874196464414,0.725668880264374,-1.14145306261166,1.4130773529635,0.862291614657985,-0.668653432841714,-3.23671999468243,1.77498014436527,0.604660984115982,-1.33380231252169,0.272126869743256,-1.06810489475112,-1.81305290936795,-0.806616549172721,-1.26748626967868,-0.0299932137450322,2.0978860756215,0.278786399747254,-0.963025960941377,-2.86754523847504,1.40872553550685,3.55023679844685,-4.88841663405366,-1.08367391585799,0.920130978608241,-1.61184028337456,1.4104536961654,-0.999001172770388,-0.719328012497068,1.79319976074602,-1.17179166746681
CD141_P10_S88,1.81728924895415,11.629572279993,-7.67302427640143,-1.34359411335251,-0.730608432515807,-2.10836499975018,-0.672584953279661,-1.86208088239423,-1.57108600198458,-0.73554557970914,1.94848320921872,1.51875578488415,1.02199416954045,-0.861424284348047,-0.662371804271074,-1.50339068949562,-0.289440477963671,-2.64455395815105,0.0669197701025645,0.47445464816659,3.15673016475807,-1.08018556993854,0.552495217676182,1.22974225134413,3.93362069878257,-1.2824734340245,-0.726133461992953,1.45829013338504,-1.26727279635859,-1.94165306225217,1.83036719240938,4.54774739451418,2.42959729856402,-1.46791992526073,-1.2959982140401,2.53730209615336,2.60884253607941,0.664593447419946,0.861381150209393,-0.310129842942174,0.176316468437998,-3.49802697270281,2.02756468454938,-1.57507101630921,0.224937213336563,2.2627534672893,-0.894570105342167,-0.308825054097224,2.76084000717987,-0.982928791149155
CD141_P10_S89,0.246973648882417,12.1906492204262,-6.37305168546431,-1.41818409174422,0.468902453598468,-0.307227419330949,2.451090391618,-0.819339527799534,-5.10646783411293,-0.212018840157101,-0.790488801119312,-1.72139679883731,6.09466334567265,0.16851060809468,-2.36570034412605,-1.24684128733932,-0.987710048305486,-0.77021900997804,2.51721756082378,0.333709126342221,-1.76002052107155,-1.70685294930174,-1.66989714832622,1.40770226764965,-4.18591395201277,-1.74210039833667,-2.71657309497436,-0.268960728949333,0.0378348534560932,-1.82022113809575,0.416091335112871,-2.28336925002547,2.96440041523056,0.616853170683553,-1.62011776629041,2.3998012960423,5.259770972065,1.38543620856622,-3.20864543712332,-2.03268591505795,-0.139832208458433,-0.821294556533171,2.65497944788039,1.14755771959784,-4.73596533264389,0.486525747187729,-1.18071543370437,2.42230229168301,0.0571732746387425,-2.18146892591264
CD141_P10_S90,4.35610104451554,4.69452925712318,1.79731102131307,-1.34372371306396,0.717046275182529,17.8001090237199,2.43620062536292,-5.72483009235751,2.82367161797583,-3.16057941045282,0.450754938007101,-2.74985586603899,0.652887292355753,1.98764391458092,1.50141383634683,-0.656331679900783,3.0268385375114,1.80043119493626,-0.731211397062809,6.0921400555624,1.97919437351163,0.314429064064955,4.63667003646565,1.69525467676303,-1.93165327849025,2.057146059267,-1.35374049110496,1.40395391982626,4.56096409614445,1.38102098482265,-2.42759122514517,-5.1032394788189,2.27100374773484,3.40486866612748,-1.71694949425602,-1.87221382121559,-1.24759560355675,2.93966240731018,-3.03508956566234,1.61336441080929,2.72645392714916,-4.56352770130491,0.908553318697781,-0.217959120815397,-1.13117704366425,-0.756337643815671,-4.27688408794762,0.985131667732569,-4.31439050907137,-2.79315459402244
CD141_P10_S91,1.22546683427274,10.0989681439343,-7.48042823926114,-0.446569432459286,0.363584396226845,-0.0293091559981411,-0.836416266017061,-2.71871052274878,1.11972376136932,-4.81583348958573,2.35851292051734,-1.58008070482738,-5.80889892997384,-1.44832090025281,0.0895953168683806,-1.468053996344,-3.51079029619093,-1.95757403638358,-3.90180379002173,-1.33197478359327,-2.72162412074073,-3.30264308580903,1.74722072251653,-0.944906963632121,0.0985411381145654,-3.860745717498,-0.17365979657777,-1.68080853821422,0.417460380729624,-0.212635407409603,1.13742425519842,4.08022425841162,1.57106678101118,-0.856468781120988,-0.975819644282405,0.911971999617447,-1.70704420531034,2.83125131354065,0.50441231019963,-1.3037832869499,2.66312999396562,0.775548158991934,0.359209213205169,-1.85191962928332,0.0969901393735158,-2.582640620254,1.80060723709808,-4.38606346775244,-0.392728483757625,0.418618939324783
CD141_P10_S92,1.35775842925131,11.9676454806278,-7.06608023819295,-2.25757528293604,-0.0234841799812824,-1.40163452865961,-0.900982606848498,-1.90251297761999,-1.4637115772633,1.33666186689814,2.01644827184352,0.587096851293771,0.932698630732278,-0.886216172488408,-1.92813928142863,-2.06671860584655,-1.389317448694,-2.86375659341435,-2.13389191937429,-0.435068904163555,3.28755114430731,1.43583210291593,4.51526962516694,0.961857441816099,0.247730682981964,0.989412170687953,3.75117053022645,-2.51673032966998,-0.830509317076498,-4.1583766529253,5.93350398541408,-0.0864986090413233,-1.54391225957386,0.0521113289753167,-3.97201499009651,1.81449131932373,-4.27541258626861,-1.20877770583969,-5.27035748284209,3.73147995499647,0.560202674815623,-2.85617485960484,2.07215495822998,0.754964432612286,0.497324011999781,1.78838012053866,-2.97697922546373,-0.221604340673596,0.237564349572655,4.80162631394473
CD141_P10_S93,1.47003872626429,9.70062790067549,-8.51458462340305,0.220930532433064,-0.849956386961002,-0.953621769686233,-0.132869341667522,-2.51333053893441,-2.38600728878131,-2.41887572145561,-0.468393428969757,8.39084922393197,2.73352175728855,-4.45749040803283,4.21508810935016,3.69673965784336,-2.34427649696139,2.02346506500156,1.41877068847721,-2.13989064179721,-2.04688791582526,-0.982967517594999,0.057482573182118,-0.482368702054536,2.37911772055245,1.25890808309376,-0.107013857944391,-2.53201667912964,0.507308610319534,-0.977050165440851,-0.275993054711753,2.36891114419559,-4.02743636385041,1.55187204961858,-2.41374327734743,0.256058195651601,1.10224509858442,-1.31858805600617,2.84978743210651,-0.589653932673957,-2.54012804150322,0.342471840106865,-3.2799591219941,-1.85831671905109,-0.44983604039549,0.510438082024092,-1.69328604981473,-0.964393087539662,0.553524188713669,0.993807486812215
CD141_P10_S94,0.263094744322431,9.31130246442693,-5.94498843324729,0.41121237299201,-2.19326400240341,1.87416380527788,1.84399718704757,2.42460612316645,0.377787109431436,-1.12754345909912,-3.02245951650024,-6.21701412200036,-2.16618202793082,-3.61166248626586,-0.221417585975608,0.696340955933629,-0.782895541323672,9.44347376389556,1.48190520842383,-2.27643711007178,-1.27203868104067,-1.60699238205581,-0.237883983327001,0.91874729377946,-1.07725081394432,3.12126603291605,4.83652201048789,-1.25593388093245,1.62953615232418,0.113089384414205,-0.401269297928149,-0.0918971531160964,0.488227281698867,1.42327153161319,-3.13998757350948,-5.05147726632543,-3.66097583194512,2.3085247076385,5.66307156730572,1.39890219425118,2.99184147227272,0.657298345980781,-2.97163159959795,0.197796477022589,-3.57002649251859,-3.35658960779367,-3.14465178430559,2.58761872703163,0.105300877631377,-2.38110733511127
CD141_P10_S95,0.923756273749785,12.1775626146259,-3.75700587699067,-3.23573053453043,1.47763732567726,-1.19858139770984,-0.550786390170199,-1.27644816878369,-0.201598017235612,0.0768188963533669,0.900816556969574,-1.03610755832543,-2.38166057026158,1.46600219040299,1.16715865368424,3.07008385548602,0.365661309304008,-0.67553718762579,-1.7294555755092,-4.35410192975628,0.670205739346393,1.67455750246015,5.81923959545354,-3.15982352604814,-0.117504291914675,0.763739127913863,-1.11866883160429,0.168547116692312,1.0093395043966,2.55580662927546,-3.03159313881133,0.41610078508354,-0.237425396097202,-2.35055221116265,2.01576480175227,-2.34463004600928,-1.60434410783186,0.105067798080164,-1.57110604084773,-1.98867423063041,-1.60962662278323,-1.95395554488512,2.12455959605942,1.68235431097555,3.54512235584754,0.412555597626395,-0.563612307703922,0.924245089399161,1.0964649560915,-4.81208609610649
CD141_P10_S96,1.78454793731911,9.31950933361865,-9.56435444823122,0.618905190964672,-0.340899859292687,-1.96223289282659,-1.01663863082292,-2.11032682201608,-1.5660122352253,-1.47842780972581,1.3769992969499,0.68446958051561,2.3725436659822,-2.37275557130552,-2.69176438895131,1.47447925788136,-0.964878133256852,-1.32259784733835,0.361891202232253,0.27675088656506,-0.529495286162741,-1.17461389802823,3.87044437003872,0.886937054507896,-0.248848590052838,0.958517469418593,-2.94869081233904,-4.43903574674804,3.9850358290278,-1.92367209668429,-0.699847579634117,1.74678471647458,1.36710932320307,-0.276591580567851,-0.209767425655429,2.5900642690485,0.321760963554624,-2.61685847620019,-0.299067106679815,3.2081120375848,2.9020289533552,-1.291616360902,0.0180899720850269,1.87613420413954,0.701389992177976,1.29582105510946,2.5668735323795,-0.277053914053877,-1.15158294597929,0.31756804669163
CD141_P13_S49,-0.183768528341798,11.0775197176687,-6.342416682612,-2.11627486741818,0.921127625111418,-1.13156247309083,0.718724320159688,-0.126048873502331,1.07727040341185,-0.793894193365264,0.421441264297537,-1.9221669585999,-1.14654895555289,-1.92996539121362,1.79144663125168,-0.496325447705512,1.57115173622048,1.37604776579807,-0.239075336208795,2.3268590526978,1.46747656168011,0.785782086574671,-4.19529486050857,1.20108764067719,0.837865195304977,2.01301044280157,1.02995826647027,-2.26858627898689,-3.18355575411445,0.252833115392512,-3.04986162203679,2.45905959611433,-1.84313526534193,-2.24382895542122,3.06813738946213,-1.56055622516143,0.446373019590169,-0.989691704465126,-3.79725223421903,2.06503924385869,-1.66289716016171,2.51963179067909,-0.360616760078115,0.397032955514633,-1.23996378017465,2.35470253593423,1.67613447636849,-3.23175482396434,-3.74480001627059,-4.68580058519647
CD141_P13_S50,-2.97954954362846,2.89284370813955,0.718969757842449,2.63173213317165,-3.24788227445397,2.00401557151266,-0.528218792148405,-0.800987214815467,-2.19485577703992,1.43799939628235,1.96927624822048,0.898599763667044,-0.133564251327068,-1.6989266985892,-1.69930896750042,-3.73424833510908,-2.00603944145624,2.12702306707506,0.577820780083278,-3.60712005573389,1.23121998074322,-2.28138798796756,-2.12688494710933,-1.53450508198472,-1.01137840262742,0.360683264641451,-2.48431703459027,0.308794951513668,0.482015241681687,-0.47741547375904,1.15132232921181,0.574382516499017,0.0719874308173749,-1.23913655021253,0.209878318036766,0.409080150617173,-2.3712093627416,-1.88695264781788,0.409988431587522,-0.516071571174122,0.274791533895821,-1.15912271679431,0.596287662991347,1.18821245963423,-0.118211412351083,-2.31889187885858,0.683032023019127,1.53165885174304,1.2309659292517,1.33740437501294
CD141_P13_S51,2.09631763562438,10.7872946888251,-8.71970201945664,-1.82675607902431,0.728093846930914,-2.62469875822395,-1.19550545074309,-0.396729240388917,0.166645088458741,-3.01322594831975,1.84555451440029,2.5185614830653,5.997151887551,-2.34381672193062,1.03887115917307,0.697089757150703,-0.343641141489358,-0.146216565260547,3.28274035334236,3.26301764345291,-0.56110865141968,-1.40426413815939,-2.46831123298716,-2.79843222601592,1.19565709736268,-0.938245728709888,3.87514873804773,0.0410418191565098,0.0598611552457347,2.00139986952587,0.943793645242889,-0.216608607099636,4.74060473130679,-1.56779207794349,-2.1266407633226,-2.46504920456592,2.75547663693369,-0.215877720273297,0.184467999373619,-2.93103958446788,-1.46666830957807,-0.755543550732848,-0.516781872483288,2.15815788216036,-2.27862185166577,-0.632594604594116,-0.425123122921495,-1.00710022478342,-0.470942591496319,0.45187551206348
CD141_P13_S52,0.482393795459769,10.4328100980664,-7.31465200602051,-0.713842600987876,-0.575992518673133,-0.73814637044998,1.82965349904229,0.934296260774128,0.0844552050646698,-0.384749797740672,0.555008074463803,-0.817338827537437,0.0359233520606112,-2.58464803326569,1.52766137971698,-1.55737558309485,-0.999910321150926,1.07287581773059,-0.807981808042021,0.512583823147079,-0.902561103973328,-0.0830647713381663,0.234080535938451,1.52786550967642,-1.00534146212705,-1.92666572269717,-0.0899954794801843,-1.75490236015676,1.79979641871177,-2.74276566696885,0.512032289688575,1.21255732102379,-0.151593613077178,-0.360647082974816,-1.8243983591521,1.63619230038838,-2.46925101118034,-2.6330943567151,-2.71810533477976,0.862492871963565,-1.40577621477264,-1.66891376744383,2.19484351987519,0.172634080510443,-2.19812353652542,0.761549582563376,0.037018441147822,-1.147962933473,-2.90460012101626,1.1653209766284
CD141_P13_S53,1.78923169915073,9.96352520018051,-7.72994477449034,0.0632951766459163,0.427576073583166,-0.536340919801733,-1.43425435740264,-1.83124634729395,0.128684097922431,-2.00712666076188,0.552082683975026,-0.986884668672353,0.703554182839039,-1.09056850135217,-1.09205180397962,2.02559340877919,-0.216510880474908,0.464459310036105,-1.89849896105205,0.413660177627131,-2.59547483629337,0.277357380732807,-1.30703076145681,-0.416572841705012,1.15705872040731,0.200346958011617,1.33837848723489,1.22675179354421,-4.4424760496288,1.83621153684602,0.934917793818179,-2.43346857815399,-1.50337482289741,-0.859867299938903,0.930812524030776,1.28317500416551,2.21954450074945,2.01033125501812,-0.14302857344646,-1.21095356154978,1.07261114359972,-0.4080305932251,-1.03548963401798,-0.678463820395306,0.759037349412882,-0.716802304356597,1.36707012037002,-1.11374469433432,2.44020546724102,0.0569031175819476
CD141_P13_S54,1.73752603818675,11.8916147137676,-8.19632707257898,-2.79781707450842,0.755552702235789,-2.03112126367812,0.204103390359575,0.434605126117437,1.91539753316907,-0.674660676652581,-0.68835071045452,0.617852826313797,-0.326738846363166,1.60001124048994,-0.0150827953691628,-0.204693782575592,-0.11510909066969,0.678309491788766,1.38491588774783,-0.758174552412882,0.545973473021149,-2.18413052178975,0.825280508192955,-0.476985446540037,2.11910639299935,0.750410422476934,1.6752385712868,-3.82267590385548,0.429427084684104,3.03164067131368,0.817326829043733,-1.57257294995486,-1.45683534192497,-0.0797325349696386,0.748856628528711,-1.28709749769485,-2.2869652534585,-1.49753002232202,2.94257176866156,0.51564041784138,2.1037788744886,0.0101997824102875,0.284555028482863,-0.301735782111281,0.410487641488457,0.66843947346774,1.32463874546285,-0.112584197335261,-0.991989374319794,-0.689250086144053
CD141_P13_S55,-0.0294374691712462,8.41929155127824,-7.38842162027051,0.453085639756179,-2.1518871347012,-0.065513125735583,0.156505344063126,-0.590837293460378,-1.96050354795285,-0.496074512135944,0.75292478235565,2.56626739965668,-0.694370848091891,-0.00670467116397667,1.72446553529126,0.230053462957311,0.484692879573853,2.44491717858733,-1.0196457688641,-1.3207878475362,-0.477110222293158,1.57145770526468,1.08869535167778,1.62056154065794,3.61121604163117,0.267206806626449,1.71408410473874,0.0860147359872717,-0.0592560085449051,0.322436016533141,-1.75050584187915,0.065309423417714,-1.23154654503471,1.36623239921783,1.9417270347655,-0.255343190513571,-0.223161754625885,-0.36756664378762,1.12587441462763,2.27034316099105,-1.74987500922576,0.47632465914127,2.84274400730562,1.71906025619292,-2.67069676245058,-0.0418378797201947,-1.35030910289645,0.251733099508267,0.792583145864131,-0.662058755729437
CD141_P13_S56,0.144810999119186,7.9976853786166,-6.71020681668562,0.42571424861409,-0.906627478153244,0.563478914168707,2.27690027613931,0.31338343323449,-0.154763694824285,0.785139310517644,-0.344292463949402,-1.26254865646736,-1.73167710580651,-2.91144918316243,1.90446217350048,-0.504233511467084,-1.52539909926874,-0.87988268043776,-0.54897911351309,1.48989478921398,1.21169654515162,3.29252892799761,1.93411368602569,-1.23070048657262,2.59359329791398,-0.208353021638131,2.27165319885197,1.63579658310407,-0.383309061282691,-1.61004500169685,-1.11223537724661,-1.48213911039867,1.65208377480361,-1.0897899291549,1.24603359523117,-0.134468704779331,1.90693864772482,0.689122264186753,2.63904732756987,-1.81047436194509,0.968636965144337,1.78579639226293,2.33843860455141,-1.84381163099669,-0.477055274768129,2.57109111595199,-1.98931039927213,-0.857702967215033,-0.323531141324552,0.172651791911541
CD141_P13_S57,1.32407138633576,10.3157152218054,-6.35193194367636,-2.5560763768952,0.435819618846707,-1.81169529396537,1.32577740154795,1.55374269364731,0.614748349879185,-0.892243034436273,1.11412778447485,-1.44330008174461,-0.127269452695026,0.0730678942478635,-1.50590404436105,0.606570825654868,1.9365463197703,1.61807967070083,-0.427925373272552,0.191548673069573,-0.681483867321555,-1.3827835610879,-1.12106198966252,-0.777867857186552,1.59001789470029,-0.745977967282058,-0.453930767315818,-1.50924140283508,0.035610985305427,-2.59710872388177,0.365352500718559,3.97208023842161,0.0978835072239829,1.23839307255196,1.98903216202975,1.80017694221372,-0.186050571402723,1.23488553253711,0.512118362221408,-1.23687407670306,-0.503446748096658,0.0698442522751017,1.31656556316334,0.860370934666465,1.13531558136931,-0.0957142286376506,0.301346210329109,-0.67680186307918,1.88518573643129,-0.62821043698454
CD141_P13_S58,1.82093515117203,9.20934215111134,-8.3488370966846,-0.204764670415789,-0.0273431448112634,-2.09664837973395,-0.229317695055807,-0.204331088590107,1.34721526974811,-1.11882139145475,0.868226122631169,0.201101248700333,-0.517992987077852,-0.327641491708759,-1.19812992470871,0.301786261731011,-0.385315245520289,1.50228933270205,1.85754177423662,-1.42984035366117,1.1072395198187,-0.137924473829437,-0.474279342803247,-2.78198339173551,0.582599754656838,0.195943849565726,-1.58745387938223,-1.45388583970991,1.42860932224488,0.338642329166038,1.04683188482901,0.578750468989708,-0.658113608512047,-0.26409745086466,0.435121838451851,0.309772780737428,-1.39139231313469,-0.695877653706631,0.279550014062589,-0.0187159410296401,0.372636442292913,-1.16970090351313,-0.539962083862398,-0.102941424527331,-1.22956353217861,-1.458948435672,-0.487097849444218,0.629500919336756,-0.727443704920633,-1.348136908934
CD141_P13_S59,1.52001904560692,11.4543593491589,-6.77045997153532,-2.80992468891088,0.827199684819169,-2.48252351716143,1.79359029749361,-1.17492718427351,0.907860904920912,-3.1916360532143,-0.835131935895813,-0.861205935020967,-0.0948258093815749,1.34558429335896,-1.7401236513177,-3.17595112981365,1.57537143900607,0.877695340268259,1.5943788014678,0.993227792842153,-0.078235068866622,-2.35165499707763,0.0898831099637344,-0.154660000415921,0.943827323214757,0.557058445324324,4.03244864774128,-2.25815141208358,-0.563493674529313,2.25037437701124,2.76754916962597,1.07923796442494,2.13571892604719,2.04780801083887,2.95251484229548,-3.52304820570409,2.17095445822786,0.0525093507646756,-2.93421163037735,-1.41080138452599,1.88036768381106,0.901253330528791,-0.575814751540584,3.59209179045602,3.76389325710946,1.5437789541496,-0.805529931566624,-0.929047023009722,-0.717432431812695,1.29053723191706
CD141_P13_S60,1.71845768288783,9.6148283478541,-7.24615946431257,-2.09621263507399,0.886245764370895,-0.248857036980535,-0.775306433581957,0.38493467110178,-0.16106113319174,2.43072035992921,0.335141120898002,1.34524217378526,-1.26424178338192,-2.84897549143355,0.3129697919982,-1.59097064944394,-0.976935198220215,1.90644527942277,-0.098502059201562,-0.762825025378836,-2.21902681054166,0.58857325215207,0.144991842229802,1.09702904312143,-0.852956400617878,2.1210676392683,1.55620365350875,-1.43614084567103,0.431087773470595,0.212206234425139,-0.521203201065742,0.42345019262433,0.176623023210908,-0.409266710948865,-0.881392660544608,-0.214210110082635,-1.13367207575082,-1.45090992720006,1.55849254419287,2.33294697538899,-0.335911375761007,1.97203804930029,-0.0609109425112919,0.786702428117453,0.600608542465794,-0.544218453568702,-0.931839856591321,-1.10989106167509,-1.18837775718473,0.711659065583216
CD141_P13_S61,1.73063675606282,11.0421057682371,-6.09238421437353,-0.847837191231121,-0.251932240516428,-0.549919824393633,0.986555722457259,-0.151811484658104,-0.69885719481494,-0.40962133707392,0.680291542672136,-1.46242509161198,-2.88456237343709,-4.01185440756477,1.20058559001145,-0.251560822798878,-0.113337288639679,2.05889562923738,-2.56745390573768,-4.12440705551504,-0.997910524530258,-2.08441872839482,-2.06202173620055,3.40145190769521,1.35835713490605,1.14716443195747,0.217154230942822,1.08938209374246,1.03586333247167,-2.04528581255516,0.745590521141784,-1.87259725427035,0.124344811205775,2.44405846452279,0.415509811981067,0.151569630010752,-0.942472353904825,-0.204839442380759,1.30995956610015,-0.138870840354947,1.39026090057276,-0.221799324750499,-1.02091506099439,-1.37242283368249,0.065344582223224,-1.35132354283934,-0.511823852087156,0.797817093802529,0.315368399361951,1.08610511040838
CD141_P13_S62,1.95446229312131,10.9988214009947,-7.68711508959259,-3.39540599342673,0.549162747472766,-0.502044118732429,-2.75110328771733,-2.05838090807931,-1.1090685006634,-1.86774510424028,1.28690795078522,2.148678491903,0.757022605110489,0.420344444197297,0.470468050384105,-1.90847065791266,0.0761955294895696,2.67319666794658,0.338436469466772,-1.41730252599442,-0.817349679938078,-3.380715923788,1.61947002413986,1.65766708855664,-0.325872341193652,-1.03714485508405,1.36786616118605,3.517368396126,-0.861217063469941,1.41944837107473,1.21674967550013,0.306732038714246,0.676701499227197,-1.50033998315744,0.0049402505218271,1.38071310375608,-1.17367024100155,-0.167370008191501,2.32326032166205,0.926610046997787,-0.422330768974025,0.0372833035261732,2.88209224284344,0.440842184731421,2.41953241787954,-3.75716292499096,1.67853889699187,0.283806416223974,-0.886264350629344,1.54744575916253
CD141_P13_S63,0.145508249854946,10.6452311415183,-6.62072608345436,-3.08017677132149,-1.02456808755019,-0.346568098613882,-0.415816050104275,-0.713986111822954,-1.96515459982889,4.09688804402884,1.24864933952735,-1.47572044371088,-0.893570892794167,1.23534669491539,1.47981198953562,-1.21355463214879,0.843456606370594,2.0967899464032,2.51389958887414,-0.715137485598301,1.82137538189542,2.51810149233407,-0.556033824813696,0.966120483192083,1.78207517358305,0.179762059559604,0.792207944784614,-2.6279065507902,1.82147267074257,1.01087686674507,0.428511340902276,0.126468195741103,1.63186092664513,2.64560808315252,0.872836613337658,0.106399721856952,-1.80741229828831,1.65413335781877,3.93666347608507,2.60385051632983,-1.03132804995103,-0.452235742540584,2.59385280200627,1.78864580286821,-1.99362966110315,-1.29454440646157,2.46538021369757,-3.20352996836366,-1.04134944906873,1.34121365406095
CD141_P13_S64,0.841348700618026,9.7045295288629,-7.6536329163491,-1.3049705977501,-0.5841803637464,-0.0561461668204743,0.219620996751999,0.0703477769562576,-0.402762942849251,0.213715088902828,-0.724916491703477,0.0954746424273815,2.17025074331346,1.10085857271276,1.95774204488003,0.10772245437867,1.33405268333356,1.40006720941082,-1.11858693732116,-0.872625788650246,-1.77158338744961,-0.203615192306293,-0.29634440178175,-0.162882996831702,0.507008061197419,2.13105820739723,-0.512119742341939,-1.08316274787843,1.05978079752385,-0.806941419414384,1.20468244541149,-1.10927813167723,-2.82307951091025,0.913405735218356,-1.08622675281823,-1.5736423306288,-2.68869503879564,-0.255815644866396,-2.78214176592666,-3.22953677564602,-1.32032326599124,-0.217269310570452,-0.97769925691911,3.78358123078518,-0.368415755556669,-1.45851362566455,1.29843014093964,2.01614764281465,1.03536923408562,0.797072429376755
CD141_P13_S65,1.14429680071106,11.9611117718977,-6.51092967144144,-3.21373817302089,0.90272267308657,-1.95933005074505,0.697505627289668,1.84018691130531,-1.15911451600245,-1.228837579291,-0.212273505557388,-2.07406335351729,-1.39521459410947,-1.6133886023249,1.4383913152081,1.16847826832125,-2.86385818302436,-2.97877998868442,1.46720876257525,-0.722780420922244,0.233005155792398,1.41014178070749,-0.58392514483796,-2.21980892641652,-0.149778114790806,-1.2904970509565,2.75175307037713,-0.319481912508784,0.725808614318963,-2.16334465217112,-0.310943666098353,-2.15906677849985,-0.260241173251798,-0.705909281522949,0.459248934547814,-3.8806540327552,1.930075590344,-1.38603549109544,-1.67047194134256,-1.30749343543377,2.27735768164556,0.244491096498712,-1.36037376540555,-0.227631184494371,0.138951904857586,-1.73543382040737,-2.15372003032569,-1.19984120268308,-0.890423310829384,0.612713853678973
CD141_P13_S66,1.63898089562991,12.4328127380205,-5.6694623631685,-4.02874133089405,1.4871039888866,0.0249786803616334,-1.00261092034685,-0.118145722860376,3.33990572617744,-1.19702841234575,1.1158749356025,-2.89355797855321,-0.0999805697460733,1.48843535765582,-0.0412014567347811,3.12049404173739,-2.10778868886997,2.53300527014436,0.021780129459281,3.71368403287747,3.89990250415487,3.52761539522518,5.25503016724254,-2.49204884207204,-0.0708588226194233,3.42651304491062,0.526061210009441,-0.567745490562873,-0.824720218380486,1.86228771559008,-3.44820622719866,-3.2306278915966,0.19011580459384,-0.974192747867222,2.11116116738526,0.438668058102004,0.0343571918457954,0.399214521489345,-0.30306322973929,-2.08285280785714,0.638320839863449,-0.464857673182494,-0.399324575819506,-0.153487389174808,0.104217023029829,1.25379775868131,5.25581046748723,-0.277812273490674,-0.607347663426605,2.31069242704716
CD141_P13_S67,2.04006934283661,11.4323549283558,-8.25696256513682,0.796150633582392,-0.295834239948311,-1.86970483247209,-1.52428307931733,-0.0163143658795413,0.358251693800741,0.976982369347437,-1.78807615960446,0.196012944335501,-1.23350785895531,0.206333417833358,-4.26823986158765,-0.160765619377782,0.254407397860227,-0.527534442661602,-2.94779982382608,-0.676876454375475,1.29888756904407,-0.986747898411742,0.657042647514075,1.0610888621853,1.1082168314243,-0.920295453273154,-2.12890622106277,-1.53069701846328,-1.90541704705751,-0.563059234858602,0.179882945962843,0.437634530103027,-0.180885854455793,2.28215284737061,-1.43039923107121,0.558649358798676,-2.07832783583406,-0.653863148439138,-2.62061268482732,-0.0661221371078468,-2.39504984482576,1.05786815024095,0.933804566391732,1.99417327876263,-0.384102779385366,0.917191279020908,-1.3752319683822,1.87663581832928,-0.163233677517245,1.21279024635555
CD141_P13_S68,0.398856764285822,10.7878833801586,-7.67898494740129,0.0681554214842394,1.16207432157081,-0.832203809598134,-0.86503633639207,-0.0589627749476587,-1.88080628503213,-0.633101069001559,1.45049670688842,0.852462120159911,0.7616893311437,-0.756396612179539,0.0348435407631067,1.21635276522003,-1.33085157347938,0.13236126781591,0.207248449846422,-0.255591212538831,-1.0026231485195,-1.18004463167702,-0.557680982733022,-0.325982161056213,0.866976462916421,-0.151269060318744,0.937951746366502,0.373827127319239,1.10763298865409,-1.24472003867741,-1.21284080516729,3.59531041855133,-1.79760937275602,-1.53939302784041,-2.17018723681111,0.129342962843562,0.0566490007596287,-2.45178791674047,-0.314901770960429,0.974440681158022,1.56681524980594,0.0490560766794292,1.93295104323576,-0.387709104396719,0.993550918470986,-2.31843799054883,2.66778735664875,-0.0404575356370339,4.20773711172619,-0.493117513836103
CD141_P13_S69,0.534454817545217,8.7253637510255,-9.57651470758782,1.93929640149812,-0.437694348619389,-0.424639021521816,-0.29458004225534,-0.43574814255275,-1.81402786588045,-2.07206340497749,-1.11340630540639,-1.56284375040855,0.773485525840084,0.127648333440011,0.503736439556782,-4.03011790594778,-1.43674512589411,0.458360114059525,0.725442654962822,0.0537769186095191,-0.721502719227878,0.0112126263389085,2.22309164227891,-1.94839474269838,-2.79166634133263,-1.53540496833424,-0.767727378651228,-2.58998858778962,-0.0119379936359839,-1.72193333550408,0.789418970731562,0.811384940307818,-1.58949440148691,-0.345703369722877,-0.885369487097306,-0.316845536354256,0.00120254289269238,3.70336691813986,0.844169127606558,0.299888908722074,-0.404578744193057,-0.777514037828573,-0.0434287411702127,2.05820495584631,-0.961278043908118,-2.59662337594522,-0.614639536218007,-1.46322463004071,-2.75762677012161,-1.57002402024413
CD141_P13_S70,2.43580072168162,11.5883855622947,-6.22584576113217,-3.36109647740226,1.38583957067545,-1.84904390541495,-0.132124165421035,2.90335394593767,0.284536102325493,-0.162312493945561,-0.944770786523929,0.236938983287532,-1.24668235924303,-0.976430796720438,-1.69250134983994,-1.07056594297416,2.82936286798097,0.0235051267805298,-0.215351463320579,-1.45591991453989,-1.53858374572457,-2.2732671162699,-0.897048127032264,0.616387864210744,-1.01572913774733,-0.39126940888164,0.251564691322343,-2.60313666092368,-2.80313009885378,-0.655596283415049,-0.364031673445734,2.17948683182592,-1.56841772872706,5.01228156545987,1.29895651572592,4.20997588013687,0.518824886215123,-1.44941078540854,-0.133269542332097,-1.80184227491292,-1.22773870218933,-0.298300230746479,0.261193165144662,-3.23602237543206,-2.58913118950977,1.40648483400878,1.20100246779781,2.43984986524757,1.72910280000133,-1.24282947024432
CD141_P13_S71,1.12925839924807,9.43338875982478,-10.3275074675011,-0.096010208309514,-0.0987832221734286,-3.03590103680212,-0.120312577015602,-2.65582921468833,-0.0455946815353003,-1.81233720007525,0.606520136742949,1.78144919873566,-0.579457994231621,-0.655845711037677,1.43844276750281,1.10600195216824,0.622367734706524,1.8364041389766,0.591722817680663,-0.929827824236364,0.396746734469214,-2.08832599673282,-0.156918487730496,-0.269060454545999,1.83146679442503,-2.68221401385429,0.445629915306333,0.71836138815596,1.5581202903646,1.15352414045581,1.01804402601076,1.85752248333102,0.259298449951577,-0.307652733016795,-1.12170215471987,2.34608136206012,-2.0288607557118,-2.00106568511185,1.67837290775334,1.60455657344191,0.034498281742008,-0.331457657586684,-1.01579450337427,1.13803497701922,-0.0609559811430266,1.45840978965964,-0.0839371688338699,0.649724973698511,1.34872371111351,-2.20401682437211
CD141_P13_S72,2.0110306715442,13.0652464579779,-6.30834674540562,-3.1034983608325,1.24231203555415,-2.47966710807127,0.759956630315692,-0.251988496122584,0.174346099106437,-0.945194349623258,0.594069066726541,-2.717751793343,-2.37952112450245,-1.89797133412225,0.369885872376802,-0.769525068299875,-0.867612529836161,1.29532109782556,-1.83766466163236,0.412573787017163,0.0101434549449991,1.26062692073403,1.39078556580953,-1.38826603174018,-0.665612213458176,0.742511770512098,0.0565667757535995,-0.984978261998631,-0.501120104957869,-2.60346179626845,1.59250483892459,-1.94218337953721,3.74922174236198,-2.04637063563981,2.80939184867078,0.539123098472824,0.874617845526794,-0.0597026902198233,0.880213517399216,-2.57344215804377,0.0667281260803659,-1.44860217353274,0.312634333443449,-1.66996300975391,-0.581830135046798,1.23856129634022,2.01109282698298,1.22628533334002,0.809038942424795,-1.47024629135658
CD141_P14_S73,0.243364417863821,14.5890081834188,-5.87812547113764,-4.20422516461889,0.34480340306094,-2.95528850706114,-0.0888232771571358,-0.467660069750884,-0.819256854211422,-0.170317562435734,2.56330063544629,0.255051199517256,0.0933593489182294,-3.95935979867465,0.157072779046179,-2.27396675388898,-0.95816808556286,-0.583596631828492,-0.535061192940834,0.366500002470666,1.82030599011033,-1.5919767280102,-1.68878667952984,-2.4660926435782,-0.658565885845925,-0.19437127690312,0.563712805193319,0.220235871875728,-1.64695748652791,-0.078453556592365,-1.29382242704311,0.863243070112985,2.55219399351877,-3.78708118895137,0.634801134976615,2.26204837019247,1.14195831365612,-0.200046163530787,1.34395634618553,1.35627534142809,-0.714946660105344,-0.908277416463963,-0.548097173075129,2.94972629214107,-1.2337976398497,0.856454030548284,1.28740457460284,2.35260821395727,1.63333718473246,-1.52141764823397
CD141_P14_S74,1.01632523716192,13.2557902572236,-5.68902046254458,-3.98610016256435,1.2340929609155,-0.254276714912826,1.24001368392674,0.678855647077358,-1.70369377905248,-1.39366882391954,-1.19824369758862,-1.37960912071954,-2.59764705079524,-0.948220127669554,1.52246411824719,-0.560605526634115,-1.93765480273295,1.72528420114868,-0.616734802850459,1.09027456202853,-0.305596836578363,0.544326895599629,2.44108622119343,1.54876445501864,1.04326187892362,0.0504237547217101,0.160082705531896,-0.556553522434257,1.74596603368385,-1.80408954082552,0.0195541123728598,0.136729724028048,-3.02826371384892,0.562949340059903,0.18520825984455,-1.90810281846516,-0.987811344959269,0.053145007355004,-0.153567747661937,-0.289921290667455,-2.37329903883468,-1.0773279710751,1.67109373118741,-0.311718824830133,1.74866405045997,2.47010375563193,3.92657904238023,-2.98331721765382,-4.61317289472306,-0.980268715751338
CD141_P14_S75,-0.956104344665574,13.5237402982666,-2.78046481731762,-4.58409362513488,0.47512759813033,-3.19122069775912,3.3453454141463,-0.112248560322891,-0.554746821825168,-0.439430069242452,2.59585897411154,1.55041947218321,-1.80808183234823,-5.20043299581139,4.20847866517421,-2.64816689108517,1.51190344967147,-1.33629184218218,0.811652565573504,-1.96216917952313,6.58232845130162,0.368278296613139,2.32630210624421,3.14169326859164,5.75227307744261,1.22101811974142,3.31805180864921,5.66484162952823,-4.16959399785461,1.5182953309803,0.655835698701662,0.257709680896446,2.84183138309527,-0.936410545604063,-2.36134723333316,-0.661008383531451,4.33380544700623,-0.120818385431451,-0.296429403078702,-1.94416911067021,-3.80327613324131,-3.48230678774257,3.5074761320041,-1.36005740406084,0.646708698070572,2.76717749542829,-6.7690488147371,1.84200109657719,0.92297422999323,2.56925599315995
CD141_P14_S76,0.623307190127859,12.9078306353036,-1.92305819230631,-3.34106576128845,1.60119777043925,-0.358515950144162,0.840849554580237,1.06810082786855,-1.01618766914559,-0.975737557257819,-0.0627872518253156,-1.99884110155686,3.11006343122372,-1.81417517406263,4.01660463000129,-2.00996836000063,1.02203034097141,0.0412432406722724,1.50905509267589,0.898334898906598,2.24049837895129,0.847435251618528,0.479341096208317,1.5223996291561,-2.06576408212057,4.33160214128853,4.41215285101472,1.68054272269209,-0.986342273345182,0.638441520046107,0.423936539578755,0.0504906384706692,-1.25457177985419,2.64914951992724,1.72109719826705,-2.47147438429741,-0.751451308965157,-0.261837793749898,1.68469437973141,0.469718024064758,0.721981103847186,0.38690902631594,0.167094659322102,-3.3257731366735,3.07795633170234,1.76737198588019,-1.3105775676537,-1.00427098689138,-0.19922652601222,3.91276768748158
CD141_P14_S77,1.37423003108871,14.4985758130796,-6.83850212183298,-5.4942826551948,2.03325327813637,-2.92473577495108,1.9541306530341,0.216324884719525,0.933164106442598,1.21601473228924,2.77193018990196,-0.702941216234423,1.87527915582563,0.500790096625916,-2.70774975243878,3.09556613627416,-0.119074179112885,0.483869696809736,-2.9201895262484,1.20821765584751,-1.87302619585829,2.40707393754857,3.72045717988112,1.68551236031139,0.614940699818006,1.73883265828741,-1.10013312536867,2.28404241545728,5.05874250107525,-0.499773191195111,-1.55078741560718,0.822814167575209,-1.00635826825782,-1.42250215478034,1.28324301204168,-2.05502549215424,2.42653299806934,-1.4091694344243,-5.24608598236932,1.63475957324405,-1.72479743099667,-3.09014427662764,-0.11441612154957,-2.87387450859267,4.59828399231295,0.0371097726420559,1.132356667955,-0.139845122009799,-3.53051458303772,0.230375486967568
CD141_P14_S78,1.08748046513811,12.7010616883712,-5.82555944840329,-3.06280283131878,-1.12900912226118,0.138247298579825,0.817212287285528,-1.72044943211435,-0.891532524041083,-0.77744998049685,-0.856345627012319,0.260346163519274,-1.74838461576617,1.18384273479081,-0.140207012015876,-2.72975977981151,0.00122301462428586,-2.05539000949131,-2.64140672278704,-3.91048587438976,-0.570595843551611,1.38403153982346,-1.29741821531718,1.04666724214277,-1.89281815282151,-0.893421767773428,-0.923479818757723,1.57864312919769,0.138731848287194,-1.95861476649664,0.723985977448602,0.994437612508662,0.829813841459697,0.613765631451523,0.37223480252637,-0.160029384762503,0.62220753199803,-1.79695358601166,-0.990141547815748,1.0480909712459,-1.80757092562491,2.15195799939578,0.136328626905552,-1.72753635174417,-2.03960435346485,-2.52142039238992,-1.82408733513763,-2.32030941648978,1.75896384092524,-1.56276734303868
CD141_P14_S79,4.23247749180853,3.04565934611545,1.07412076815208,1.69681977089527,-3.28291763785558,11.5192966505566,3.61865444870058,-1.85653398591024,1.45871293146678,-1.41747097526524,0.675390954382297,0.84772387273761,-0.662332762268453,-0.0974845598311292,0.217577786652531,-0.633409712657747,1.9383709861092,-1.53152180616566,-4.1057291252091,0.639427455489465,1.29965786071273,-1.46520958459434,0.379814638755636,0.17757404436583,0.206839343264402,0.722110860464165,-1.15755270930835,-1.16135251498907,0.62894334591417,-0.00257525731984802,-1.15268576549857,1.29109282141944,-0.853947082640522,-1.92134456105887,-1.252285130008,-0.475296420160033,0.52866667424773,0.112421510723406,-0.646877886682221,-0.992995473068418,-0.706344150854776,1.59328263137702,1.09883581023784,-0.732858878897223,-1.52768391293246,-0.360150677995037,-0.56066369686091,1.09699416941183,0.469764988084164,0.32993725882795
CD141_P14_S80,1.47244991164942,11.7081898774489,-6.31038122550261,-3.49280934824087,-1.14533485439538,-1.31648909698482,0.333673503762778,-0.360451725421552,-1.39821355455241,1.14708275814149,-2.81974241971906,3.93910264174243,0.0622203192260835,0.0288580414890678,-2.01334032913191,1.46648404016848,-0.892505735902211,-1.182237816273,-1.24569465664155,0.511283769167287,-2.97426968761863,-2.4203317862763,1.03139556638809,1.01453042316844,-1.5143322086273,0.513523719959093,0.992010540387314,0.507156860674907,-2.08676039416557,-0.326132269932639,1.53059273758357,0.36343995837799,1.5976308315308,0.294273134912053,-0.441285560674654,1.39460236242121,0.450229383860867,-0.330025387935799,1.68872601253433,0.892550367412581,-1.68259073725675,0.0764336999412192,-0.942972817304296,-1.48563998082118,-1.1814571695618,3.23603932627035,1.70695345565834,3.42708014261136,0.296685081219102,-2.08025073389597
CD141_P14_S81,1.53896438102743,6.03081580323843,4.64153857247995,-1.55557655880451,-1.89144848181285,10.9560076656708,1.56755936045999,2.1003950832169,0.461635402742627,-1.62411586071527,0.242983239211759,4.40152035495518,1.69659478604586,-3.4005602517561,2.71390798179312,-1.20927915739868,-2.80035135614317,-0.297935635779803,2.45194326679554,0.947910223163205,-2.24465897254617,0.960906974732492,-1.38736510326049,-1.02243347231471,1.8663320496315,0.835340180783051,-1.91849823901028,-0.90836115102503,2.91314849714377,1.39047751633382,4.99822238991008,-3.59045740810575,3.42862734719858,1.53772520353823,-1.08412734202118,-0.150839480136935,-1.29323279609811,-1.83307892399132,2.95905118049875,4.05404203259006,1.5892272612041,2.15150879982399,-0.906952105359364,-2.1683362494009,2.30375613096118,-3.68160645211004,2.56743311380666,1.55923587324025,-0.469203538765097,-0.316277770100443
CD141_P14_S82,-1.37959701512157,3.83101828870014,0.690100249369867,3.88169190563849,-2.38046513296574,5.90735047914874,-5.98766980785536,-1.03454348462735,-1.04353912254119,1.4166118798688,0.126088691896876,-0.0944736975414349,0.403184917009809,0.974064812529034,-0.569691259854008,-1.16860075464221,0.0521073579171431,-2.93249705421553,-0.0772868850835641,-1.05339613659553,-2.14100487429872,0.0334013909388258,-1.22489979545291,-0.161292162087871,-1.2978182148079,-0.12987505125862,0.168819121553009,0.269881253463946,-1.34876745945436,-1.6376584279212,4.12543021008725,0.881245409204085,0.224136833579857,1.16826788513656,-1.85759479397008,0.782047741219718,1.75519003414314,1.13061120335719,-0.646836588561886,-0.709045060627149,-4.97756973649889,-0.0298316567730151,3.24722565854028,3.39984193330093,-0.581029963205421,0.707738227425517,0.584838950683633,1.1054485141063,0.320014884176268,0.292149849238957
CD141_P14_S83,1.37660946352799,9.73323771437356,-6.97263311675374,-1.24798271607282,-1.26331535433067,0.0170050185640159,1.77900376689569,0.702402963805537,-2.00562797698659,2.48219595344398,-0.343395793984367,2.3212975665868,0.885481888618835,-0.528340581708538,2.24632985285277,-2.0503568439519,-0.69544950773244,0.753040995143892,0.896272079887513,-1.80614323582208,-1.41918986268291,0.991399621445325,-1.63825694546948,0.815774762778191,-3.77884011250635,3.8578938056002,-2.36958406535455,-1.75189133302977,-0.171807636551238,0.119163414261097,-2.14158294490129,-1.53498591042493,0.0672937259098889,-1.7979642706144,0.106933921437813,-1.00221965395301,-0.440789834591575,-0.127666989048947,-1.7935320201322,1.20604182477927,3.57355491688733,0.00449785485757791,-1.14558150835633,0.0938929503657019,1.23031499682735,1.56346196255934,-1.2808264859139,1.20974448617898,-0.466394895187678,-1.29212733694244
CD141_P14_S84,1.34754320345421,12.7878151552138,-5.88640936379088,-2.82521242071915,1.11090635565049,1.1737986925957,0.803552285004036,-0.683821022490276,1.56927940957104,2.11173788502981,1.52069790244566,1.4329528253471,0.205977359500355,0.546666785239207,2.56608225976884,-0.863715994886968,1.05722309926364,2.23892694274397,-4.02323876978763,-1.0478107990215,-2.23649304501605,1.59565613664703,-1.84061766489222,2.70134920323819,-0.588791562281548,1.68887533097511,-5.36057970051962,-1.41237376697621,0.323558813184215,3.44609351181095,-0.122141075779168,-0.421519866321029,-2.58076892687114,-0.398565826871959,1.81280757501357,-0.437502758301571,-1.94942782907011,-1.77534445454239,-0.346040844348746,2.80475824772323,1.84998740696502,-0.228258340743901,2.47242180859322,1.02534560587222,0.573633141828568,-0.141658689864316,-1.56303948257234,2.24083705879423,0.127525167306055,0.137877095259052
CD141_P14_S85,1.08163033019681,11.8244712019222,-5.31989503903266,-4.14634180741652,0.116206591782107,-0.401051538483601,0.919600730949113,0.0649410328719706,-0.702615623646517,-3.27912452383784,-0.629866512048042,0.428608219406985,-1.98440085240456,-2.14190478223121,3.38888402917683,0.245471760667399,0.292684568179697,-2.2223550807693,0.175528947102392,-0.957395246439128,-0.972431352614395,-1.6738730088463,-0.289541809050073,-2.50003179977009,1.00913951503829,1.81496651910083,4.32701242567526,-1.7908878534954,-0.156830157911477,0.0280830564442378,0.64443896876594,-1.06310621817918,1.14494576399775,-1.85673388239722,0.594927078655555,-1.04095922008537,2.50063003793586,1.5974694330402,-0.166258742230306,-2.21463347975781,-0.338541967379396,-1.26557031872547,0.498003227982261,2.1537676083646,2.67527170851539,2.87271914291644,0.123227465188378,-0.967114457727789,-0.15078530898797,-1.90320896066384
CD141_P14_S86,0.441194850804604,11.9232335757949,-5.04324199318621,-1.63379864853097,0.0343187365303169,0.680145983586755,0.67498043513813,0.378570781097887,-1.39229351508141,3.27947918805998,-0.597998082234338,2.25385650800944,-4.44778851004419,-0.275616969038254,-0.459577943015125,-0.16418221259632,2.03029000955964,-0.245843290004172,-3.0414030183362,-2.38139517693336,-0.442206200003914,1.91138622077996,-0.452923960931415,0.191854453026604,0.633430905454207,1.7722101055914,-1.44271417083761,1.23337705209411,-0.0460949756070715,0.908134322340873,-1.72444909555521,1.76562197127365,-0.235759694108619,-0.124048145911342,-1.64414325318744,1.31118508924649,-1.28069349675196,1.3668233755042,-0.162270539293513,0.0200169998938676,1.18222261873672,-0.373988979483154,1.22036528383309,0.838789804572234,1.66076401364048,-1.57944894006621,1.93854614523357,1.99277253559792,-0.150169148827145,-1.52825523768281
CD141_P14_S87,1.01000496636721,11.6039206925666,-7.16356810381168,-3.45132404386101,2.26722692565288,-1.58891938432735,0.732972981142802,-0.00762488347958761,1.59564857451966,2.13680848329001,0.77407934898501,1.74711395687064,4.11386264900211,0.870036917722658,-1.79652542787334,-0.752497714970758,-0.309418628073052,1.54610507547135,2.07038680527292,2.02629728554071,0.137916731836834,1.26602394233112,0.739190413836851,-2.37609227843378,0.0333851113400222,-1.36608332787849,-2.62852532344456,-2.17072894799028,3.15390969705448,3.89242368923446,-0.011228887735496,-2.38207498914585,2.14425927630451,0.490914322797447,7.16950773973018,-1.70787364888675,0.960577656423517,0.243803619254075,-2.97918790410182,1.12037793664732,-0.0301317230935509,0.818966236685738,-2.28728902397511,-0.205250928561549,-0.542951501919079,-0.238762626045358,0.752112822632011,-1.73398090104708,-0.118628298984358,1.16594577110418
CD141_P14_S88,-0.229383170489543,13.1866328555605,-6.12668859443421,-4.57235877443475,0.133848510511238,-1.95724388833197,-0.12975840685593,-2.54872898026079,0.132887203107812,-2.83324341165775,1.81699007429913,1.72466274695862,-1.47716033162009,1.02098019561312,0.950316485458667,-1.5607540366894,1.44758335281659,-0.120663937502461,2.10791379931941,-0.338069338071861,2.44668777002462,0.181284838533458,-1.68410236652828,3.52085640095707,2.22790520140567,-3.1304207687523,-1.58791840716655,1.47446166975005,0.141787557185674,-1.85016432148214,-0.89365542363836,0.587102643974467,1.37307011637931,-0.118737146480231,-1.19690577580356,0.335279546405423,1.67273487191936,0.57342545264295,1.11969024703943,1.54088642960353,-2.59735080839472,-1.54034207143217,0.835957608744656,0.62441957657807,-2.17527560345385,1.05466333074148,0.0796816448239139,0.979365683209874,-0.577736792778319,-1.46620385877749
CD141_P14_S89,0.92598650793863,11.1030492617437,-6.14003386715068,-2.9541570020629,0.577112933895912,-0.498856239300252,-2.21841419485344,-0.0682639069133131,2.38766360676874,-1.19364948902708,1.93355534986269,-0.968797617931329,-0.995172058863508,-0.0364063219281171,0.531623099865655,-0.270445844481951,2.13808071330485,-0.454732593401194,2.42082266978938,3.03436187794608,0.113203758326687,3.16145255832552,-0.407878213099125,-2.74785483266775,-0.700022375966492,-0.289130556154438,0.234383799223889,2.04797799237448,-3.49711620443344,-0.192778464272034,0.685649711586816,-0.900712404084171,-0.944724259749452,2.49865919032543,3.86389951199316,0.318579597699224,-2.04460798490829,1.47837177707851,2.27244443946335,1.38250292120069,0.242755521931169,-1.89124323649193,1.58920540011213,-0.748891329569645,0.723189771788621,1.11435121077515,1.75869445086186,1.871095135649,-3.86175846096941,-0.461611144945283
CD141_P14_S90,0.504696354286399,12.5261927544635,-4.58898542445558,-3.77267978248734,0.704556395381512,-1.03225025225896,-0.60957901052759,-0.232392163851346,1.70561461808356,2.5697383880007,0.424107445730924,-0.943917659528896,-1.56336884238727,-1.61013867278993,1.04295912112298,-1.41486317470857,1.81360147029459,-0.96487435192287,-0.872662022938477,-1.82653950662729,-0.2622369646699,-0.921390974658196,-0.970337923685507,-2.31739451805668,3.31074281187815,-1.66875507380696,2.1399415749133,-1.57119773785799,-1.43625282220314,0.793879030483879,-1.27531760399417,1.53140900951352,-2.75062180513655,-0.549312937585796,-4.16772527593867,-2.10191949502844,-0.710401127271712,-1.85483687769085,-0.909409883180648,0.975909433643769,-0.515414646598743,-0.310333799396105,0.0290045589563517,0.461935256159804,0.855097328397278,1.99251261770452,0.426966336614402,-1.7968126041831,-1.27465207526221,0.651104258399938
CD141_P14_S91,1.18877432438937,14.3914576001225,-2.15536201587419,-6.28142674851635,-0.0216420509100946,1.24664944258113,1.71941317218967,4.17016582661163,1.0742203572089,7.08024519425032,-1.05501893754799,-2.58368096971089,1.26928544054248,-1.49255348139416,1.38378993469075,0.152224785749805,2.58866475053065,0.134405615277881,4.64653468124805,-0.906821056386225,-2.53732030380502,-2.67281499291666,-0.229780838050241,2.14858616902521,-0.384573750576642,2.09874294103659,-1.34424399088846,3.61174545633519,-4.70727370263709,2.65405136283311,-1.2419656969636,-1.32844586615254,-3.29357958096054,0.462149099230978,1.46559701708241,-1.48830758344513,1.34602512701822,-3.23615333470858,0.137782083323399,0.212492260224458,-0.585086578469018,-0.176012793893965,-0.158899506964519,1.70570375594679,-0.212329778957463,0.140617778489013,4.86846431506422,-1.67390440513561,1.17978128270457,2.77728072797038
CD141_P14_S92,0.579626708328927,9.9766959060913,-5.11982063704926,-2.15833649647136,-1.40395930029838,2.14945201643245,-0.249898057357885,-0.62292381644949,-1.12645173927862,-0.0627003700653486,-4.23213917623578,-3.16527830706306,-0.558778332015946,1.86512023715991,1.425244288086,-0.114430610834979,0.176666813469718,-2.27264539229158,-1.25623411549415,0.965807586716636,-1.8475155135205,1.18016514221512,-1.11692042935872,3.7232157390075,-2.92256669642351,0.331602918525615,-0.620444360951108,0.592150506669828,0.5824693019013,-2.05223183984998,0.287914424524179,0.876773227276578,-3.24346388203917,-1.19652787283732,-0.229103304594643,1.37976813759824,3.03909661508168,0.195129089035306,2.90854525089235,4.78872379114099,1.76041227249959,-1.03541559242092,-2.10824045446575,1.4058816669465,3.75783799569252,1.22899182808538,-0.250732632613648,1.20858182868125,0.297321293944219,1.11237956215784
CD141_P14_S93,1.65019940353194,13.2024901520192,-5.10792335077108,-4.38536220613051,1.12252248879679,1.5085614648022,1.30416655012815,1.69560138346138,0.0562337857016035,1.11626715578001,-0.152841998531633,0.256442366963448,-1.75628188493611,1.09234124735449,-0.611554730370451,-2.93710485060687,3.19551001501186,0.961259506422438,-1.90271778281894,1.62982190252306,-0.604699037846876,-2.60101894662215,-4.94446143280954,-0.989201943029036,-5.01187491325119,-0.0121918905619973,-3.45602495700054,-0.663484845335553,1.95993649437921,-0.921269217255337,2.61046759044471,-1.03166023269326,-0.277674310562856,0.587036749718947,-0.232650359220829,0.1227312408452,0.745617572892372,-1.9570537221436,-0.301328057360921,-0.771484278453185,3.73364721093523,-1.20124149529199,-1.00728568546321,0.939227483274592,0.488628862946501,-1.26770495147051,2.68210996296876,-0.030373790027024,-0.403358467751195,-1.31716562736625
CD141_P14_S94,1.06179666579997,12.648833743535,-5.50697412790475,-3.28965675360278,-0.0310760279545031,-0.00505218986067975,0.922037510539018,-0.473289706945965,1.06488958774513,-2.31153711499383,-1.88052899732936,-4.48591668089653,1.3585254998947,3.00995221249478,0.532789969485914,2.40899298295614,2.7661861552014,-1.87867341450075,1.36507561209529,2.08867289546833,1.05163652338569,1.98324214542648,1.19232929339335,-1.7146374509418,-0.0347043508753898,-2.71649609551074,-0.627210267033907,-2.9925388634776,0.61153939515255,-0.72945393348773,2.66239799152805,1.07090786258987,2.60064218090585,1.54934785096547,-1.11796788888514,1.26461652203711,-4.84442323559318,0.487348367750145,-1.1732560994358,-0.160599438830802,2.67727145384785,-2.16817243092473,-0.411845718734644,-2.59934592320361,2.36431448902457,-1.49279362061692,-0.1884302112425,-0.718425753485906,-0.372848836773862,1.02222270431236
CD141_P14_S95,1.41836912898388,13.8274120001105,-7.81581023743819,-4.36533931785175,0.915930611719356,-1.06374433484445,-2.69747977676563,-2.43792428346067,0.605029472265219,-2.52098988000836,-0.0156207715801106,4.33918401589755,0.10433270208321,2.84468885383311,0.428204563067331,2.13115769220981,1.68539112173086,-1.06643170304749,-0.520350447841703,2.05638013922463,0.182256563458779,1.21966050632183,0.215486958626304,-1.08347251708622,-2.34683525040935,-0.620181493845288,0.941658474505597,1.22090595771818,0.0496086410323729,-1.84506879005606,-1.79352339351412,0.605443464055436,4.30088540008781,-1.20714516432984,-2.85106330954058,-1.0384297349541,2.49267674399031,3.65571743307757,-1.60599344449289,-0.781124201274746,-1.44683679407789,-0.725264998672805,-0.140629185321297,-1.05123756024355,0.473383850913144,1.5951354498635,-2.18259120023535,2.00580414323306,-0.37477036690437,-1.84367418453984
CD141_P14_S96,2.25915000675632,11.3341826807947,-7.77198116805577,-3.00283292269525,1.94933814488332,-1.83470387152058,-1.31809576531839,-4.1296291070334,0.0573260940298814,-0.356100696254066,1.7675430793935,-1.80101176634302,1.21678672399355,1.70723019997723,-2.06953339623691,1.49101032299858,2.93534193937324,1.27810452472674,0.727155026118373,1.45778622517268,2.05695564470563,-2.41173183939071,1.07808697053814,-0.808696235558641,-0.0337339050737936,0.810267665856708,2.99409257535217,0.417962477200882,0.522080716014547,0.91538349863981,1.19070344499516,1.07865375293004,-1.8016743878831,-3.83194471601089,-0.182130228628668,0.177968559348658,-1.3486837200989,1.90097335581935,-1.70511162965821,0.31269371342387,1.86751014495002,0.113100756064866,-0.547978943460663,-1.86415539894505,-0.271816692475825,1.05007674486641,0.180857503123015,-0.0252517357655904,-2.75674220948273,0.21604022324816
CD141_P3_S10,-5.85645026487452,10.2873763585333,7.88927802018799,-6.85709394074163,3.52559135512738,-5.89920790382184,6.76126855127157,1.07983811905835,-0.201559530883068,-0.0847661283737574,-0.606982330477902,0.952204646633108,0.374474448263891,-0.592174095067322,-0.230331190786923,0.646362857322098,0.203837429285489,-0.37169192976859,0.266714422808395,1.08102910525006,2.66494154854019,-2.56651052433448,-1.0640489735643,-0.707417672730875,2.11864083385137,-4.95429442432365,-1.90230471150601,4.39145842931593,-2.60299229373009,0.173943715719779,-1.93555506311231,1.88397779216464,0.461613478392454,-2.20883445286734,-0.107104248759111,-2.60183157084447,-3.53472369359028,1.23760557636995,3.64418584300746,-2.4091521103606,1.13128473880108,-2.86331212801847,2.9572187686744,-1.10230787628653,0.402074182432379,-1.69047390607471,-2.21642311236516,-2.65830328600103,-0.408147661643398,-4.17689465625548
CD141_P3_S11,1.21635886858525,10.8154177561904,-5.70671322695109,-1.76993581537938,0.0120216661791392,-0.919902452602901,0.821056219086654,0.437246590264278,-0.820536900606049,-3.303095847997,-2.06939904785864,-1.47442009183934,-1.150960126763,2.26034076963105,-1.55382378929102,2.20543632033119,-2.34863856938178,-2.02811070643022,-4.14041770151251,-0.350485280901633,0.37199410863439,-0.46419434888136,0.0482988337264161,0.470898231429124,1.78888879202478,-3.86074115259136,0.900422627594312,3.91369971239146,2.94389899356387,0.838128794856676,-4.11088565578115,0.731229939107532,-1.81339259562851,1.6599728892308,1.36004260035423,1.52392357406771,0.854821802584507,2.01055578737766,-0.33111022788369,-1.77303961778881,-3.81932636185559,3.69691377666488,-0.0451007507843854,1.46944372884784,-1.17420949735732,0.881785892569397,0.6776958345694,-2.55610597712741,0.738494634665472,1.32015240131225
CD141_P3_S12,0.378805294332154,11.0998107926481,-1.5622431502561,-2.43481815589963,-0.536685086629841,0.271281843860361,2.15609458364512,2.62571619414514,-2.311722227341,2.39013537201209,3.31966133503737,-0.460501145648217,1.94266518784772,-2.05041141813138,-0.56666782449554,-0.707829716185709,1.12524993669635,0.0104293058457733,-0.584562224404857,1.40358339623868,1.47514905597965,-0.838103766074639,0.481762394174922,-2.57188815983277,1.33919687080939,1.83813354660952,0.918961218734985,0.0803678941427313,-1.70580053692865,1.03592305038232,-2.42111957696207,1.3942435546092,-0.705734060056423,-0.611235221343944,-0.203569562843333,0.568139339351411,-0.33444578741911,-0.574262031651957,-0.852423724857119,1.11758681672845,1.6271342233201,0.104045884199394,1.0675175461,-0.792156673815128,1.65697162009843,-2.56109810220289,2.39460617361854,0.184327647615911,1.41314146311056,1.4557646330667
CD141_P3_S13,1.52500855192189,12.1756961275461,-4.34289778451329,-5.30622404093718,1.00879724213576,-0.275653307084838,-1.61975052963176,-1.1411085642092,-0.0532814462277532,-0.365944711392815,-2.14687491326368,-0.188214542025612,2.88996470387907,0.685633976844634,-1.48457964211259,-2.52182859990352,0.461706548512745,2.23342342204115,1.8312851486115,-0.15920675275445,-4.02206332613967,-2.34339640524857,-3.05437135449656,-2.80184905024435,-3.7982699921364,-4.34051580476107,-3.30007656679505,-1.5368824509793,0.435625513988702,1.88517110989569,-2.57020316609339,-1.09261243396236,-1.50669627844838,1.26898037111903,0.818474607853394,1.75535004615388,-0.245814211150889,0.609007278850969,0.225970560884469,0.60905720783519,-2.24510853216942,-2.00255145888308,3.44021477289556,0.501785311917303,-0.703829934579023,-0.924755100789492,-3.25276659278071,0.903517605879368,-0.751947023705453,-0.529068906643074
CD141_P3_S14,1.88456785131816,11.705466139873,-7.26619589960324,-4.07119255520884,-0.767064365913701,-2.00844940297893,1.3281021748548,-0.716973236194955,-0.23119522375056,-1.20767085850923,-0.34297305279166,-2.31420831552132,-1.2292697311605,-0.571858220019657,0.672439232386986,0.171273065378157,-0.783726989272721,-1.6687832904713,0.249948489929468,0.922343430874386,-2.00709673658434,-2.62736783627186,-1.01576772702491,1.13984745819631,-1.84965126069975,0.612727995687832,0.297293849088672,0.646947527091837,1.58118305039161,-0.551200018479661,1.07490864276494,1.65582537341382,-1.77298692691234,-0.814937670512877,-0.982506734045361,0.316429044847829,-2.38013092165205,-1.84209347026823,1.3898227187674,0.123217956557709,1.46090693308667,2.50888354530523,0.718814797160447,-1.5177345737402,1.46034543946117,-0.232385118632652,0.651140896942019,2.36337505946188,0.580495442537444,0.61782748643412
CD141_P3_S15,-0.136857476447847,11.2089854061128,-4.99165855015273,-1.07715916076451,-1.01451722364585,1.017731569777,1.75974494863342,2.40340402021369,-1.57557379900307,-1.57660219593736,0.210040979552337,1.60832622572713,-0.172775455283371,-0.57298433988527,0.639425557170467,2.29870426857274,-2.77397128622814,-2.38215733595308,1.45343301266029,-0.850049605827828,-1.25823346470238,0.320608968416044,0.628581305753169,-0.157716924896896,-1.73092214532365,-1.56943860656646,-1.8680374702192,0.885094390127607,-0.636162235400774,0.586120865281883,-2.39579174164107,-0.0147723365972632,2.08350889474673,-0.52150918848254,-1.69094362893884,0.0737342482249098,-0.0268397284270537,-1.93490593370935,2.34449314822082,-1.37033416080484,-0.869776786860185,1.43709283793924,2.57014464086949,-2.4317655871925,-2.78818894450525,1.33118650026597,-0.793810502184804,-1.32913561457722,-0.0908257594813549,0.255469689509171
CD141_P3_S16,-1.71460230563887,4.07609825835031,1.69000880679559,2.7924296186679,-2.67496999367716,4.68542491748168,-2.98208311163561,-1.27068395103835,-1.37247294989434,2.8718907958939,1.18531279212683,-0.664234111555845,2.23672002808252,2.64903968798677,-0.314628574758922,0.0204925156479715,0.826528636694185,-0.0908798523178767,2.41870979969413,-1.36176400999049,-4.14565081888961,1.73857527595618,1.2199579981452,-1.70060842242753,1.59056646109653,-0.419626397561506,-0.52588401453655,1.13023640240097,1.49488647698373,1.39031412599602,1.13634042803443,-2.80152292311586,-0.600572710503563,1.98010138627309,-1.07403907570115,0.00719359822935609,1.79109196725363,-0.83204174303308,-1.89051478380767,-1.13294332250944,0.0583292764580302,0.84555667297528,-1.90559660462018,0.248610867773092,1.02722422397978,0.590447887422136,-1.3004107396347,-3.03879630363094,1.83876067752894,-0.570905737636345
CD141_P3_S17,1.73300697166995,14.5471116860195,-5.88413286396884,-5.75152563525795,0.810292217172392,-2.25147842907643,1.85328449808562,0.869902849131399,-0.883947448435177,3.82836560071982,0.776411653580174,1.1686202510681,3.88694680190581,-0.693965217700721,-1.63801567443385,0.908542258794921,0.531856540126781,0.234696111352342,3.33152452280315,-0.198908679983641,-2.66649228731449,-1.14385787309933,0.797279248136092,1.5694806683702,0.392062202333723,-4.39048686104456,-2.62899857884823,-2.31893686381007,-2.27799871951378,0.99569513240386,-0.385054647258104,2.20416523996201,1.30892126874481,-0.869980815983776,0.095765954425854,1.68408815309801,-3.33643938620465,-3.1166911061364,-1.2795272728144,-0.739756640221984,0.845982622836416,0.215462071759786,-3.37390029579698,-1.87221395238562,-1.76145230999832,-2.02868823660567,-1.35458719156869,-1.66173377816606,1.45350416749899,1.12091788123388
CD141_P3_S18,-0.633252026090813,12.5837321281985,3.21857402355046,-5.45455568412523,2.72196724050382,1.71097884597734,-0.803653332223452,6.36185082987445,0.927739767575826,10.1456386273986,-0.551400196508929,0.580946670856934,4.09146534039731,-0.720375806680082,1.69223703538645,4.02066300431344,-0.221712560768009,-5.02255522379683,-2.26268809413279,0.233849136737971,-0.913331575812101,-0.87923663400712,2.5570801686205,1.979399705412,-2.47537063728096,-6.03636412374447,2.10367892705457,5.66923956983746,2.11466333397501,-4.41504015463867,-2.82436360657739,-4.50411079012092,1.74202851641106,0.886960631908998,-0.0306134053607095,-2.13661366613645,-1.22457734971366,0.440625756273911,1.10534238470996,0.660802937352952,0.740742069954549,3.48914897161648,-1.85417655836268,3.78569924960354,-1.62532257269744,4.56990732643745,-0.474965504356777,1.03205966011071,0.565087225160483,-1.00887209540809
CD141_P3_S19,0.765637318005423,14.0061643942867,-5.93054165881647,-4.15256209475299,1.21037535395705,-2.87654464836375,1.72563475311666,0.768820137587873,0.49847820427177,-1.12702845805571,-0.105383776945493,0.80424347456121,-1.88675062573491,1.90042864389001,-0.184459606161412,1.43332545491316,0.192721155057682,0.385225429732433,1.08210551161971,-2.00477067166943,4.66169673410651,0.795526735880102,0.880153763244958,5.52776493491845,-0.299893288890436,-1.9011474556938,-0.224609128415892,3.95688690022704,1.2336316874897,1.56096614389063,0.165804247356608,2.89750177474277,0.080092250277139,-1.9516122768505,1.17997383392734,-2.11414603638048,-0.335900222027805,-1.03477960991365,3.24817168423176,1.43234170708623,-1.07483556212531,1.79093363527083,2.22478839818879,-1.54628508219438,-0.519325321895741,-4.371216342769,-2.00777938869056,-1.80556470611433,-0.0686777114267465,1.51081117095698
CD141_P3_S1,0.065312192240041,10.5450868099586,-1.86923609262514,-0.758766979580349,-1.00646761770053,2.74096280820827,1.34567906929833,0.0612125611985634,-0.745421058884523,2.49908524353308,-1.39098046306333,-1.25791385696577,-0.490089079711518,-1.09839257002101,-1.44341241025316,-0.194831690737458,-0.235103577551266,-0.911075738642174,-0.988553073803554,-4.2826954766672,-0.0686978214839204,-1.4962851197092,1.4025890958652,1.23373558234441,0.742524964531897,-0.228019263175149,0.722441231366206,-0.0277117236659519,2.95005419501488,0.576374388527562,1.53278161042216,-0.297489996577412,1.24408321141573,1.11038881032798,-0.24703978109105,-2.23609822145807,2.07772852579611,1.86860422981361,0.0537070911224632,-2.06085224473927,2.3649234254909,-1.27505554527317,0.219275417352076,3.65391292094784,0.687172608131709,2.25250043530026,-0.550042113713399,2.95591268430022,-1.48714612354247,0.0184796085908233
CD141_P3_S20,3.15208595708567,0.783293707905852,0.277093412325767,4.35891572905195,0.341347866486994,14.7224246888281,5.64884223937549,-2.01240298403807,1.54363906106788,-0.577728393950632,2.21217260224606,1.99328377291962,-0.420455936356273,-1.43509598152281,-1.41472752393848,2.77448394088065,-1.41529498925121,0.928904846949748,0.299639804003555,0.285363870330458,2.18520181899966,1.11740791069386,0.124860091751263,-1.83785086169922,1.76674982573772,-0.222056410818207,0.843362424085779,0.491730556697472,5.27288239341095,-2.80532848447513,-0.880438796245955,2.88996460526753,-1.0421153661723,2.95558277107265,1.36206015082012,1.40805937128654,-1.0863326571652,0.132135234115428,-0.407537909173871,2.43526298774622,-1.63188687980547,-1.60339956464929,0.557501793412266,1.76786732502424,0.947759257220428,0.263010177429879,0.0773259371346358,-2.29268839390452,0.255245250721003,-0.227570122080643
CD141_P3_S21,1.89341375217135,12.158468693548,-6.06389299152606,-3.59531782281161,0.713293540835965,-2.14526403910849,0.648827275069835,-3.31454313144027,-2.11451794809255,-2.73025081152105,0.150740262736082,0.695474181324009,-0.544651434273635,1.73018326585993,-2.77215829082355,-0.60130242999096,0.528314176590125,0.0840231880752202,0.480719095914767,2.2015684108457,2.21200364744336,0.971829058621404,-0.223627012672471,-1.11239104840209,-3.1719776946651,0.17601717890062,-0.209972699899688,-0.207567049641879,0.580888726228584,0.73442395919179,1.34073401755168,1.05257371359693,0.26804643657349,1.30283058991461,0.962162011332345,2.75952023935012,1.25595800872342,-1.84693000182733,2.63402287867333,-0.138280209162934,1.14128765967191,0.259619801631939,-1.50413573669693,0.10297284941878,-0.808396209184788,-2.60147235990383,-3.1681367028537,2.01982640719523,-1.22661886514666,0.499811468688098
CD141_P3_S22,2.19110252812222,11.9433412938687,-6.90246083548136,-2.6880067818147,0.0980341700275631,-0.11641951674353,0.29720361754924,-1.35350962264752,-2.55318370822067,-0.948532441471286,1.1115527005164,0.262639924802759,1.60747776804666,0.633238782828823,-0.990206522441069,3.43830534698101,0.354631207232643,-2.90738971405489,2.88379177176007,-0.428541336395926,1.91843961174065,0.10567269782743,2.62768637399377,1.04894945695766,0.237775690363287,2.42104378214491,-2.37324138989868,-1.23793517710698,-0.477999418252733,-0.486671703604101,-0.725357388471427,-2.15230293445931,1.48859109309114,-1.18107801270268,0.18612731471987,-1.05139703489354,1.19228679260011,0.494887710410866,2.53948910245013,0.313979449749345,-2.0661651331834,-0.59363660236943,-1.96429489703873,0.314881671572396,-2.288441472462,-2.27280788740893,1.32733885128196,-1.21090555886735,-0.652917012646757,-0.0739731225951204
CD141_P3_S23,1.37228001383539,10.4452108103866,-8.17395198782254,0.180537153576113,0.894628820370007,-1.30819815832694,-1.90634988845626,-0.72559252258007,1.61987448590685,-1.73576926071913,-1.17352605421541,-3.07619838267839,0.42076698721667,1.54738445164226,0.200612091121966,1.13926256424527,0.83916461494389,1.96908994445043,-0.456350578278958,0.601403083185475,0.742841043827383,1.03046239786555,1.8552941147788,-0.162424907500742,-0.0200299528842154,0.818239599254746,-2.10112388458658,-0.416318643715163,-0.137087552873495,4.56239646008336,0.633236840398701,0.398097583651339,-1.13565247341839,4.81983801878913,1.70015537969579,0.108311647220187,0.300727334406771,1.84427410206272,1.43644724247447,-0.735361279815149,-0.435559560475644,-2.07873216842855,-0.453681308249541,2.03802724154729,-1.00947672142089,-0.627475351288084,3.59602755059106,-1.66040046340639,0.603614028233871,-2.89255962225574
CD141_P3_S24,0.473137188031171,10.7801396799113,-7.14729910425919,-1.25269317216095,0.0949122268504749,-0.168474483366742,2.53309738523521,0.50041908037176,-1.71060208598052,0.213009902071615,-0.854076213966441,-2.60250929583717,-1.14580559354747,0.117401425896435,0.934511289237604,-0.510417586045764,-0.28174234483869,1.28557479831382,0.303338722376981,-0.572834993203308,-3.04742818549698,1.50632196858869,-1.22227705537248,-0.0137804927644801,0.939802590864405,1.81879828279031,-2.30410411137709,0.194161541555369,1.08857991304933,-3.17732907545666,0.686086904889654,2.15768571204803,-2.5804616176986,0.0455608023498141,0.287605796487168,3.76340735976903,-0.163565938365882,-0.617532243101847,-0.0118979280884971,1.18829294463704,0.129034650103365,-1.78770952248327,2.91792177431516,2.34576286412486,1.62661652498977,-0.361392997401703,0.174294672015459,-0.180604010497381,-0.421588402320604,-1.96405578821365
CD141_P3_S2,1.5896133173573,13.3421574468424,-6.81342713198518,-3.66452153083331,0.404636853141529,-2.70958607284749,-0.320689999654819,-1.41330776981974,-2.06929413532266,3.70214440016339,2.85343788941562,-0.688565124859227,-0.717681986126138,2.98749910846925,0.247548892566329,-1.59078715698817,0.453643426509262,-0.0414090077109449,2.48033532611059,-1.7649030969359,-2.09609609380909,2.79727688858061,2.04615595227502,1.55844328763686,0.727411861369808,-2.31670615944796,-2.30209206254897,0.434476080345975,-0.711506449836379,-0.938825148078441,2.2428689422698,0.510104016506873,-3.20866924130786,2.93090974280491,0.558911616159969,1.02069462982125,0.796295652930206,-0.448468004884196,-1.47376275595668,2.22563210627952,-0.193923676724076,2.63328957778733,-1.6518177450335,0.202671612378514,-0.247599765655345,-2.10026428409726,-1.98132590406768,-1.28190277892767,-0.011730149162851,-1.34125453133505
CD141_P3_S3,0.814209924350508,12.4426545152003,-4.6039397587541,-2.26729710117485,0.754534658615413,-1.42042878490932,-1.51842678258623,-1.07011534971086,1.18906541649413,0.513790779988877,-1.33389104394805,0.951209993442897,-2.12928651494512,1.67065104711609,0.377152721105902,0.700080064100423,-3.02982482741906,-0.939829337468641,-0.485217303582586,-1.60506817898837,0.466345882197535,1.73731265519314,-0.209261580662131,-3.44705070189576,0.909201488313319,0.895020407429156,2.70140586337408,0.95181973970564,-1.9511668039225,1.37922982488252,-1.73884192125526,0.40800479831948,-3.15782193958954,0.18150652034222,-1.08539312098742,-1.63564643148238,2.04692426471127,2.99968224344224,0.762664631355306,2.14513806674851,3.77846340712229,1.61496040424183,-1.71634487244065,0.726938584245538,-1.68563614956869,0.0861278194549079,-1.01094583605345,-1.84205784989038,-3.94364951588076,1.25181209002933
CD141_P3_S4,1.60597190142546,13.2063509540933,-4.60517586330992,-3.95412375902789,0.748445013178974,-0.678040049917896,-0.205642748457007,0.391217955957615,2.56786496426149,-1.12483962036136,0.430560571140077,-3.11130033271311,0.17612918805239,-1.33342301840896,0.867641834698478,-0.817766725345999,0.862316381668751,-0.153652870900734,-0.488956587580393,-1.44075843001317,1.02618732745742,1.84385854430083,2.9058252397669,-0.266041043213311,-1.93546922693739,0.154632636798605,-2.14258495990448,-1.41918053340432,0.00221577775548529,-1.85911039494062,-0.754601894126933,-3.3461379052236,-0.678268783610951,4.5072869427663,0.330166845216575,-0.386124472159046,-1.19384346561197,0.139589788578667,-0.526500661462399,-2.07069492436109,-2.51293667402325,1.40614745330854,2.44595472992403,-2.44348907980874,0.262784296418326,0.270830202549269,1.29832321067973,0.14588815019887,2.45638000524175,0.688528078257807
CD141_P3_S5,0.883503048575515,11.544929851073,-3.98189362318891,-1.98625056957903,-1.13238370219597,0.712450476406233,1.88000378464954,1.54273901731293,-1.77459130550519,2.23473544438822,-1.08246857238661,1.12837542291275,0.122340020456021,-2.68015358526981,0.720515102734764,-1.05907576001691,-1.04896806063539,-1.37325245578179,-0.0980064904101156,1.63375281817786,1.52176979425509,-1.17588004372351,-1.32911292299881,-0.926409395752327,0.687720910963535,0.938611600825775,1.27463854422148,0.149755498882816,-1.61503165159791,-1.72329513454999,-0.246295612585447,0.276702666158861,0.772809355127067,0.464830276201881,1.07975276813543,-0.301537496774536,0.607514617352578,-1.60729040915881,2.4758120485529,0.0564691081516493,0.605230074182451,1.87407451172606,-1.45071046771622,0.138114732583028,-1.07572936559412,1.49882903231289,0.67828363887268,0.0644949169485007,1.6619584764705,1.03821240023817
CD141_P3_S6,-0.368158381402836,12.4310195777034,-3.90398145737413,-3.82218150472734,-0.37593540383814,0.420222222977608,1.09704427284489,2.40874052168927,-0.328649339201229,-1.1988029417699,0.638613188074941,1.33199295845382,-1.33412742241562,-0.180209021038262,2.82272497751161,0.870788311408086,-2.07996773044242,-3.02728253405162,1.46764014181169,-3.00232148949262,-2.40977815329263,2.04893513113481,-1.61601408759581,-0.412966949156818,-0.272323496062747,-1.29866715298731,3.38450331242235,1.47900223055119,0.452435041725671,-1.9643498271401,0.841085321871311,-0.43772842436557,-1.65705447592832,-0.583221668071744,-1.89981576110448,-2.22210858356192,0.82690894615691,-0.700522163473236,2.46691623190011,0.440806416430741,1.82139113421101,4.62658924640959,0.699529315942353,-0.694084145535099,2.51483368069438,-1.55811034335561,1.5048720054657,0.591907552598409,4.89122712551185,2.54466973699194
CD141_P3_S7,1.14360132801713,11.7596500010716,-6.30270057829347,-3.65648585677778,-0.249541057385422,-0.109658338354873,-0.306932842356775,-1.11383403308623,-0.802779195065435,2.74653861066813,-0.239374562840466,-1.8111220660529,-1.12061438194507,-0.164065078934577,-2.53054035475264,-0.0538196713204095,0.00553272318464795,2.27959337773693,2.31992845896586,1.77352442398552,-1.93127047344082,0.33922761981458,2.13278293384092,-2.06895192065388,-2.73071629701067,1.42915993120101,-0.780342687237523,-2.03094564254733,1.36731177661569,-3.96558969778953,0.995464253916989,-2.17349526281279,-1.18170192732551,0.393971037666128,-2.28447370060901,-1.42459665325682,-2.86475597323353,0.198502909524348,0.0959532009675174,-1.59067687092226,0.542551306853873,0.353075605428852,-1.14720430024264,-2.81377264581681,-1.12311991737238,-2.35308546530957,0.371784333800703,-0.743418320175599,1.69677172506823,1.7563554370399
CD141_P3_S8,0.2394513835749,11.225006009215,-5.62534020434302,-1.03694700428657,0.085071453150034,-0.718175333720198,2.47109225455142,-1.94331874836157,1.2163307078209,-2.549750947894,-1.17518419211382,-0.301653029735171,1.10597799435106,0.10487323403974,0.59081697676922,-0.739076732130929,-0.638518241549905,-2.77121283067212,0.112558236032869,-0.608103093638852,-1.81684822948827,-0.520300156096158,0.450871108392634,-1.37306910535119,1.86104833092162,-1.93340594109307,1.7541832664296,1.80724011082438,-1.57269167934842,6.1279085331489,-0.0406755073440496,2.30956845554749,-4.41013940136916,-1.69689067275126,-1.80716813949446,1.12732893797203,-0.340241982840011,0.576134585459922,-2.6915373866694,0.8791466814534,-0.0796641940558768,2.13502674400873,-0.580782125775894,-0.156563612900069,0.46954102007246,-0.271713273954411,-1.29869648044702,1.14490832140096,-1.83959569345208,1.24864366765717
CD141_P3_S9,-1.50780485820265,8.3745403393072,-5.51094776852072,2.02010560975011,-0.149699741986309,3.30531830383549,-3.05456824875468,-1.76884916939045,1.79278028748831,0.85859823998106,0.116621084960974,0.266047712799707,-3.58407788368604,-1.9814590230248,1.75150005292766,-1.55033174268015,-3.51627055056241,-0.652306617609886,-0.115717749939279,0.595350614085065,3.07857762700085,-1.50902235600188,-2.02758724356799,0.201531942752259,1.43330052414304,2.48354691406605,-3.21669338200226,0.650289591200902,-0.26586079532437,0.38625491623299,-0.675508671493248,-2.34905084265159,-0.594316564442824,1.18574653740544,-1.19738475884466,-1.16029307643567,0.88478415082307,0.903301401351693,-1.86764137970893,1.42143722601816,-2.35130915318889,1.37614579449558,0.571575967048072,0.0592195364375134,0.313100567999257,-0.229584000571544,0.579498006687123,1.28009456407216,-0.0919632397664842,0.287507005172787
CD141_P4_S25,-1.87406149005458,4.33991936621875,2.04547168867774,4.92827653120269,-4.55880916918072,7.79146015604384,-1.47458824773142,-0.500991993606485,-0.59286405400314,0.0241330606588043,0.336417119819882,-0.800127192608685,-1.29763482289162,0.906942714136808,-2.05067788841672,-3.75134313150486,1.51179241228954,0.288270989137268,-0.0399468591055863,-1.9648728882436,0.162750861501965,1.11021023570691,-0.271897617785704,0.0380585760678665,-0.189222142747809,0.0551220775459757,-2.84390194199668,0.283371710329703,1.11106058407788,0.567134226393903,-0.854914031647827,0.856392535313058,0.657630882604695,2.46330036407051,0.337864654356683,0.221897802294771,1.56426705728076,0.210683476276117,-1.36059784160045,-0.293733439493285,-1.85636291793847,-0.942229800584472,0.885416711651968,1.3182339410169,-0.770360857758776,-1.16833752714784,0.000124140983785001,2.99411997832934,-0.0596147034328782,1.80073358982189
CD141_P4_S26,1.02147644164195,13.1705457182638,-6.57833359361419,-4.70900675409196,1.54427624153269,-1.116179811672,-0.927788518756003,-2.55876179931219,0.978434601275066,-1.34563487301228,-0.769418618636441,4.97463564662768,0.824523285415462,-2.17417809466765,0.969148480320758,-2.485146870152,-1.30824402887596,-1.09380401899109,1.15363821260046,-1.5007387236144,-0.504373524386533,-1.40368570590342,-2.33953649194397,-0.471716705897393,2.13823189704518,-1.81113979428558,-2.12959925231741,-2.90175360366231,1.58708490789368,-2.83991792565322,3.71578250930429,2.77253823688972,-1.56109052565748,0.00694306415392385,-0.000970190750663958,0.212873065168505,-0.717552295898262,0.750487960535036,-0.110098794792866,-1.21125732261244,1.84554627431875,1.72565402343698,-0.985210235381201,0.57965161400158,-0.101668453592532,-1.54563182938146,0.364745379695285,-1.73558156298217,1.13337644966465,1.30293540383448
CD141_P4_S27,1.88142447009042,13.1720709363404,-8.01713552170898,-4.01417095616319,0.481553456429567,-1.20964309518698,-0.453604950790558,-0.73537367690697,2.96391422850447,-2.00176236430074,-4.78076525092036,3.10005825208049,1.82940400524294,3.3984356229676,-3.32042700773551,-0.529810331764149,2.61933348013352,1.32440200844363,-2.18165668447437,0.467713775607082,1.60426927114926,-0.497673318811128,-1.9878582759986,3.17806915484119,-0.527552934330814,3.13190642967795,-1.08255262135201,-1.40350248842284,-6.4968667216802,-0.0366056984458125,-1.84109516955284,-0.627613407217417,1.30166014740547,-2.49275665590478,-3.97293109982186,0.852707578710522,0.817805121753485,1.96392147101217,-0.0857556628239236,-3.07200857862114,-1.19652222056315,1.68633641764815,-2.59922616950426,-0.331725571172084,-2.49637418327107,-2.439006812251,-1.51013831580547,0.6070496046002,3.27225766480267,-0.901908804565376
CD141_P4_S28,1.00133014975935,10.8180064212095,-7.3766177869778,-0.767903873688201,-0.188807340635339,-0.277928021714294,0.483725666740271,2.32998904221411,0.304368326844804,0.0822660546336124,-3.20982829019502,0.991277668575591,-4.0204598371017,0.232418334891989,-0.267810419701982,-1.65904118079991,0.333696914671632,-4.46687784516127,1.11468391689605,0.506958548653007,1.30599250934086,2.34266503960398,2.06715317440098,-0.637390102458562,-0.0195069749553535,-2.31106030632822,1.0315127134669,-2.04612291836898,1.27762516987382,-1.50078580373174,1.55236761886163,-1.78759818902423,-2.10039766942581,1.2370120224083,0.523801367219693,0.865366675678946,-1.02204261102206,-1.5553503182656,0.90253326594006,0.407668760858569,1.32442882044197,1.06338981674671,-0.153093308868557,0.970884984557358,2.18145371810704,0.503773508302309,0.461942313151917,1.94937760040109,-0.558003659606511,-2.04688117197007
CD141_P4_S29,1.47635829553521,12.6989857226591,-9.22844479983742,-4.35472636798923,0.431151136966516,-2.7133910693234,-0.549866182485352,0.16520867866758,1.1214536221555,-1.31732554414909,0.439363515010132,-1.71447363329567,3.80462174413724,1.97187364101556,-2.09725010152464,-0.938784099172297,-1.32066343719429,-0.608561639608652,1.16954205427335,1.46320486244906,1.78016633127967,0.596540406365107,-1.77072548047181,2.84743233968948,-2.62434792191896,-0.685457323875156,1.01252340280314,3.0757298696869,5.41063873679764,-2.27590114671145,6.15168593277238,-1.91737690238021,2.41023451999504,1.67976427023739,2.59634611296099,-1.27234493773573,-0.964656429789547,0.829050492786863,-2.03399607280685,-2.27859800743472,1.0656233083863,-4.13290404979949,1.50211564893088,2.01294218532811,-1.29702292536917,0.658580558383263,1.22493469427484,2.30567328507643,0.541916913735568,0.0851637990088842
CD141_P4_S30,4.29268515988363,1.98059498278637,0.891089636181999,2.15604925843676,-3.46241051352404,13.8782539844636,4.54295341771364,-2.14202763276477,2.3258771400706,-1.90534731961883,-0.707470699135343,-2.3125468010928,-0.258962760017497,-0.64640316651312,1.76644624340351,0.148578174470741,0.22861444883207,1.60468989552778,2.36832976542352,-0.438906371685156,0.0488525257184148,0.839315590232902,0.335572750482623,1.17698290135026,-1.84598357420728,0.853990035454645,-0.0175390360741139,0.961639941747885,1.40530927773724,-2.81118618366631,0.378495660952212,-1.67411178622495,-0.266800530998026,0.565286095280201,-0.141232529530555,1.22592212501453,0.0914835455446706,3.78396646222861,-0.700760863215534,-0.791975649442217,1.43830087438575,-0.417724453548553,1.77688391294961,0.884571524557325,-0.493271156590157,2.64407025723585,-3.42663425220797,-2.56742280127751,2.25324996928976,1.87332100544749
CD141_P4_S31,0.924325598849723,3.60195629849991,0.277032255376851,1.69855468054363,-2.89738722994858,13.0105139855338,0.587043659722326,2.37860777771906,0.884890451800359,2.47583473566741,1.5014766530848,-1.48856053295666,0.146787552197057,1.43549098346379,-1.29326539047255,-1.25361298552566,2.33031567662669,-1.22171430970672,-1.11818525665982,-1.0521692859923,0.618533750484475,-1.49396236887105,0.634269272884493,-0.426931805539869,1.13044429119356,-1.31878611932469,-0.866984900143608,1.58555037171103,-1.1160735312691,-1.3078881624535,2.65110004833376,-0.195902226720721,-0.61076652002219,-0.486632892718456,0.572465055933448,-1.43103077149032,-1.97197621529467,1.03478273529245,-1.32949267523243,0.675370500158066,0.664012297313927,-1.42166453917837,1.1922231445592,1.05003083892923,-1.60223192733344,-1.86592091463299,1.2674392072984,-0.562335411588926,2.2964905720549,-2.26315237918045
CD141_P4_S32,-0.215680548348806,11.7791350466954,-2.89426573331381,-2.97971227108011,-0.883906357811423,0.526025221485903,1.48615852941175,0.606844611359768,-1.53653660914578,2.67203844484771,0.850995817697562,-2.78353742527959,2.31749317580287,-4.50913058085636,-0.820241156595096,1.2610103572982,-2.34245514877479,-3.5277618731458,-2.86541154152694,-2.58344118182289,2.59151266037749,1.20410247065056,-1.88513399384784,-0.274525831330632,-0.376856758883442,-0.970058854990195,-2.22816203107002,-0.0228914052492778,-2.12113321451123,1.61343500313228,-1.85454826991009,-0.562281031375451,-0.444421140188049,0.0563569210003432,2.07141571052042,2.70233704182046,-0.167836190263011,-0.330887885367315,6.0606694550404,-0.101045456175181,0.224997107206562,-1.29520023302065,-0.827878662175043,-1.58684275590091,0.613603249497032,1.92252053530963,-2.6203637821398,-0.812789157789863,4.48309943484297,2.22683835523578
CD141_P4_S33,0.0727085170874611,12.7433083651033,-7.62192788910137,-1.86553996042489,0.904366844394303,-1.50035993147882,0.675440855331628,-2.88106306948522,-1.24630457723099,-1.61331604759928,2.07258218579947,1.25846217845887,0.448181463527166,1.65315723653133,-1.5152170084079,3.34612239954214,-0.132213113420515,3.7042777017974,-0.138678455829831,1.04243419429817,1.44393585857822,-2.13205729944968,0.734542084826035,0.245931484776228,-0.346130029874457,-2.29435582007378,-0.44660976826523,-0.329010376393896,0.742223150391035,2.77673586493918,-0.225961204990982,-1.29759710425855,0.577929404992634,0.58604262148461,1.55076605112531,-1.3629938789374,2.87961470936638,1.27485082648748,-0.766728527486504,-0.519957269076354,-1.621711126372,-3.80400058529755,-0.241177974886872,-3.83672499248088,1.6933012973749,4.69663453095654,0.965924301203122,2.13193214391033,0.0376973293648579,-0.860642142017442
CD141_P4_S34,1.82368059473346,12.6053335091028,-8.74952710140969,-2.73122259069218,-0.0619074671177255,-0.960744398353182,0.415409358824732,-1.66808390204536,0.394378967588866,-1.01640102592814,-0.505449067608936,-2.32011572326654,0.0774290734748847,3.30949950736179,1.1386547828476,0.202597724682536,-0.232778492516741,-1.5151345554651,-1.03808658800195,0.439160622857458,-0.717205639448454,0.343779808986732,-0.267719596915635,-1.03828614138664,-0.358344239467273,1.24509055462792,-0.459177066398155,1.4636495174146,1.77988577383585,-0.0163575813391554,-0.212118547501008,0.0859028851816607,-0.0668433307900926,0.11548903287238,1.8913543033884,-0.037599205375648,-0.0175090454326787,-0.238414586818244,0.107357046891564,-0.693662195578723,-2.29162623472658,0.151418045758487,-0.743571094863594,-2.47566189138914,2.75286811971256,-0.507962712989173,1.72694859048956,-0.699193640757029,0.00142732112732943,-0.31590228933911
CD141_P4_S35,0.546575205749677,11.9434565758372,-2.96689233064681,-3.68027843166522,0.340990736852151,2.24196275513684,-1.69699641829662,1.8523584517223,-1.344027916087,0.0909549793221329,-3.38553766504864,-0.536141234785507,0.850405835514848,5.18716841137176,-5.34549913662808,2.4381008990136,1.58317510079508,5.0043369031596,-4.77314878334634,-0.328283139236535,-0.289142137032459,4.35445178384005,-3.21783542173794,-1.56086179574952,2.25931268813191,-0.0334123168359142,6.02342481550564,1.16374668726797,3.34796451981302,4.01011803055744,3.26715667736071,0.738361425226868,2.60565838260627,0.969404248600957,-4.5464658018422,2.62182015204717,-0.762298604157915,-1.74182306617623,-0.269400676666007,3.27981050075406,-2.32158261408341,-2.62944732314349,0.0112154568280598,0.182602654252217,2.57493277687353,1.80192130673044,-1.21284056003462,-0.737343314731604,0.22014214168807,-1.03758851063285
CD141_P4_S36,0.353034261055266,10.1818545923808,-4.93643803387129,-0.869818402336924,-0.165111239552876,-0.497419125880017,0.991450300404812,1.45570888470386,0.655801094575339,-0.952430561800891,-3.88852819136849,-0.752779844360569,1.03390563221873,-1.69526456237805,-0.783149059255617,-0.584093243033189,-2.45668781132229,1.65635741097875,2.28160883605229,-0.978887063081903,-0.902235301215963,1.57205962822557,0.185830061601509,1.45673423238227,-0.338122643865208,-2.23231263238365,-0.217870631155752,-0.438149446363464,0.52016059483763,-1.69340597485488,-0.0620830501780339,-1.16266700397341,-0.953969361604841,-0.700519876946201,0.948925184835615,-0.230523327399922,-4.31781838087802,0.829970270016739,-0.506697799646708,-0.0626575581540898,0.176853553322407,1.93065974164866,-2.87061950671534,-1.46907527075704,-2.24408679223253,-1.06675354944056,-0.515310824351632,-0.23456112749402,3.08040068223899,0.15071726753542
CD141_P4_S37,-0.2261870972043,11.2145640245105,-5.35204465039758,-2.7790207798745,-0.95002764515445,1.71059178433508,2.2783381399273,-0.194933382783281,-1.910002258227,2.45725425747513,-2.25020482912592,0.0616110933496097,-0.389129871774036,0.503209618896107,1.54144077528476,-1.77553385876633,1.36222175168875,-1.5453468003901,0.875745890310941,-1.58849808659955,-1.04463236869025,2.31040073612431,-4.61169514281104,-1.58552013598515,-0.238385833883974,2.95911264304919,-2.60467525142842,-1.14968307052016,-1.17721230682304,-2.04637515566982,-1.92208022643121,-1.00450251153131,1.07015791578708,0.183574563342845,-2.22903017543571,1.76299067066589,0.801419016340107,-0.601119663139991,-1.21505942433572,-1.04963837445856,4.04283364659204,0.855713706301923,-1.01095943331734,1.31501833977408,-1.34978615835938,-1.30359013649234,-1.73767820202295,0.222607772840503,-0.969395292460687,-0.185173809073412
