,PC_1,PC_2,PC_3,PC_4,PC_5,PC_6,PC_7,PC_8,PC_9,PC_10,PC_11,PC_12,PC_13,PC_14,PC_15,PC_16,PC_17,PC_18,PC_19,PC_20,PC_21,PC_22,PC_23,PC_24,PC_25,PC_26,PC_27,PC_28,PC_29,PC_30,PC_31,PC_32,PC_33,PC_34,PC_35,PC_36,PC_37,PC_38,PC_39,PC_40,PC_41,PC_42,PC_43,PC_44,PC_45,PC_46,PC_47,PC_48,PC_49,PC_50
TSP25_Prostate_NA_10X_1_1_AAACCCAAGTGGTTAA,-9.7732926216267,-5.96904224023325,-17.0770631481016,3.35916090196246,1.60378664516952,-0.00211630267831456,1.14584870079627,0.87466932220403,1.07462668683441,-2.60328427127572,-1.37741832764125,1.03371580238767,4.53778679133549,-2.65888095933543,-0.741418540035099,-1.1609166587449,1.40058141933546,0.418255990853188,2.00602994346117,-1.7466881660956,-0.468653704368457,2.35493558959156,-0.0596167163513152,1.54654894289892,-7.13790020108666,-2.08794924391523,-1.8960935946112,-0.219752981761157,2.14509499154331,-0.419087159823608,3.89990394380124,-1.19022666147171,-1.78608921767301,0.797746617728701,2.87882837840578,-0.291134658927221,1.49434301569847,-1.11806902524727,-0.353104923175357,-1.68215752827664,2.04205376720688,1.08608383612184,2.45363001312556,1.76311782824005,-2.88598814337527,-1.1270811401804,-1.66801085655337,0.918617467326511,-0.52075723115478,-1.04067686305369
TSP25_Prostate_NA_10X_1_1_AAACCCACATGCACTA,9.71247192139557,0.13076201834307,-1.55266415687816,-11.0023204204648,0.730682817417485,-0.344058947290891,0.0673876135484389,-11.0290061926092,-4.07337207097344,3.58610849667788,-0.456963830054198,-1.76959525031386,-0.908644113598687,-1.52537146544218,-0.0267693266714481,-0.463743412061024,-0.617992045316286,-0.468190512592396,-0.346355723149482,-0.269755408744834,1.83869154410982,3.41270526878137,7.55665922597096,-1.59625311227634,2.4368504086597,-2.57420469807066,3.75552614802132,6.33959128754851,0.587259186848467,2.42549472228559,1.07807324347079,-4.19534587013573,2.11479173862616,-0.350886735768895,0.22283513584753,-2.15598637396259,1.78038959079857,3.54915602221247,-0.00437118692294242,0.0887185362627351,2.08416124912975,0.896786102326344,-4.30869210942408,1.8230361562173,-0.381912382637073,3.62121872181458,4.02745145361173,2.8533704618878,-0.2873665309988,3.74269480002422
TSP25_Prostate_NA_10X_1_1_AAACGAAGTTCTGACA,-9.12657094021812,-5.33080096435602,-19.6997952159881,3.73670379137056,3.06957626698272,0.942268985699987,-1.20055170681397,0.448643477853777,-1.38827734709725,0.882177007522498,1.60438844754102,-0.110541218640463,-0.492858953020695,-2.681652611044,-4.05846796923358,-3.56558173688941,1.88140546252237,0.568856512952497,-0.476437430423226,1.54644399143979,-0.567985460217312,-0.941101587813167,-0.35028229726167,0.0749382945782079,4.97310870629072,3.9738247200548,1.89013302690496,0.677628932437544,-1.05959393569211,-0.706120732933932,-1.60838255782888,0.415509696336714,2.67905245810441,-1.04688008362108,-1.80385762668695,-0.114709787553125,0.360915006705034,0.881554974587216,2.92192188664714,-1.74110258448511,-2.40110066574189,-1.10669955740823,1.41367215199508,2.66074485214806,-0.320137505997263,-0.972246061647036,0.895203738115342,2.76326806057676,1.83094326427809,0.918754101837324
TSP25_Prostate_NA_10X_1_1_AAAGAACCAGTTGTCA,0.323173925701211,-0.665023063527889,1.35620632460058,-2.34331699358979,-7.48132392479601,-1.61516298941011,-2.32358920666391,-1.61909535762022,0.811677985266083,4.50002084169229,0.604667123048827,6.80841082286811,6.28509248118796,31.9484980830966,-42.8045464051172,3.94512910296074,21.173611910104,9.75504808341989,-9.78975714051839,-0.89898336214417,-6.58951431322955,6.41793216306794,0.0552338594099027,1.40967288656286,3.73288777534499,1.40371841935064,4.20290262607543,-0.545607187778957,0.747460764612565,-1.19155603946813,0.326273310025457,-0.387428516783176,-2.63458942615833,1.84710983036062,0.131366862204363,-0.831322527915444,-0.0491278107375234,0.452767890287251,-0.680893360195842,-0.643250152796103,-0.889038023121851,-0.724307549620203,0.300159575389751,-1.31077732137036,-0.825351804886642,-0.199445685619409,0.0926002845924909,-0.280245371844596,1.38071307503302,0.157449904268389
TSP25_Prostate_NA_10X_1_1_AAAGAACGTACTCGAT,-3.40191283256173,8.19000027516559,1.59543859417997,1.13971988302718,-5.34407755248949,10.3742546436017,-8.58100811705815,0.489659113106103,-0.200745233304149,-0.426985720562165,-1.8149975259115,-3.15319643041446,-1.14133286864785,0.372236341217953,1.1198955624929,-0.459083420163881,2.010686979385,-3.67344732027624,-0.418727874920118,0.101460431441871,1.85263259683263,-0.0997946354252993,-0.294761572375174,1.89813878255306,2.65975761896415,-4.97335440194743,0.461904511907157,-5.26990797859384,2.2588293983305,-0.962367717901646,2.57272633988722,0.604074450180281,0.210703149378943,-0.721216926564024,-0.373708252014249,-0.461844625798186,0.394794838443507,-0.680768476281309,0.522624195599959,0.609071307430894,-0.668276477289512,0.248493487118414,-0.254684344703452,-0.00463595591531528,-0.253014308214509,1.2848799323452,0.00964442597210758,-0.284956709339317,0.0640279769192547,0.996709349267314
TSP25_Prostate_NA_10X_1_1_AAAGAACGTACTCGTA,9.58107002424243,1.7895291670998,-3.56049240690348,-21.0396586184372,2.54075052228906,-2.30899872097028,-0.65120924373853,12.7199890016289,2.69034956573408,9.24859389559522,-4.95396331876811,5.83582941998202,0.236248358172521,-0.574618435052499,2.5981146346089,-1.11284894354357,1.46470579775567,-0.421194156280762,1.95868212116004,0.216490736781096,-0.883080811682422,-1.5354323839781,-4.18135628441752,0.786616642667736,-0.297189965636748,0.798386083167801,1.24717984876042,-2.54516800034808,-5.41509819651066,2.65426403836172,2.11566227364805,2.47330698047452,-0.602197312780957,-0.69841156682312,0.0485893487501462,1.22789111776361,-0.256106723271621,2.48275715724358,-2.17474703413441,0.487417195642318,0.430391196278105,2.2575796093181,0.326661383134097,0.527741427217838,0.788048777306676,-0.51948245577344,-0.274663884215155,-0.0338630948791645,1.22892111763512,2.23267126817966
TSP25_Prostate_NA_10X_1_1_AAAGGATAGTGAGTTA,-3.18414724165455,7.64060283955754,1.62087006923532,0.43416563567069,-4.4237547961037,8.96030605310689,-7.42957570730306,0.421284814583758,-0.806989536116038,-0.419332564215942,-1.95453099850789,-1.93878920673212,-0.26286991722444,-0.113468540186414,0.0322745320042581,-1.05893304537309,1.51629160083986,-0.969361369853675,0.253097860361542,0.391519799754912,1.81830144222651,0.157851893576424,-0.752113482632412,0.484393000310353,-1.17620921977934,1.63367767192193,2.04653274929959,1.02578656439363,0.10530578798507,-1.4699743718029,0.20565176631955,0.321385991456099,0.190399797703027,0.559729067646246,-0.0776745602183292,0.192375843490998,1.23145156509604,-0.0020057980744562,0.493458473003683,-0.0452090339961259,-1.40734537185771,-0.407000418081876,0.586437959005794,-1.55476458943162,-0.331066035393781,1.68507264245971,0.0717696111958989,0.591425251642753,-2.58663393503163,3.2645911616646
TSP25_Prostate_NA_10X_1_1_AAAGGATGTCGGCCTA,-4.12745981107071,11.0704788155855,2.53469591791266,2.05974637758063,-2.17072974487372,6.46938112097804,16.3249482886307,0.228570950276532,0.323981675009007,0.701690105510011,3.72679417032796,1.78712308434586,-0.29549111949187,0.214156987480228,0.638433004799048,-0.295885171147151,1.40372239595506,-1.98959442457023,-0.169365320804576,0.422735296090097,0.476507659642052,-0.0941966502414402,-0.275205073565147,0.46096970954505,-0.575350376869501,0.12282866604391,0.226025555933709,0.523090661641435,0.676166432903951,-0.596491234556641,1.15548459880971,-0.165959143566465,0.439905515588994,-0.0414054121847905,-0.474796208211755,0.0616556582535835,0.189026806553642,-0.330416752172626,-0.417579407480616,0.2920688897254,-0.567723979769564,-0.295803367169393,-1.02254841503384,-0.639757721512754,-1.08339323049715,0.843838363743897,-0.103252613176894,-0.105035072828676,-0.167567419537146,0.24571859376177
TSP25_Prostate_NA_10X_1_1_AAAGGTAAGCACTCGC,13.1618977092843,-1.82960853905302,-2.6947603687562,-6.13502913521557,0.0946857928631602,-1.60443486900927,0.295376989648481,-14.6332228500892,-5.87604945674717,3.22772419428776,-2.11438657624953,0.225313872636511,-1.32198132212805,-3.1858333862239,0.12006037482204,1.28249993941649,-0.00357647649897626,-1.93916708751046,-0.424648180570419,-1.24098234192172,-3.03888215182682,0.300482900318794,-1.79584302133404,1.36764667622358,-0.267853796243305,-3.40831833197195,4.88401228249277,3.54096537522289,0.368220385606295,1.01194574524678,1.71490272086283,0.486002467319306,-0.177014128500959,-0.125679637803695,-0.050538856541589,-0.162078767091374,-2.49429162929887,0.776226550524489,-0.484028175313754,0.330407639881919,-0.0620981380484691,-0.163528803164011,1.4843818647524,0.497810596796933,0.751809416410346,1.48690295843685,-3.99978386898088,-0.60337147267153,2.0201445722479,0.665634275514783
TSP25_Prostate_NA_10X_1_1_AAAGGTAAGCCTCTTC,-4.24561073569404,-12.0917814646434,6.36195142706102,0.242432112395693,0.920918054084836,-1.4446523134645,-2.11028598190577,-2.70213426604735,-1.93304746800909,6.89091380595738,4.89598273836937,-4.64975337148598,-2.27111036725597,9.18288835111287,0.871785362958073,-2.13068300113853,-2.48638482349734,-2.38368018861477,6.67719612714801,14.4300200826348,-8.38242887823552,-6.22915263714806,1.53383674879142,5.52234726117873,-9.24833357260433,-8.89536527668566,-8.69988228763254,-8.7156947085533,-22.9152679915539,-6.58974405155736,-2.13062629163297,-33.638452509281,-3.67910655875759,-1.10419493676043,-9.77177204548594,-2.2889705490939,-1.34733022866343,1.87155357773108,0.0189532854366068,-3.05634070014701,0.413162731173684,-6.50813738817088,-0.178680797336867,0.00433254840943142,-2.04554991218966,1.68268387408697,-4.95621038489254,1.42632363973864,0.315435163565794,-2.31421848434059
TSP25_Prostate_NA_10X_1_1_AAAGGTAGTATGATCC,-8.31357092837106,-11.8795873943491,5.72271686575942,-1.26100727170267,-24.5865240810229,-12.1169686864736,0.819949470297031,0.696281995177966,-1.98355838371098,-0.542817937537034,0.292030736183521,-0.425017294206316,-0.951572102252696,-2.36955806130231,0.964981993930738,-0.370350326550094,0.184296830504211,0.239700172017025,-0.212513670509064,-0.71931044207558,1.71726490045476,-0.346906510380803,0.375753393116509,-0.0173987754067337,0.436608254490466,0.917909073834744,1.20183234807577,0.485656759828437,1.12450198010379,0.853270869948056,0.721064896336652,0.107757304603281,-0.0781844465359929,0.269005444883674,-1.12309074847271,-0.372013512121385,0.454326471900232,1.1029992151324,-0.540659044893738,0.719392994077457,-0.752608935339762,0.281080569075105,0.273380288318979,-0.708669469115026,0.0627959095858108,-0.786447084226037,0.819267695689006,1.59754311538036,0.829935329372982,-0.0192728132440448
TSP25_Prostate_NA_10X_1_1_AAAGTCCCAGCACGAA,11.4263602998343,-0.410954193910806,-2.37519457263723,-12.973402029513,1.61227406735156,-1.05321351494753,0.385509089611924,-16.4916111388863,-4.54935971161327,0.300646663385196,-2.27215776106281,2.31384612363409,-0.10453710466595,-1.3215178762827,0.891151130461849,-1.52880846880656,0.620993596638793,-0.493660072151966,0.881960267681878,0.123109450744528,1.13634395747784,1.20578141700486,4.08314392687098,-0.660042323877669,0.0175562962310197,1.76224873909498,1.64483398175824,-2.2514257396519,-5.66987089551639,3.46488304789477,2.51194904978033,1.64046166944791,-0.192444541363773,0.718685999536633,0.534944973718594,-1.05084246459116,1.77996352294366,1.67698347834626,0.0277910632174442,-0.617323973873555,-0.8511096370159,-0.520871493006712,0.523445606311882,1.3075532531587,0.946927219167296,0.625022819544577,-1.27789197946133,-1.14556861507434,0.672612263750982,1.11619465293304
TSP25_Prostate_NA_10X_1_1_AAAGTGAAGGGTGAGG,32.5411360982152,-8.78028239823957,1.3578063244486,18.8438424633253,0.715101931084106,0.235495773988043,0.950163800673068,7.05882036655987,2.47548275287201,0.0961428001826569,2.69674532593269,-2.58939912028149,1.44161651378383,6.41266852613379,6.37768635693673,-9.69682507350899,-2.03905617609493,2.69751368088384,-2.98130672954017,-2.02759321445385,2.20678114527498,1.42148442919842,7.15458836553693,-3.40406315100535,-2.53756193357551,-0.649908718308755,4.19305051810812,-2.87574902279379,0.282505893937702,0.357594419176306,-2.30040216535591,-0.37907365419064,-1.69062507540793,0.0956067177114254,-0.669962385261538,0.308452104657566,-1.14553914871244,-0.394124499577277,-1.21384816648338,-0.812007347842329,-2.21418689933982,-0.540155974104115,3.37182825377648,-0.168389757430303,1.05658843620386,-1.41708954676392,-6.58363744890206,-1.73937810382127,2.66132866016909,0.295820280008479
TSP25_Prostate_NA_10X_1_1_AAAGTGACACAGCTTA,6.73693624747799,-0.570548414762335,-1.00280655000861,-11.816214841438,0.969066563051178,-0.0891332901481535,0.187355700998594,-0.534541715824557,-2.00345126230558,16.4046971124859,-4.97388590362323,3.21961832754376,0.180067618902273,-1.36512510536253,1.04066418183617,-1.72251701358329,-0.726516979618404,0.0177309055570785,-2.10049549385915,0.301687913875913,2.85038557270082,1.15215030436065,2.68197044806754,0.0970683025447017,0.784266432350768,1.18960566488328,-2.27980700950692,0.824413631959698,2.39399862185212,-2.08883514494637,-2.40345867040479,-0.855620429679592,-0.603478617557697,-0.0695299847617305,2.75500418611675,-3.20387540927971,5.83736451341511,-2.61844132006145,2.38874553041262,-1.28803107131647,-1.28359479216827,-1.0598611646876,-1.54282414867422,-2.75000335502467,0.426280158195338,0.307118229127296,2.5327489363049,0.327102468149027,-3.98940813503707,-4.63822623643583
TSP25_Prostate_NA_10X_1_1_AAAGTGACAGAACCGA,-9.76701968293122,-21.6779069376873,14.9049375743743,-1.50646793068408,9.56827730446273,3.98071842576507,-0.099789960339673,2.52947167476116,-11.6984489875574,-1.0605787706673,1.96283925413984,-1.47388487022027,-0.0312630854870583,-0.740478593650532,-0.689109758937992,-0.580587986806285,-0.751084665582681,-0.827989798140162,0.357461936361548,-0.0952150091979041,1.3297551356318,-1.63639846907205,-0.0442447124965738,3.65691929739245,3.0188133685358,2.02493222497972,2.35110608277251,0.393765172580167,-1.22426742938573,0.949988775043274,-0.866969765337481,-0.361763680207785,-1.83534679250392,-1.44331784834019,4.26825971409329,2.34285914383699,0.965825284929498,-2.11318124017734,0.676819229700482,2.66163457499915,0.508860505469557,2.67512647538977,0.217098931252157,-0.034226258698872,2.39009333374585,0.725136550736512,0.879747139382116,-0.568689973671334,-0.470059308956098,0.317035165404473
TSP25_Prostate_NA_10X_1_1_AAAGTGACATTGCCTC,-4.09568345052922,9.71566475039657,1.87077505215703,1.6207476778736,-2.89706908838039,7.21858359614928,16.7402304823941,-0.408050199435791,0.0855422119194224,0.71803411567821,3.20884866490845,1.22321015561519,0.34961524884299,-0.385496837113481,0.106123707165301,-0.0611557973522304,0.389078979694288,-1.38461377945553,-0.465376874221839,0.0710763271659091,-0.0546636856786123,-0.564511271805499,0.940349765037621,1.03889432105565,-0.182641889206641,1.09569377767232,-0.0805150399443681,-0.148120961105973,-0.223465122489706,0.414933382695703,-0.112180278906088,0.0708116660710374,0.670809118730835,-0.353027832212623,1.47987078343933,-0.239202101296255,-0.15809900075672,0.378625913309868,-0.627559516209977,-0.498467406769642,0.95814591843573,-0.0804184623097309,0.439278389917363,0.492152186437454,0.361551507558469,-0.532476987528139,0.437704451713125,0.402458934937997,0.596694615220462,-2.01715482155855
TSP25_Prostate_NA_10X_1_1_AACAAAGGTGTTGATC,-7.34498266739402,-11.4387962863519,4.89850776284318,-1.26766339229054,-25.1391314356573,-11.7521430821214,0.876841241414215,0.508004819199185,-2.35196763383084,0.204848360249948,1.05311263815953,-1.59842166994288,0.142551051808387,-2.98747603276398,0.570387419917424,-1.10310025049386,-0.664243721008906,-0.541565026214798,-0.490863743825707,-1.11967567371686,0.736075655646703,-1.19001658463269,-0.54270856839755,0.537220004679148,2.39151715255477,1.73110183757329,0.532741017933831,-0.126309627023393,0.225558228552614,-0.328200423029351,-0.0479743508267452,-1.13651127110629,-1.37337286120508,0.356849465725209,-0.64716062232999,-0.552995504747623,-0.523696564110287,-1.07549281887523,-0.161161966857527,-0.00523399637102363,0.306893718971651,-0.00723598378167527,1.07027303217217,-1.253211692962,0.51709719688938,1.20868229396018,1.99230626515243,-1.76822786136147,0.622680534998488,-1.05013021784447
TSP25_Prostate_NA_10X_1_1_AACAACCAGTATGTAG,10.0578792946507,3.14997468398008,-3.28835232115155,-21.664033840374,2.12470807342234,-2.14295988145172,0.147450833498057,6.95917666102363,1.7877721337509,6.15042289160278,3.32604306607219,-8.69770708259613,-1.8971802378792,-2.9583773487743,-1.95970408984991,1.82690441764204,-3.62268011901154,0.194358349269061,-9.66640950933792,-4.16451261545752,-3.30239017393654,3.29099083721579,1.08380640524378,-0.645042783492375,2.96322399742435,-3.72622198516401,-6.17882416449301,5.47952183318703,-1.73967366659427,1.25763938130288,2.89702169085229,1.37947232247771,-3.37013013137746,-0.471404548284796,1.43990183058888,-2.92600265356643,2.64728793354835,-4.53163617710576,1.79114179273352,-0.792644321830274,0.412332470785776,-4.6331065609609,-0.268396726834089,0.540317149379417,-0.755395914800043,0.111573192097887,-1.6374835470443,0.859680528213564,1.03225113630086,1.32171433604518
TSP25_Prostate_NA_10X_1_1_AACAACCCAGGCCCTA,-11.9460126439271,-11.4635012657623,-27.4691859099926,5.49121447190044,4.9745725627215,-2.28578395308264,0.273501516793093,-0.484693839724029,-0.25793020585139,2.34075917609152,0.962985078380621,-3.64715200456395,0.367663528678478,-3.69276308615018,-1.24364879607588,-2.69042577757874,1.1445664785052,-1.03438192304501,0.385075597727125,-0.227145796141201,-0.243042325910443,2.55327852061982,1.34826898444884,7.58534224464841,2.9137303928469,0.862965575878512,1.77504898378372,0.848638900674086,-2.72358652458476,0.134746724280868,-5.35427742666739,2.53969577961198,5.77462691395372,-1.7901865314186,-1.4554038528699,-1.55380086044493,-3.04001913484895,1.09000931711866,-5.28024975435907,2.71875754383466,-8.52585620973399,-7.60149876135673,0.625030948281493,-2.2216102804276,-5.91345615235708,2.83533816389605,0.590153012720781,-5.51577909416372,2.49319138160851,0.0569250761267381
TSP25_Prostate_NA_10X_1_1_AACAACCGTCCAGGTC,8.30988502205494,-1.1186890412328,-0.834593647500117,-5.91628589856831,0.556743046930817,-0.396669312201179,-0.949645129420654,-12.115950733468,-5.52279989368619,8.53626516009257,-2.19062960361642,1.0839507806527,-1.58745528119534,-1.50442450614865,1.66980114926305,0.0407225394426021,-0.193231473565482,-0.535627725637396,1.50480028802241,-4.93387881915648,-5.43909256483809,2.44739973657108,4.66287610943792,-0.910109716921834,0.656218855145411,-1.40280215798732,2.79809355485694,3.97759283065764,1.40674760961536,-1.05819121285368,1.84014328242904,-1.26249950175704,0.81262684251757,1.36279513030741,0.182497915231603,-0.912881700225452,-1.42799257709287,0.587876488857882,0.311533902754379,-0.495263163067623,-1.60524129351977,1.61078582859363,1.12986642098681,-0.706678629475228,1.75478457223631,1.92370139547041,4.48630044098971,1.55521533464561,-0.218155655166856,1.18752460557169
TSP25_Prostate_NA_10X_1_1_AACACACCACGTACTA,-9.03812373715229,-4.92416524369056,-21.3014302759194,3.89158528849728,1.42771451376695,0.680933741030143,0.029085136072005,0.0200432529766624,-0.436909585661591,-0.350660390979514,0.337693174791822,0.423742562321167,1.32213812324856,-5.01057269653722,-2.9767000777927,-2.42989804744155,1.26153438919933,0.00812375102693754,-1.07930259475709,0.480179997018032,-1.44474541212694,-1.25650350642723,2.43653388642942,-1.877161754575,1.34098877400164,-0.663342112175324,0.271702765857667,0.177642835606062,-1.42301138013534,0.883489273324872,-0.700427549046758,0.367403967503623,-0.803612967192697,-1.2685555642438,-1.31109468954416,-0.164247745985813,0.781246193425193,0.843754075272144,0.356950316996684,2.36580057087734,-0.37876861838197,-1.40384414419834,-1.41315816806567,-0.0811844490327212,1.36877055511349,0.195160569521166,-0.702257569831592,1.80789157254936,-0.973175061794917,0.968937971719124
TSP25_Prostate_NA_10X_1_1_AACACACGTTCCAAAC,11.4025619476172,2.70941110030237,-3.50355128708006,-25.3509087727117,2.99797063377518,-3.76152936898654,1.11650231794042,12.2801290792974,4.37764942852521,2.61817119647303,-0.783090534731237,0.145226820901941,-0.460120149252868,-0.703248368106894,0.516923814292524,0.624688019063943,1.39390563420957,-0.43166517931357,-0.192548841861045,-0.297894023608092,-1.8509421562495,-2.31300210211249,-5.26175328152492,0.171881391227744,-1.15456302078315,-0.196528080683956,5.62341436888782,-2.79656774706142,-4.80362895036629,2.94621641020525,2.07482580828522,2.23645358104045,-1.0898464519866,-0.248718338482806,1.18219156298803,-0.736213884472859,-0.439712411246141,2.25044605707284,-2.01453328988174,2.46470302876433,0.327268197001379,4.50831071341062,1.01390059135182,-0.679454407937993,0.435505403682141,1.91350774457997,-2.53579378461351,-1.57398574658273,-1.1304848089813,-3.04558361606996
TSP25_Prostate_NA_10X_1_1_AACAGGGGTGATCATC,-2.29264773455206,7.34923934064178,1.24362424042697,0.923178522057574,-4.9638154216739,9.50916751091916,-6.84471091216867,0.0316575835099941,-0.276960579630691,0.0475423770032262,-1.29947242675583,-1.81383945964642,-0.0287849009642281,0.0121007449512732,0.740106514222586,0.0851393614480654,2.39047162482105,-1.76962869277816,-0.229939348337075,-0.0520644952221213,0.885727868209865,-0.420659535240317,-0.140588305100998,0.035152635596361,0.504970770960884,-0.453907518914654,-0.212445997731749,-0.769200481219583,0.47086873895298,-0.721416214962132,0.193478387337607,0.191810770250913,-0.337895322838244,-0.861616564131111,1.34968758219276,-0.0245985681176483,-0.847148807515034,0.165242417914747,0.606663819446681,0.402284583727191,0.869658849290989,-0.547878151136903,-0.732033370458162,-0.0505296645056159,0.369643837502323,0.0731329109021242,0.248428083487843,-0.538063121857751,1.0886270170474,-0.519293543994519
TSP25_Prostate_NA_10X_1_1_AACAGGGGTGGCTTAT,30.3575117090802,-7.30306565372229,0.954381238369281,15.7651443226338,0.568948164531212,-0.285591015002882,0.874382711446349,4.66932557816859,3.46573155120209,-4.77764835824395,-1.52488324822738,2.21059312245995,-1.48270463511646,-2.97414919570526,-1.97508276548338,4.36428076342183,0.577843972947112,-2.1661367302212,1.79194348729584,2.8999440683977,0.820709307519906,1.62769457905392,-0.166177968873999,2.22422243447631,3.03149273418077,1.43733346460997,-5.37293983958225,1.38518746314885,-3.68446296498084,1.18598423515427,1.95627789322556,-0.971408213693999,0.111660152899899,-0.14392010930943,1.18438196482074,-2.49654833030251,-2.21214963627642,-0.859975300771947,0.525801691425596,-1.41478996119372,-3.1865922886738,3.57424307201902,-0.152672389783219,-0.813427240957703,-0.307692317438271,-1.00005570667245,2.97462279749264,1.11431728584909,0.820778000416411,0.130601285456228
TSP25_Prostate_NA_10X_1_1_AACAGGGTCATGCCCT,-9.42091894377077,-22.1477795515358,15.2481311588657,-1.61040766167496,6.87947561021674,3.27947924524791,-0.320494963884322,-2.89743732736521,9.3328341334364,2.16071101541771,1.14818078138511,-1.29958739183537,0.672844057431276,-2.43168028998664,-0.476854783146157,-2.69923848432714,1.18226438377094,-0.24613618290932,1.71059829937911,-0.223860078086959,3.5441045354777,-0.0274422541181284,-1.92431334875566,-0.254688468936529,5.83918596688317,5.87188608357757,1.54481658721583,1.86594163601466,5.66486680458313,0.34798410540198,4.97407989296619,-3.84326752723089,-12.6516370137709,1.89562048079084,0.232447983358809,0.144585771250421,-1.65527563037336,2.66175263564355,-3.84341766811016,1.60304239649226,-2.27305739979203,-2.2361659685228,0.0244876057395136,0.27896506002465,-3.1880597250232,2.28615720994287,1.2692539521059,-1.84439638222648,1.34299600051188,-1.45441879366903
TSP25_Prostate_NA_10X_1_1_AACCAACCAACTAGAA,-6.68249123108238,13.3029622804817,5.00078414020344,5.18265687666214,4.83468627060502,-4.73507468104475,10.437081062075,0.890385331569521,-1.1708688162094,-1.36124283504944,-10.228688106718,-7.3929333834937,-1.58687497361522,-0.94581205889531,2.6756316343745,0.678839166421745,2.63182967509821,11.2838262736739,4.00469615708474,-1.30257650294599,-0.282029386682435,4.40287185383293,-2.54339241502931,-2.19520478590631,1.24474474787687,-2.55061717004332,-1.74215487366185,-0.291964291401664,-2.31580410301023,3.15376559626239,-4.29579973147376,0.240027837390668,-2.92774049221421,3.71719910835,1.94339963656166,0.634262813450549,-1.14595572233654,1.00829363717572,-0.200452400799657,0.0307248099422924,0.502268816839163,-1.43753989777108,0.268500862352412,0.700848422255048,0.966619722147262,-0.627847758189327,1.19962402707071,0.475520605286728,-1.30169782248328,2.24870815814639
TSP25_Prostate_NA_10X_1_1_AACCACACAGACTCTA,-6.57644239947081,15.1059646436016,5.94668444537344,6.95185000478629,7.84506059451197,-15.1909967392495,-9.40954715077951,-1.24324230414606,1.38958219996848,3.10570740156759,13.3717211670731,3.7025471993687,-1.59541637513489,-1.97208576018317,2.5214578927201,0.157859395591323,6.65913936761719,-3.91476904106227,-0.155731679540974,-0.44996757181249,2.88204825345531,4.88630625746605,-2.92382071597873,-2.36993778138756,-0.687234138661459,-0.610723008083545,-0.569352272021796,0.567847684724851,-0.274429151397551,1.3158278427437,-1.94159942773076,-0.678910734660106,0.194748500820832,-2.91755501637388,0.803413288548358,-1.37205487434078,-0.537926284615555,0.718349260153094,-2.19965865562904,-1.94197810454434,0.501131237637142,-1.33650629485467,0.482123408703224,0.9736080072527,3.64026650771229,-1.00104184237814,1.30490726151609,0.438851959473639,-0.885770545037923,0.014609796357019
TSP25_Prostate_NA_10X_1_1_AACCACACATCGAGCC,13.6448123206647,-2.06679351867741,-1.80843977404578,-9.51363207531582,2.28105693556944,-1.21322562746079,0.4386204511688,-16.9650550152734,-6.67894210313346,6.46899004869715,-3.09490081442496,0.481922034048265,-1.2116963996857,-0.926873112192581,1.73560095311223,-1.44815916618912,0.195055521982676,-0.801828387455923,-1.9598363352845,-3.92794959315172,-1.97043279103027,0.303451650477393,-0.836765771735087,-0.284667559206961,-1.30602129701919,0.179741783978786,1.82412125084493,-1.86736111722461,-4.56139456299694,1.24158537153229,3.47834669426634,0.258117878446882,-1.88128611553235,0.382815130291749,0.412415291823057,-0.362798214572351,-2.58966562961049,-2.14558717819483,1.42337976409337,-1.60870576236551,-2.7920781218755,0.933197658747342,-0.691173435894878,2.77064683576238,2.46036416465905,1.53960437011022,-1.14527697377925,-0.765468212034846,-0.102227298911913,-0.496292839149648
TSP25_Prostate_NA_10X_1_1_AACCCAATCTTCTAAC,5.03572794794926,1.23312445432335,-1.71607978374887,-9.00715969037252,-1.50461399511843,1.52031599110341,0.697562260019593,-3.48381582698646,-4.12890109675862,12.2466429605565,-3.480468570544,4.15871948962704,1.13350468114519,0.109728190779102,0.717926052324534,-1.98959170325964,-0.980242260917382,0.690809879675428,-4.50353166472913,0.0499581747415016,1.8704392827537,2.66017589835059,4.65415335703739,0.0700237443545111,-0.250889228231897,-1.11926225746673,-3.47737839667396,1.93871436339928,3.1511951934658,-1.39382097944773,-3.2903744251477,-0.0122961004257042,-0.672733622894591,-1.21199539376702,0.323586765193084,-1.98819575128783,1.48686433816804,-1.1612716043522,0.526644700075393,-0.889201117969842,0.204670115035332,-0.757966896540176,-0.156790602833887,-0.016992342469691,-0.619875183809451,1.2142119446882,3.25672289947075,0.425080325833302,-1.92481355290714,-2.46667481006957
TSP25_Prostate_NA_10X_1_1_AACCTGAGTTGGAGGT,-6.06656984254139,14.3868528714619,6.24090600686841,6.387528286845,6.69119523261791,-11.6361474671326,1.1962645013382,-0.134218135249828,1.1551212892678,-2.14443160798991,-7.50868864205661,-2.51641745179293,0.509486250775495,-0.640481890614573,2.5937686928083,1.31562159118844,3.41407084322313,3.78071095941792,-4.9302918655956,1.63232208593783,-1.20238687425044,-8.31957761010043,5.29464564560222,2.36155615001819,-1.15932615574628,1.05112409665019,-0.48994494595509,-0.598969492858653,0.312156220926353,-0.9003007060794,1.9292866695193,-0.953901834609045,-0.506278543479325,-5.22925957888519,-0.521682843474826,-0.0470544794980857,3.04024589503798,-2.09084402249946,-2.67161619238586,1.33510049828799,-0.274433539266445,2.8830844246661,-0.697210369792366,1.87074907853832,-1.96646893251169,0.262042640718409,1.64789115722746,0.876486502145015,3.64069995486901,-3.37967523786638
TSP25_Prostate_NA_10X_1_1_AACCTTTTCTTGTTAC,32.6944792813323,-10.0797508041897,0.404305040450102,16.4919293553777,1.46189853652428,-0.992322739947891,0.894342863191776,2.77821502546449,1.28530344663782,0.27460444255984,-0.234042201281866,-2.1926746590809,-2.89513657984828,-6.08721846939213,-5.46121077773941,11.4508472383602,1.85376111300858,-2.81800824307012,5.19271989741549,4.76602106635484,2.25621222842779,-1.27677793281459,-0.0447765908429436,0.760919075395295,1.0688410852845,1.33222558911339,-3.52697795720587,0.305623169472935,-2.05686659664469,0.344977516955349,1.40342783264519,1.83147045818006,-0.298616588829208,0.29928475340412,1.56539600473297,-1.66098948958462,-0.115706413029686,-1.59316094856026,-0.298980679584792,-1.23262384588887,-1.12080556143636,3.01418912401736,-1.47532841746457,0.063995704154599,-1.57570079473041,-2.17302337787999,1.01226298157161,-2.67788913171597,0.866832004041574,-1.25563668040529
TSP25_Prostate_NA_10X_1_1_AACGAAACATGACTCA,-3.95808203872463,8.5243588265305,1.20367049631049,0.235833082328955,-5.20482444845465,10.3152552545828,-8.57377358441354,-0.229704462465677,-0.288021055575482,-0.510116184692605,-1.46701196498903,-2.7973440832252,-0.595434927489605,-0.508514064998012,0.843410466504534,-0.415275204562616,1.28907080143151,-0.830429507914266,0.735260886945847,0.204623256817874,0.435013036626116,-0.100944936373047,-0.451244618886696,0.191194870232828,2.7386350597535,-2.99594208770722,-0.0811054493258189,-2.70674352138233,1.38532375530975,-0.478052664669598,0.561608498883037,0.461113683805859,0.384506451081573,0.15481326698422,0.58969603608962,0.376224637164896,1.66902214473388,-0.705582334493313,-0.844091739747018,-0.352912394136317,-0.663786676607973,-0.0538355831002633,0.375713156853967,0.536709951662778,-0.34648012186218,-0.730974097190027,0.075606346615431,-0.0615216470650686,-1.44424681142818,1.1784147335996
TSP25_Prostate_NA_10X_1_1_AACGGGACACAGCGCT,-9.89870755965684,-9.7079937739,-25.4011272550112,5.13001132463839,3.70233819209359,-1.84240063341688,-0.0518428315296353,0.328525208171166,-1.32626443740713,4.48646733424694,2.15299344286355,-5.0187460750878,5.54383324644927,-5.35139244098982,-4.35395762357987,-4.98570285978626,2.21694744186951,-1.15197519061371,2.92576765552176,0.0205976626189736,0.56746120262149,0.283961307702419,1.11541650450829,5.98084209346963,5.13899661259523,1.36613841732025,3.19449106650719,1.29473364536555,-2.99110871238611,1.9195603305997,-4.69933633692167,2.34653965899658,6.98113699356164,-2.40906335994197,-2.43876972674825,-3.10330467456337,1.1519062290377,1.01132703909701,-1.03915773378685,1.32336713568765,-5.87808281016799,-2.85908212940737,4.07641286400616,2.57604379912651,-8.15360050005764,-2.61338206261146,-0.51718684224483,-3.34818048222694,-0.496367793077892,-1.35491460289113
TSP25_Prostate_NA_10X_1_1_AACTTCTCAGGACATG,16.6165698802693,-2.76814107916378,-2.2282523191146,-3.35196159470892,0.846625437258797,-1.12022857125866,0.198631348345104,-16.0792048915806,-5.75437886085259,5.12731401588898,-3.55392613403714,0.903291453242812,-0.204046791865839,-0.54231140664832,0.62660544184643,-3.27501348007497,-0.258404849231078,0.746487471612257,-4.33146448934933,-4.35852482543781,-4.83634506389724,-3.59323778665798,-8.16875548592806,-1.50759873533374,0.313585115131711,-1.03110526952845,3.12540619664319,0.718434357061321,0.388566096586347,-1.05613487708814,-1.4759177680141,0.801968539110848,-1.71356388759647,-0.942098940304688,2.48009175747479,-6.15727832597156,-0.231312437869412,-2.09188125652373,3.61651902769373,-0.858403797553284,-4.41185522858952,2.70720787940463,-1.58211013365192,-0.908838028228249,1.21278421702611,0.415079877571992,3.34280499710694,3.14322516900098,-0.756058150057674,0.556913517978632
TSP25_Prostate_NA_10X_1_1_AAGACAAGTCCAGCCA,-7.36718402653976,-11.2135735157902,5.85361126226528,-0.654588337949991,-25.0723923926993,-11.6875996541517,0.857349235771866,1.53179000151806,-0.580243478407357,-2.08053614627959,-0.172477344346927,0.146676003447848,-0.417614968073987,-2.77570303369682,0.468494377129537,-0.659511789790654,-0.273477411896882,0.0942705833015441,0.718028773287126,-3.18727384616739,2.96554867966822,-0.985670675054324,-0.281035716391189,-0.593032685929152,0.697529324423874,0.43051956654659,-0.0759139375097885,0.464175387410283,-0.546108235247305,-1.03222714102251,1.17850742794348,-0.538395018521767,-0.963152160614807,0.798912769095732,-0.30292546839107,-0.268953310963234,0.254752753339895,-0.860065443300716,0.919898781361092,-0.598885533852554,-0.922737760789909,-0.683296616558265,1.13900830936015,0.178740634132899,0.41467284651411,1.20757451149788,1.45976419914592,-3.07848207437041,0.662072829618207,-1.47890838048113
TSP25_Prostate_NA_10X_1_1_AAGACAAGTGACATCT,5.96693895097092,0.437123726045872,0.189269096964653,-6.96128313304688,0.277779577474257,1.00205549490706,-0.222861708373506,-1.16119234613055,-1.00052195577843,8.44317306464213,-5.09212278687506,8.13167748935525,1.47899449594557,-0.621738286642484,0.954987984152299,-1.40978943189684,0.272889627204353,0.518132875650481,-0.21102340265953,1.74437166025376,3.97184388853438,1.51635673500913,2.52252092064424,-0.0170060299920232,-0.0747658386376396,1.53832691718628,-5.1121104521703,0.427183124379534,6.83087287934526,-4.72456366581546,-3.94545613935021,-1.74357653117108,1.43883842023896,-0.121967738932011,-0.713049225221876,-2.21681176402486,-1.02667985943775,-0.995782232873797,1.33657010203281,0.540152360895367,-0.437952509715581,-0.526808916209695,2.20561894479139,-0.497980222692905,1.57332068634658,0.506135736882323,0.0426045890182609,-0.248249923015003,0.48800114313446,-0.384185965906643
TSP25_Prostate_NA_10X_1_1_AAGACAAGTTTGAAAG,-2.30997426806979,6.19133795577763,0.848962784073194,0.578523507792727,-2.75639181094897,4.34308210649506,-4.13454066739263,-1.24654265100873,-0.659229253513599,3.03137011906465,7.19552930181103,4.54268125983184,1.34272663330025,-0.923746903740706,-2.71782758538988,1.95523016028996,-7.42888366112535,10.2785846438069,1.13275546789788,0.688053502052705,-0.125244023653236,-0.981533887778651,1.40794451693255,2.0348571202411,0.746171117102406,-1.11924544902602,0.257337525481388,-1.61566341014031,-0.00049242877106818,0.527776977867597,0.777118983975065,0.756921535065681,0.102810237650999,-1.62629815433364,0.707964993336456,0.160302996692073,0.335401218495373,-1.95323701582469,-2.1140717435407,-1.18767263467692,-0.21289139526913,0.399854899926455,0.126102217491511,0.841060961148607,1.68201271658964,-0.663923304632663,1.80364676481905,1.01880654489026,0.132886410853889,-0.523935085936041
TSP25_Prostate_NA_10X_1_1_AAGACAATCTTAGCAG,-7.90337562421821,-6.42768246298269,-11.1080498425939,1.89899759070855,1.26947024277499,-1.55600708178359,-1.19381685055967,-1.04525913356235,-0.637945788569439,0.603806355589743,-1.62345188024273,-1.49553549282264,20.6104824888876,8.7770203074192,8.61331093935322,12.7119534565428,-2.99893570958629,-3.21164305235437,-2.43960419818756,-0.41598697733874,0.417036324870918,0.819299985639225,-2.47888656224996,-4.34478079029015,4.48501367320997,0.47196677959328,1.49642929409259,0.652376186105798,-2.80487134029954,-1.79338087271552,-0.411518273141618,-1.29906371150097,3.11756445512931,-1.37435712536838,-0.00590470945434714,-0.990833635309009,-1.73754634957514,-0.431448350673698,-1.62118723969306,1.66364713336586,-1.19681618167011,-1.89771562011204,-0.108050798594098,-0.529294193057578,-0.231091021311751,-0.292007068849176,0.0452096883410709,1.61806357472169,0.339758799286254,0.351941037613268
TSP25_Prostate_NA_10X_1_1_AAGACTCCACAAAGTA,-3.58197857884877,8.31950339525522,1.84797852705451,1.18428857050788,-4.63810224517145,9.54815144850139,-10.1508136152325,0.472542835780541,-0.851490332858626,-0.678765432129606,-1.21165369189474,-3.60463105640577,-0.146865602593058,0.366590449713884,0.58193083011439,-0.563298976841401,1.61631500300927,-1.88734730089891,2.58879431300666,-0.781066514815294,-0.770457916313277,0.824396124168273,-0.832169030545424,0.471071595926471,1.04959463135318,0.171280444768613,0.600470000479709,-0.331166975162264,0.265038226178173,-0.666743961235253,0.537943377914161,-0.392153818980936,0.498713132582588,-0.213105424308251,-0.798080603279906,0.492601684420818,-0.282916758528766,-0.672484493556399,0.461479371589491,-1.05035394939046,0.905296522370704,-0.126253104862495,-0.459860863550921,-2.60637399337999,-0.938521624118524,1.37762419330748,-0.25426110717582,-0.838250926819926,-2.02516723022865,1.42097838107691
TSP25_Prostate_NA_10X_1_1_AAGACTCCATCGGATT,-2.26378557393779,6.12335109082532,0.704196826715414,0.335848550240567,-5.14273675251328,7.02690000242137,-4.16202675267852,0.296514105449888,0.384180528948714,-0.538133701993772,-0.16497194055381,0.89428895335727,0.360217226172763,-0.885320464684056,-0.279336571721408,0.751761585307432,-0.530040081365484,0.121682373328853,-1.59090043574384,0.0532738346634746,-0.29167590610837,-1.90679776541685,0.746861132803534,0.257783538001962,-2.08401761688097,1.09500349226373,-0.714818150529866,2.08229106475033,-0.474438479330723,0.779551971350435,-1.25312942213645,0.352441980198344,-1.04117741109456,-0.158390955597917,1.04096980755438,1.03551757632704,-0.705897937522864,0.584491405655674,1.29866529531543,0.513956753955286,0.924976344017799,-0.209667609509092,0.0463764551977525,0.76808162869716,0.335258337433354,0.0151768925332471,0.233600850464608,-0.394927956695056,1.7207450319528,-0.155803997207921
TSP25_Prostate_NA_10X_1_1_AAGATAGTCTAGCATG,-2.89943733413182,7.47417564989531,1.52796432714172,1.19576800439111,-4.55816353094705,9.41777509948258,-7.5679273430589,0.150254358078197,-0.605159664705933,-0.385795075395652,-1.49939070288069,-3.33014986430513,-1.05267767537118,-0.687303901173092,1.84219897729901,-0.51629778578292,3.52909023952231,-3.887093466344,-1.18479341586821,-0.135475521038579,0.805932913106923,-0.296130619177698,-0.296325855803261,2.52232751375062,6.34791921086511,-8.6874683992428,0.859823562042275,-7.53610871672703,3.55078944422498,-1.12828854131492,2.7438649725236,0.219204450597014,0.530277480527797,-1.76374638534589,1.49362897989248,-0.48466416814622,-1.37351600177086,0.19344484125594,0.186742403212722,-0.198352383861263,0.967901313142718,-1.5946083288336,0.21682020146282,0.0428216766241786,1.56113615508903,-1.14295894139864,0.330774085309768,0.610199925847169,0.723806123750157,-0.607119562941636
TSP25_Prostate_NA_10X_1_1_AAGCGAGCAAGATGTA,-7.75243522611709,16.4893995349501,6.38116967355778,6.73382288630925,7.79860115537823,-12.0226212741948,-1.68347016372308,1.01534613548384,0.555477409123201,-1.71587656376297,-4.07698160366903,-0.386883153551272,-0.270056120199716,0.223891611026748,-2.19971458373784,-1.75113363606221,-2.31859203295846,-4.63321282192756,-1.45937190324992,0.247323468028936,1.13126137683079,-0.176487552837152,-1.43802582497468,1.91327980293175,-0.29956003052497,0.952927133146667,1.82742129825184,0.246774182589431,1.09293973393816,-2.85579629887419,1.3879418750028,0.59767682605841,2.46597655759591,10.4560755627838,-3.2053610938565,-0.409342315861123,2.96579748796716,-1.28900275565662,2.06470357658155,-0.936751563039039,-3.17177494204396,0.172185793073501,-1.84267211603991,-0.360379848706338,-0.395581709881306,3.22585395458521,-1.9227597282742,-2.2341170541438,-1.77178728103049,3.01939656628738
TSP25_Prostate_NA_10X_1_1_AAGCGAGCAGTTAGAA,-6.60303977981599,15.2331672834669,4.7104223991365,6.59018907706806,6.14161092854879,-11.1119889131681,-5.51876801034934,-1.01221202609451,0.818719192645909,1.50614183115708,7.50253660119469,3.8387728453338,-1.22687117113712,-1.55035501441576,2.18418087041173,1.14964899905195,3.78461005501858,-1.52426788131604,0.243638828275718,-1.14807633376947,-0.604548924817107,3.25152605388279,-1.01637126992861,-1.85090450850257,0.0317780985051344,-1.05667577411631,-0.37871274361186,-0.58270186853825,-0.466063157641201,0.980404877022109,-2.68671272718846,0.157660440014244,-1.46261823601205,-2.56731313009139,1.38620352752537,2.36245454004087,-0.711928875349973,1.01430729049809,1.379189930361,0.267581489600202,1.64892550078827,0.0563558708673834,-1.17574709771345,-2.32552165858246,-3.23830553530341,-0.0328634606073113,0.694419430326999,-0.145214294638485,0.575160139366641,0.541709597348794
TSP25_Prostate_NA_10X_1_1_AAGCGTTAGGTAGCCA,-3.56715761582172,9.51725846988744,2.53962646094401,1.74607780092204,-2.0851530013821,6.96124860040766,16.0531559780487,0.199139094406589,0.0729844367790823,0.83561003923277,4.79585064971909,1.46388383296858,0.156762938961094,0.283111909824517,1.20543633138353,0.0852539126905401,0.873495919378103,-2.0397772456798,-1.03360058800818,0.631228128101339,-0.130513977020533,-1.08399290434041,1.17185523041712,0.324391365630563,0.187745703489709,-0.0316820522000409,0.583935989067457,0.191565669828648,0.383361618357855,0.246813428395139,0.0984418886731657,0.139679884428504,1.00516301640111,0.00235004635120479,1.73300468575646,0.162860998480619,-0.68882735481216,2.02377168934898,-0.580736270362561,-0.598615747784312,0.318409565128741,-0.766806400913965,0.775477632073065,-0.247066518416099,-0.938170131408585,-1.48353183318173,0.552172126047237,0.0460974740806817,1.41833733889054,-1.66967855079897
TSP25_Prostate_NA_10X_1_1_AAGCGTTTCAGCGCGT,-8.63679308486692,-13.0179407845952,5.95516351738386,-0.886065744902009,-28.6579772051435,-13.9317133627827,1.42488699219373,1.58675309654851,-1.21655759386084,-1.13070791540558,-0.216272606843156,-0.456265789035134,-0.0998785418783949,-2.08809699482795,-0.41290042002748,-0.726719137856857,0.288397006620062,0.227578180506155,0.912211760524923,-4.06541220798739,2.06177000735803,-2.18178076506504,-0.0667171667161069,-0.486881900854057,1.59112286483244,1.00118514515159,0.610813310320108,-0.0484968187492135,0.0270045785883529,1.15341356104792,-0.14027698507132,-0.700834762028808,0.367118968054496,0.195332811480795,-0.260608131160233,0.584713479864087,0.77973264485462,-0.997090030911406,0.175144153246836,-0.155046815151443,-0.196748038013763,-0.469413743669635,-0.34855508239204,-0.813760346158774,0.810250415999368,0.613836945643268,-0.119274068622947,0.588032794289387,0.824131008126113,0.0695470603335115
TSP25_Prostate_NA_10X_1_1_AAGGAATAGCGACAGT,-9.83187619906854,-6.45204896072989,-20.7463507823955,2.88903782234925,2.19622708090424,1.91658550091869,-0.349086570854745,-0.296796657678827,-0.502163323675888,2.34756598345341,0.891854016431027,-1.8484168952392,2.06194275358283,-6.51538085049132,-4.80283380800371,-5.89704722824908,1.4328781484343,1.06762373130843,-0.462810461649136,0.559396515334848,-0.357266913152911,-2.21213315299115,0.889781556038219,2.20267939173736,5.93817082875942,3.47004735348237,1.02864127323044,-0.616517090894617,-1.10200733329908,2.14804840986182,-3.98525224025353,0.847359567368482,1.52613141639144,-1.79941237904313,-4.19312833993206,-0.154469808655407,-1.56417266613243,1.40692621173845,5.76662887331483,4.86692912618987,0.163215216036804,-0.809670970193651,-1.84626706671559,1.67723295673469,1.01016283024582,-2.12321224816163,-0.769650502354764,1.67931516694851,-0.587324540774222,0.150093451122377
TSP25_Prostate_NA_10X_1_1_AAGGTAAGTAGCGAGT,12.465665187162,3.08136091455997,-4.09319954992366,-28.3322794397534,3.54011981663305,-4.43788879426369,1.56251495014046,13.3047128709938,5.8707301993129,-8.29025016611523,0.566777830121553,2.41616861864359,0.250465359644535,0.148072528511883,1.99907316935701,0.541119124859276,2.8712494316766,-1.07034429948027,6.39341269974146,2.01226448318892,-1.71920751038977,-5.64831628944023,-4.90553105666397,2.26763698832411,-1.67088680335281,-1.4009054840086,12.2244815560333,-1.58829880495981,-0.200143226424942,2.10014644137079,-2.04389062222191,-0.468302112986859,-0.595371839035141,0.586157575962079,0.294904167427865,1.08084307721884,-4.36337118974359,2.73672970154083,-3.13226513198878,1.90241797752708,-0.25903049714456,5.67750069472194,0.816982995200615,-0.332641733525558,0.753224758595931,3.28720331846171,1.23364068613044,-1.51940122184809,-4.14633651522155,-4.80422333224176
TSP25_Prostate_NA_10X_1_1_AAGTACCAGAGGGCGA,-5.44897209448981,11.2651060678341,5.44910142371882,5.03984967547202,5.05203144433887,-7.99231689397273,0.928152447089153,1.33511121890535,-0.516673934089997,-3.60785649684652,-9.12087333559677,-1.26787220802742,-0.201280800728393,3.12257263469219,-6.15223966701441,-3.22928549868745,-12.2242214888551,-6.80306143666711,1.86426739362381,-0.598056280585642,-2.00514036298139,-0.438787946841349,-1.713891770978,0.430020208264839,1.30748657599126,0.973496531326249,-0.173822629237029,-0.74444789426838,-1.50051411946016,-0.152389833537481,-0.831188652060005,-1.66696403129785,1.63161194668108,0.448242124087616,0.744896973625077,1.18368705160016,-3.02567498399748,1.61509706347183,1.46398160252774,-1.38982515405586,1.89499078045637,-2.3282960406277,-0.735193993575257,-3.99030584100807,1.64726332277978,-0.215152540862127,0.799652205837455,-1.93467630597695,-1.52345568445002,2.52634504245142
TSP25_Prostate_NA_10X_1_1_AAGTCGTTCGTTGTAG,-4.27083763559282,10.751618793628,2.32508952786029,1.48115589325258,-2.32394505303185,5.91447352101029,16.4390715733321,-0.225780409352861,0.189294790739753,1.05314271815809,4.00889429627467,1.94924984012966,-0.221778950279798,-0.331116456367455,0.507468291366519,-0.2536183177569,0.967628332688048,-2.68072944282082,-0.485547176805844,-0.242611400808602,0.899994323490512,0.283378690110844,-0.166356045824323,0.317112899014287,1.0457393885581,0.231372146272232,0.398587226306196,0.0901502677542025,-0.748784070047878,-0.138040422201911,1.44300397491824,0.266629838471699,0.221653197837906,-0.208619476061996,-1.07327693218142,-0.0209316540776535,-0.15464863975755,-0.728897993622732,-0.769549890758357,0.0852045546646863,0.0755927894130198,-0.573142367244936,0.0877932613667819,-0.00715886897152329,0.0419775336685786,-0.0671678337412779,-0.169018707596336,0.531569936866559,-0.34970399984789,-0.130305682589934
TSP25_Prostate_NA_10X_1_1_AAGTCGTTCTTTCGAT,-9.78581630613248,-17.2347396810822,7.72788473724336,-0.746055880116902,-29.2279112834278,-15.6352580593746,1.24964939101826,0.244048935005383,-0.660574029805943,2.41945161552725,0.0990723044437283,-2.86250482366801,0.195913449905852,-2.03911856452009,1.14918828179403,-1.08452390037963,1.09552027037297,0.433400040581963,1.53932428566219,-5.07757680488463,5.06120110496211,-0.602840870779468,-0.715560535017628,0.750095933262175,3.09532821601948,3.80915223491419,-0.430033503588511,-0.0617608344874515,0.859929011440614,-0.251799429906677,1.44529067400676,-2.27660387664387,1.62886924378044,0.792146292498169,1.74025144902662,0.200054477920512,0.893740901721577,-0.108612128947196,-1.03170472671576,1.3571153369492,0.362775706378489,1.21034239793307,-2.49414988210534,-1.44680446456252,-0.015497549444991,-0.808808702214956,-2.59402989242277,5.83318569002244,0.377589173436199,0.114248589084587
TSP25_Prostate_NA_10X_1_1_AAGTGAACAACGGCCT,-7.58999719348961,13.7958050263847,5.4703591025025,6.12368449305944,7.04133379517217,-9.68330466825273,7.10835629389756,-0.0324370614277747,-0.37193916961543,-1.56955643213492,-11.8390588478547,-7.31319940997739,-0.877516090106257,0.127146743799449,1.82260241942372,0.360348308002092,1.64746125304189,8.12576200373405,2.67347370308149,-0.179546725721007,-1.04234472400788,0.524879455948368,-0.648804716881531,-0.111021327679133,1.28573186826261,-0.766929984513742,-0.042941746664759,-0.64914285367684,-1.0346877163614,-0.52385209166913,-0.319070160413404,0.784402576938915,1.40233395592769,3.02826677905504,-2.01524328075726,-1.1094665043542,1.50798123808584,-0.744239687164315,-1.01114147127473,0.756777282018374,0.424240564832971,-0.157285488683239,1.37500089366144,2.13690529321935,0.281428708088142,-1.2498383260627,1.00400942866296,1.60863297674225,1.26692929502678,-1.68038007170551
TSP25_Prostate_NA_10X_1_1_AATAGAGAGCCTGTGC,-11.6469610533283,-23.4334881035325,16.0910125817824,-2.45577257481517,10.9231727517644,3.91363169525173,-0.85302496473791,-6.96332139689739,20.0121813184797,5.95921401101351,0.015495675869452,-3.97917378055188,0.193937213981088,-2.67681170634917,1.495929354323,-2.0156386046916,0.440830595379949,0.602656624296231,1.41862545668187,-0.975035619015232,2.58366245550866,-0.823804748860959,-0.195413524014279,0.183808480740664,5.92051982222175,3.1511687754158,2.45229788542024,2.75338612485011,2.97091320154019,-4.59837331706797,0.489629937374863,3.26014133935618,-9.21266056609726,0.920379012614349,-0.93340050187916,-1.86167115753677,-2.91967023525256,2.37890328143979,-2.14995749838175,-3.16735431415555,0.702504801430721,-1.19804851572384,0.374107985091331,-3.14004440011384,-0.695368737161053,-3.13805914452477,1.99705549001866,1.05026847630855,0.342693412032323,-0.335340885846049
TSP25_Prostate_NA_10X_1_1_AATCGACAGCACCAGA,-11.9126270349704,-25.4391503344811,17.853671589445,-0.616876893747177,11.7789535485854,5.05736613559378,0.704859077259669,-5.80354317792717,18.4411267733483,2.84191381371736,0.120961742191492,-2.06793491651529,0.00266364873215608,-1.85734469251871,-0.725255332798285,-3.06611181269085,-1.04912176601068,-0.721992149459043,-0.01002599872097,1.2720068025651,-1.06511060586743,-1.05206562001124,-1.11610392579226,-2.46019731434076,3.34993165180171,2.42002385716775,0.417198935227825,-2.15041476438381,3.14223076889461,8.25097885075382,0.163948676136832,-4.03935473680298,2.0344594473654,1.83598694915601,3.65378793667922,1.36231782722479,2.41599946098724,-1.79308947895006,-2.39380825356469,1.74820544006468,-0.940229911558823,-2.24989892608705,1.54212954094179,0.751676824390208,-3.42457941564102,0.304635953483477,-1.56722609785921,-0.684590533850906,-2.28955907860859,-2.03033972590501
TSP25_Prostate_NA_10X_1_1_AATCGACTCTCCATAT,-2.88720519997871,7.69889302746957,1.00222383077685,0.866577895683583,-4.59141745309947,8.25362001198019,-5.27161752473098,0.428760072619349,-0.17620924701754,-1.00164729920867,-1.15380686566307,-0.335638594964561,-0.480622462824735,0.252957086242679,0.358019352515961,1.19551975972956,-0.916751837266024,0.21666914745547,-0.317362475873416,0.180058883113994,-1.53571478773888,0.0115287959227054,-0.235593138881004,-0.46738187608734,-2.54492842699257,3.50858370084098,0.0968063413728213,3.04618123880174,-0.82686731063425,1.40312288468825,-0.624447357161786,-0.328121356900584,-0.469600717259108,0.0297694505231547,0.852246021967274,-0.604887524273302,-1.57739557189194,0.334115219898546,-1.18166209099102,0.298465427212982,2.41515247720754,-1.04109410936153,0.229154752490196,-0.784924832586585,0.675630654777061,-1.3196282044929,-0.30176949038963,-0.933164725978688,3.66497078685308,-2.6571148158154
TSP25_Prostate_NA_10X_1_1_AATCGTGAGTCAGCCC,-6.31899954895815,13.7154260181822,5.89427556900225,5.74642931869674,6.56369227018711,-11.9990287146957,-4.03566645540443,0.903659018637497,0.0279257365030265,-2.11043404901299,-3.43038423898108,2.63261129726843,-0.536227133861424,1.60439184067943,-6.29827088884387,-3.06587386182863,-10.638868620904,-9.9233043487967,-1.14373252118815,-0.828823404498816,-0.47072478374498,-0.851167387063377,0.191524208085315,0.778563160178801,-0.484173596590773,-0.16142325779565,0.420692187069207,-0.276700124903132,-0.635118209038207,-0.121121244884091,-0.329674785883733,0.0419403500148569,-0.330055325742633,0.17301636917391,1.9850641638387,2.7929585343789,-1.14454959848116,1.81728575827257,3.23781181108285,0.0456034047688708,0.113576890852253,-0.0100298954670418,-0.300488586209059,-3.32347811405929,-0.977039740821583,-1.97984095071628,0.0363034053644569,-0.00721564705922299,0.187502361541471,-0.55215981224022
TSP25_Prostate_NA_10X_1_1_AATGAAGGTATCATGC,26.9826173753785,-4.97796586779399,-0.651269405210527,10.279711769821,0.557451366852332,-0.396380462237443,0.180040974408699,-1.7776080241565,0.0698006379074117,-1.69964531123709,-0.701729305739887,1.80943127668496,-0.0685676278967255,1.11268583302514,2.15737707842841,-2.75386273641838,0.476036675128515,1.04811636923517,-1.75487950381691,-0.925113774556238,-3.72686381760469,-3.01539928803079,-8.97033620678799,1.65603785339012,0.823834297501709,-0.977967554044642,-2.02774993228418,0.383295760972765,0.44936818537067,-0.527731756716727,-0.729335509918334,-1.8401583215115,1.39228911434271,0.072628733894319,1.09422995439396,-0.894995094844488,0.054811560937328,1.18230302722895,-1.7133104601308,0.241469581809098,3.64984869837534,1.86180034092384,-4.7036592781362,-2.37751139217131,-3.67859687828313,-2.52665086107442,2.71483430296836,-1.6770819728059,-0.0190560988255572,1.63449441367361
TSP25_Prostate_NA_10X_1_1_AATGGAACATGCAGGA,-5.08718330256828,12.7974072331099,4.25652782902552,4.74440756760382,3.86482802487046,-8.66226217605931,-5.6855776336474,-1.08298720843605,0.751766779888656,1.10852970601579,9.55923180129468,6.44048050653513,-0.509900462468288,-1.22077590867156,1.84485740987766,1.51934799639576,3.37466906608755,-2.03945618361191,-0.268740423616827,-1.82550396721784,-2.41911656029386,1.65253723081853,1.40527502071156,-2.71260653391858,-0.567977767579532,0.218390299272782,-1.88916906810426,-1.16496378857026,-0.498904483136891,0.905254989384241,-3.3052721899335,0.142248649935711,-2.34576540173517,-3.05619897468978,1.45269398416236,0.714540965791017,0.623837211623285,0.112353759592047,-0.121777001540179,1.55060054132025,0.160195449061392,0.876714945457642,0.371526792951479,0.976362963746145,-1.96471342813913,0.34136816505037,0.908736820343538,1.51284620523796,1.1045425529815,-0.412507570515511
TSP25_Prostate_NA_10X_1_1_AATTCCTCAGGTTCGC,-3.64098442114307,9.24629184313245,1.88059145402726,1.95262536955897,-2.13689949595528,6.00729052323862,11.801461417172,-0.239066397162466,0.0670362574610897,0.875734878119407,2.7705146934831,1.78191809867294,-0.265136990359944,0.156743218282242,0.455968281808618,0.315958504494388,0.342229180005317,-1.95017429149027,-0.357923069180747,-0.510664325911816,-0.927247769728906,-1.00535542355586,0.651838068591095,0.167571617772461,-0.860047168975912,0.79514464334675,-0.350659482214547,0.740766373228379,0.983826512907728,-0.981558894117605,1.47949454230823,-0.243360254238501,0.0434254672344897,0.0426351881179175,-0.403278008056208,-0.413727224690331,-0.714836940012582,-0.443209682571321,1.08085441255702,1.47904195109519,-0.34356178734543,-1.21059099092221,0.123398771834748,0.257538159426695,-0.0954527610822214,-0.57898469889079,1.18939585379391,0.434952842942307,0.102448090496838,-0.344359402879826
TSP25_Prostate_NA_10X_1_1_AATTCCTGTCGTCGGT,-3.48780346936354,7.20902474956123,1.71830267078305,0.368017512001578,-4.46726179819139,8.46708301477881,-4.07437751008007,0.487521491565559,-0.547363173071149,-0.681824805994144,-1.32648692320091,-0.269595277608465,0.600390154939055,0.178494623793613,-0.934922640578391,0.0208779621715763,0.497633383818264,1.4083016795423,-0.173348322653181,0.806073760038253,0.100086170833302,-0.641159905681934,-0.0300337533482095,-0.64086266529203,-2.74530791253995,3.43379738696503,-0.00586250347770531,3.37049127700979,-0.532477384491951,0.918210554624957,-1.23220933473844,-0.405522504342723,-0.392861342521081,-0.413721466127868,0.860459196409653,0.0996593515750006,0.0424508356049296,0.41658714295923,-0.366934887601556,-0.215268970703376,0.993546181012335,0.411558816425826,-0.293327608525971,0.769196681808207,0.695341875784577,-0.722929085340575,-0.629420450011512,0.0547049088562151,2.6315247805244,-1.24240812289808
TSP25_Prostate_NA_10X_1_1_AATTCCTTCACGGACC,-4.31324717532411,10.0872481748332,2.42824609876615,2.52153180167746,-1.19856875560943,4.28899321601039,8.93765946516428,-0.015793401540055,-0.34864954867272,0.413217157501652,1.15320992666009,0.902082909096718,0.681171548027745,-0.767412020954618,-1.38407174030892,-1.00319892913224,-1.4892261002879,-2.55258642875126,-0.336761881170572,-0.380114509690563,0.249256406941089,0.823955336432687,-0.493056249908167,0.491634186680919,-1.12384194350002,0.0438077868104044,1.25006898009001,-0.31556619975592,1.04854167763698,0.565713901627143,0.619991073520251,0.16658350210585,-0.09831507591206,-0.889183003551512,-3.77112574593307,-0.888470516490756,3.04993520909892,-3.69283394631619,-1.66600875270069,-0.16057410722576,-1.08509902142263,2.0014462411265,-0.522011527729611,0.95643053208665,-0.345900145516602,2.69997469088334,-1.55893078734559,-0.25370742743843,-0.234841462946576,3.15385525546013
TSP25_Prostate_NA_10X_1_1_AATTCCTTCGGTCATA,19.0893448443425,-2.89235152403812,-0.838847956124019,2.02391867523162,-0.408053394896462,-0.243537404746056,0.501306737329601,-9.83352203505317,-2.89123239361275,1.4195952709561,-2.40054327799266,2.17701325131113,-0.479245471966605,-1.74578792751802,0.700488427046825,-1.11196815558722,0.627419202345074,0.560810845330126,-2.57468018916572,-2.47810120319839,-4.87992714899784,-1.58859228329875,-7.19347603857688,-0.0346501668714637,-1.10993244858662,-2.37578404069082,3.45914406586392,1.16923021177133,0.999048477976287,-0.455906262171375,-1.44477588158964,-2.04401246578645,-0.153181841933711,-0.801712322140546,-1.03205922456581,1.13146686571073,-2.90183651408049,-1.46246966469816,-0.554373067401973,-1.13441738872591,-0.394609710814907,1.21193069587575,1.9787268940058,-0.0344794431983886,-0.00930673944693108,-0.298144079883446,-1.90981892924093,0.773432477572249,0.546557435667175,0.172625489666848
TSP25_Prostate_NA_10X_1_1_ACAAAGATCGCAGTTA,26.5163372934789,-6.63114263530655,1.23194218519557,12.5572628363188,0.56482626078305,-0.948400263206375,0.312086284379304,3.27180407918212,2.82042672813952,-7.95300428222918,-2.61517974784158,4.68534916885768,0.717447306037864,-2.67403097835413,-4.22751788653308,5.66230708166734,0.565286902814039,-3.35772786478351,5.44618943238203,5.29712810345494,4.1700852783247,0.746526288769247,0.217289077094555,3.60380318121132,3.45361910381646,2.30232017692632,-7.76480846757882,1.93099192182001,-4.34250246180943,0.61677102912015,4.51996369733374,0.45646822924538,0.321481000417334,-0.0216225771525145,1.27996288794805,-2.21314049762201,-0.0965747446888622,1.85550200584107,1.29082335476033,-1.08576018351,-1.56834070625381,3.06106764800802,-0.276645014808055,0.904600305865393,0.72254688911991,-0.390412202538421,-0.422270378806626,-3.04596824612751,1.51879974724023,0.893646975655202
TSP25_Prostate_NA_10X_1_1_ACAAGCTGTGGAATGC,-2.81010065459868,7.78733237480113,0.996222974322766,2.41903495836647,-2.1618086934698,4.35546638789987,-6.28413115561079,-0.628834298404324,-0.413984891567584,1.75874217033609,7.44409149354506,5.17176626178347,1.92713634938175,-2.21735741681547,-2.26509465221624,1.43378034680558,-10.3419064757602,11.7827623930485,2.65735451656615,-0.0667000496161431,0.838923149827539,-0.590329995589769,0.751359536386194,2.27538860155062,0.967283545020948,-1.60944534455047,0.789443661245342,-2.03130678949635,-0.031838013976028,-1.10404284939144,2.63187521150765,-0.0628000403213176,1.0976376990231,-0.122704076486994,-0.94876749104824,-1.09411018569818,0.216565815014731,-0.610849952996955,-0.614740097341935,-0.31006338871071,-1.16760498967281,0.510158075051739,-0.123146197351299,-0.149176028881393,-0.363886212725946,0.795339833715446,-1.15431745032234,-0.885712128906092,-0.995237694793431,0.513068889601471
TSP25_Prostate_NA_10X_1_1_ACACAGTGTCTACATG,-11.5778498685277,-22.631837608017,17.0662923737526,-2.49922919737512,13.1454061394984,3.85530304955327,0.85526651880435,8.06390355391756,-22.2227802100913,-5.46284507453287,0.367072156903057,0.602521362516989,0.420820699769423,-0.922309412395549,-1.93840385596417,-1.43237886683248,-0.203597162185352,0.693634692030772,1.90630718640081,-0.557971976905579,3.18546789769726,0.426504668398991,-2.36920635009792,-1.91582187537767,-1.62951715665235,1.12953199995594,-0.977134982521982,0.734844964991391,1.97495235894551,2.02502022816746,3.82903755938933,-1.02878707880493,1.84972105946349,-0.897163301768069,3.77876551558946,-0.72743959425086,-0.61968394451932,1.70970855116297,0.483631071434289,-4.69838226229282,0.519630900538477,1.26051393411124,2.73059466290103,-0.341964212452093,-4.85627033311282,2.73803371679232,-2.0346636144474,7.6656151959997,4.18802951453188,2.00631112478696
TSP25_Prostate_NA_10X_1_1_ACACCAAGTTATCTTC,25.0469138969494,-4.70772361634878,-0.494657107725652,8.38798777199004,-0.597758192897983,0.211274096953149,0.537539681667354,-5.86340755146105,-0.812681678283286,-3.58249911652857,-1.81420401365196,3.72661362266328,-1.7123607578107,-4.72978577288851,-2.52386784667818,4.5779092054739,1.46617577590984,-0.901451823166723,1.14640216366485,1.79499816264029,-2.69429999431806,-3.09129264922713,-8.66681629911256,2.36626313492496,2.11107007784735,0.234241212199302,-3.45547021107012,0.616007389471447,-1.98859928742772,0.592958072125602,0.590593541327646,0.824295083913564,-0.942669369400185,-1.12242134928898,1.76358203757551,-1.18541868225477,3.3113919241828,-0.238644613230207,0.299212309451132,-0.417013322496532,-0.139652087677875,0.0256289061846703,-0.170231168743398,-1.68344269109772,0.322262404075998,0.935035338729235,2.1853219715214,0.586001066188454,0.373156895244883,0.454276057353138
TSP25_Prostate_NA_10X_1_1_ACACTGACAAGGATGC,-3.4097869298501,7.96087690472024,1.53055363138711,1.12769579447517,-4.49525229221063,9.26733730062877,-7.96199227780531,0.277300454157819,-0.443371958844718,-0.693483928962394,-0.747765759916302,-2.70756762153943,-0.916942803303079,0.782344790112307,-0.822572344227075,0.69265043661005,2.03685883070891,-0.835890815875744,-0.626686994149037,0.69110710845799,0.209182662280351,0.253031599136327,-0.560380275453928,-0.235214586631339,-0.852165160662127,1.01505300547568,0.715890431256683,0.025088222312997,-0.950556284819319,-0.0837370806384213,-0.887790469611349,0.15529128446671,0.0750598438289548,0.779407971257688,-0.448556834643454,-0.355661097392791,-0.109788974821056,0.535485007778674,-0.174270365246555,-0.59179012877076,0.724301325949221,0.509869620935778,0.790174813367665,0.0753693240682352,-0.428797676250617,0.394291788526344,-0.256808506723871,0.499130096356759,-0.706831084495948,0.0298451509755188
TSP25_Prostate_NA_10X_1_1_ACACTGATCAGTGCGC,10.775659874017,2.01947368870612,-3.28714084038166,-25.5346650959762,2.39451526302372,-4.14175310003187,0.109879042316571,15.9176944718744,4.74321820205986,3.04126043428653,-4.07047563342361,6.85058945049999,1.50757259134771,-0.122304156339908,2.13477874323329,-0.525679977822853,3.05968591861515,-0.104500837169851,5.18179909544433,2.69410790847612,1.15589377258793,-3.05104637911592,-5.25925385712228,0.786565927427662,-1.95699695540986,-0.450024289717778,7.60096189619106,-2.4205794290297,-3.26386830512198,3.06123414253042,0.238118404009646,1.89964272611683,-0.101636728387791,0.116574834501601,0.484505337447722,0.451797129368011,-0.417100589464351,1.31752188117452,-2.0727031201175,1.21183317698459,1.04645272940819,2.30254702459356,-1.26873927214045,0.0060171082415049,0.246999001468573,0.375748177496747,-0.132931483296021,-0.287425416953665,1.51010558186307,0.0832266158333528
TSP25_Prostate_NA_10X_1_1_ACAGAAACATGACTGT,-4.89260554651731,12.3892451632512,5.71907297099641,7.92453250890949,10.5553570944328,-16.8272402412291,-8.12471064588477,-2.35295614767927,-1.79004786324727,9.03495062712821,14.4343050553021,-3.66479786367201,-0.0468064621932929,4.38855628554417,0.195280870676467,-4.32085150216872,3.88625026729489,-5.5497084694459,7.03796287115753,0.936724342846697,3.96659635521172,2.21708855717426,-4.74521554314789,-3.03868657812777,-2.34672417561048,-0.777302674179186,-0.219206517264166,1.75807206045053,-0.350941242915655,0.544911937310033,-0.33136159291795,2.30095525175192,1.36661544076395,4.30142705841658,-0.985610579628026,-3.17441561224847,-0.0416556554801122,-0.976548796612646,-3.06628184314226,-0.912483870655152,1.19919265946852,-2.80819229771804,0.899537287703701,2.10905123521514,4.64444083763428,-3.25835831897616,0.389071006429471,0.178011203630214,-1.41406021362373,-0.214621741306958
TSP25_Prostate_NA_10X_1_1_ACAGAAAGTCACCCTT,-9.84779592888803,-6.58689961957929,-21.9021801419466,4.49488861350677,2.1598939081624,-0.239599124087142,0.407614626510799,0.444562246587922,0.308768260274744,-0.68216409085254,0.438549359292091,0.153734200041859,0.936885824906375,-5.32896453934285,-2.69668615946574,-3.60655699311905,0.983559082525012,0.759054887211816,-1.36517543297938,-0.217952875626269,-0.961306454958409,-1.32002133549197,0.900630150527992,-1.36294481140193,-1.1947982223377,-1.54791120286994,-0.0420727092577281,-0.888267765139357,-0.00507993926898565,0.404113016173462,-0.829007396319351,0.96755798904038,-0.958758745852951,-0.121123206604464,1.13988289363216,0.221146362849515,0.0447991485300213,-1.15130264681041,0.558796229973847,0.415280101159839,2.2941279555069,1.38811296963394,-2.98193974360551,-0.9132495562174,3.82194006850888,0.000204587628695828,-0.544182976651603,1.56701857966067,0.602812647073368,0.186662298016129
TSP25_Prostate_NA_10X_1_1_ACAGCCGAGCGGTATG,-9.31048482961726,-18.0333123843238,12.8306436073673,-1.68862962678817,5.78014932316764,3.54725209190659,-0.219493091451525,-1.94667335652461,6.90009455930063,-0.63929351906643,0.19699138080202,2.23851028956978,0.615822007353354,-2.64613478711479,1.06318555035798,0.67994978620384,0.00536746799247323,-0.268839759729527,-1.16176645985274,-0.898708779264347,2.20335044873272,-1.38514580134636,1.05796237548872,-0.696764468387286,2.26762872829305,-0.555385199258038,0.068496427419165,2.06247770847429,-0.144429898014262,-3.77197503948554,-1.9090109524459,2.92374427009749,-9.29572072961893,0.401095945363134,-6.28766873503173,-2.05633461577576,-1.52806142089961,4.5360307950944,-2.49308220583058,-3.59917579533499,-1.28345649062932,-1.33054901481398,0.287981789223454,0.380043946352457,-2.04597787622438,-2.38394099812978,0.406454172438947,-1.1180831161855,-2.00889252607613,-1.15294129332236
TSP25_Prostate_NA_10X_1_1_ACAGCCGAGCTGCCTG,7.61188227697496,3.16789986172121,-2.92227620350024,-17.2175700713378,1.10230139968694,-1.04410737720561,-0.813558894965274,10.4910559552148,2.83147615275729,4.51534680476572,-2.16673632052104,3.57669742273859,-0.166354220741919,-0.87130803837636,0.767525461362857,0.347904128433551,0.287202087475298,-0.0444789974991331,-1.12085958489128,1.78406815006809,1.03315593577247,-0.583900088484656,-1.64315023035167,0.772802045630808,-0.21603829616516,0.213452219580044,0.581357954887235,-0.130015196400077,-0.96208767844234,0.822546231516673,0.250559829584534,1.75044590339258,-0.412812780117368,0.739512119629461,-1.70427765885855,2.22706060940151,-1.62630961825692,-2.159915253129,0.438155076310931,-0.223793595560062,1.63145582970492,-3.22278340562259,-0.0498191324742978,0.247237269995021,-0.377401189445523,-1.45936587003999,-1.12121351500886,0.627899003741297,2.31545817767677,4.32598493834191
TSP25_Prostate_NA_10X_1_1_ACAGGGAGTTAGAAAC,-3.8745632392836,7.33771065224564,0.641804316637352,0.942888881323043,-4.57807061832938,8.44823926745338,-5.53586774746103,0.212097958805008,-0.0911595304861141,-0.672960094375814,-1.34382200675693,-0.0987611272543348,-0.191850866214334,-0.501551624075631,0.132198926768589,-0.0958604809423931,-0.526385582903941,0.324149550338939,-0.512812329887264,0.627185883766174,0.307947269852511,-0.380326347852416,-0.0211348622371065,-0.548981904381668,-3.18111448145596,2.69730491298465,0.517964004972281,1.60139410623278,0.0180057972922906,0.305516288608817,-0.433860086927884,-0.366191048228196,-0.968177562460267,0.233641843810414,-0.585278317684797,0.229418956660526,0.785923914722841,-0.0700327165456754,0.523943592723728,-0.038311262430356,-0.289881488884451,-0.152129122297736,-0.339330126544916,1.04693858043124,-0.486059802496819,0.968903164539863,-0.859158912484031,-1.15452936718171,-0.00832773256598214,-0.0209205798189633
TSP25_Prostate_NA_10X_1_1_ACATCGACAGGTAGTG,-2.51777337095359,7.50942173965733,1.15384396240268,0.641416371152503,-5.49346567497226,10.6132675449338,-6.38701320591884,-0.260472355304351,-0.277579669702831,-0.567237999328597,-1.92129622789174,-2.25344471099716,-0.354163566914168,-0.114131607251229,1.08940571996758,-0.0788980228040286,1.83143131994348,-1.71806446770022,-1.38882409768883,0.516102846212997,0.379503757085506,-0.570636306426767,0.771946277220589,1.18907906053855,1.19357636485435,-2.62685972862809,0.0421526227213188,-2.15619678062261,0.251948376023448,0.635192306908099,0.210031877142444,0.281509292783299,-0.665042344169721,-1.331640109404,1.0536627054991,-0.303380642008526,-0.26926827451582,-0.274463536408541,-0.384293997938912,0.63871327314001,1.18027392663775,0.445125273950888,-0.128220569156325,0.230452447249957,1.00969638475535,-0.416548519345117,0.90102712269442,-0.293501696854495,1.04727747870752,-0.0776373230093273
TSP25_Prostate_NA_10X_1_1_ACATCGACATCTCGTC,23.3046060767017,-3.39365245037377,-0.783068048675487,1.47438424630321,0.347372879180575,-1.06445311958094,0.234613659304958,1.49079022881313,0.645068130513769,-0.652436574606692,-1.44282599947975,3.65098470210404,1.26385260202445,2.20293469598838,3.44943618536064,-6.344848704761,0.432456715380959,1.26606726868902,-1.96578094317571,0.326156774019074,1.3453987922619,-0.00291157422352975,-0.664950347402655,0.295971059049854,1.60787808391788,1.51426338856293,-1.47466905004536,-0.625829693622278,0.913109617324197,0.225510929950766,-2.11693477759019,0.964271300134699,-0.345730872338773,0.256890852265106,1.74916833850691,-1.86406960234882,0.422116669085838,-3.19186884945732,-0.599199940142154,-2.24277962979576,-0.14460319835805,-0.508458893994561,-1.30743297338004,-0.674311155115517,-0.89405377046748,-0.830287153601243,-0.814597402120159,1.21835334916226,-0.85001941382752,0.265051770434036
TSP25_Prostate_NA_10X_1_1_ACATCGATCACCTTGC,31.8391522096346,-7.41899780849963,0.861396676617572,16.9935342552311,0.13300390358249,0.265542699830183,1.63751760913812,3.74720600046585,1.83796846574796,-2.02374626277481,0.959398112979414,0.101714668513695,-0.717281890413267,-1.84478781106476,-0.31234217198748,0.876728819482714,1.08196181504394,-0.171613263935464,0.217326126475503,0.178194729201686,-1.08150641087294,-0.237160567412292,-1.10214607648121,1.15898955383235,0.275966890437343,-1.3037079032153,0.169675139426664,0.0598077341730231,0.373957425701147,0.107964871076771,-1.21839265505695,0.107874706458995,0.713663612358242,-0.278792751555997,-1.36137317477331,5.01114712014088,2.54463565483112,0.879717276624306,-1.77471018466919,0.473989991966312,2.15790523168508,-2.54504688173719,3.03943893210328,-0.617066570552705,0.421466615111699,1.64875566464204,-1.49075061772884,1.5221792368286,-0.57894830770359,-3.22469654327818
TSP25_Prostate_NA_10X_1_1_ACATGCAAGCTTGTGT,15.3424847445099,0.126833696422898,-0.724787622081256,-3.42568478254927,-0.314218107033376,0.361558206916284,-0.254560545351718,-7.10495316294876,0.58711292112875,-11.3413587621969,-1.556398491285,9.95273853444947,2.13313167901897,1.08695430333571,2.47893063686654,-4.64986614202674,2.00141964131048,1.44470134508962,0.859402175647067,1.68581787756701,-4.10823831731085,-4.13762697242427,-8.12199758964195,3.55502054865874,3.36184665958833,-0.31010535718272,-4.86390796462851,2.09621264696669,-0.182972450799861,0.779843453783106,-2.22083870103289,0.449044564743317,-2.97828011733843,-0.955935992506258,0.730658967743416,-2.3952585198405,-0.773685763582363,-4.35843996216634,1.26254995759171,-1.09767047460078,-2.90815262476383,-0.635380085222918,2.89890068897475,0.138983935366528,2.1722561135646,1.21416588727531,-2.73767457194978,3.14214564288008,0.825806046959193,0.476620554966197
TSP25_Prostate_NA_10X_1_1_ACATGCAGTGTCCCTT,-8.35211625991921,14.0179409784534,6.94187377973581,5.91758228120132,6.923540056945,-9.85019850987193,2.24606176995396,1.83031810350032,-1.8468619818034,-3.70238507719439,-11.5805048092841,-3.81373098271538,-0.544920059744887,2.70557298170898,-6.34487173684961,-4.08321545446942,-8.24944385131811,-1.10616288097998,6.78533377972654,-1.8455300995121,0.893907147833698,9.18051538142385,-4.37616999143319,-4.57578819710101,0.057180136254134,0.465745653193405,0.450279038682598,-0.18189834012317,0.67123879113492,0.536618853258377,2.71623509434637,-1.11756304422602,-0.0141417208166771,-11.3108942228632,-0.515158745011064,-0.0406935412965882,-2.79805469009983,-1.79529466550032,1.30238798532626,-1.06582021477929,1.90431436350184,-1.66351124876368,0.217129369218183,-0.260499980064999,0.195058527575313,-0.169174330042103,-1.84657423114654,-0.540937424993809,-2.39666204858854,-0.221419534217465
TSP25_Prostate_NA_10X_1_1_ACATGCATCAAGTGTC,-3.91220066605367,9.01768591093348,1.4083740777485,1.37520785204657,-5.35413425108982,10.998786282311,-9.08595198611035,0.172432076432036,-0.199701064481608,-0.832275253595538,-1.15816048307017,-2.37490565273749,-0.809414142346744,-0.587348585148147,0.687994930465854,0.0602088277787267,2.14708634478956,-1.7183156742294,0.658157495342441,-0.00203982351803285,0.818019824614775,0.147619713333014,0.0223681671231835,-0.0345567148710937,0.124404261175814,0.224651312581028,0.545894029704998,-0.192674843429385,0.210636642852492,0.0242004129865423,0.539765429878374,-0.0244583596824695,0.319401239161002,1.31703473408814,0.485950215281959,-0.34618120304245,-0.322050815924373,0.629087329556262,0.183605044232747,-0.0200633938582929,-0.259360476485431,0.320957088005041,-0.845219780536355,-1.98401174638668,-0.371622585178037,-0.334925141917312,-0.629913155050311,-0.627066218371835,-0.37571448741736,0.342471791746943
TSP25_Prostate_NA_10X_1_1_ACATTTCTCCGTGGTG,-8.75557228021675,17.0303070674587,7.03013201537399,7.90016988240552,8.66001333905733,-11.1688698789188,2.91900575298588,-0.216376673872348,-1.01250969846424,0.200717875525698,-6.70291907248004,-7.80708539606912,-0.977665145524633,-1.34889891263993,3.92944685031024,0.442307298091637,5.90412447866351,10.5059422377798,4.1625456766684,0.00115843836920701,1.04652228022586,5.43487293818046,-2.76753157324124,-2.08322479219864,0.513635126662602,-0.172106301091616,-0.623849878053429,0.526008686834039,-0.537071160653739,2.43917732013087,-1.10663473250684,0.482980315391652,-1.25843744012974,-0.91830495209978,-2.44340918673133,-0.104469543195285,1.62156679064946,-2.47592397793568,-1.14289076989184,-0.143806672657549,0.179051881281452,1.10693022058006,-1.40543799842505,-0.60516202263383,-0.664781228865788,-1.34925324409847,-1.75941866000574,-0.5414895013029,0.73022272642051,-2.1564775833004
TSP25_Prostate_NA_10X_1_1_ACCAAACGTCGAGCAA,-11.4503921057614,-8.60738505694689,-24.5778861691846,5.01780178612095,4.12805276857514,-0.17118431176587,0.601657214988462,-0.0357667201953256,-1.45129832105481,2.45938392636898,0.354118447530699,-1.53647521892618,-1.56471877530684,-3.85874280433379,-3.07368660437937,-4.27607813228666,-0.605938642939179,1.07059098295729,0.139805554104519,2.13116772942089,0.591301836818352,-2.98932314601355,0.983736905444476,0.0914368199945937,8.35292446241982,3.23496602608425,1.73347213880582,0.116565571606762,-0.756551662621822,1.46736204172828,-3.6488300863916,1.01119774302795,3.69434318591539,-2.18341992932432,-2.29848156598456,0.686593915409224,-0.361313520661894,0.776144819299013,2.69834003960256,0.104739107802745,-0.903522822143338,0.871070700508823,-0.0780967906397328,2.6572304595101,0.753902144978523,-4.33260246592488,1.12346498015292,-2.13309905058164,-1.0875191665858,-1.12538845285434
TSP25_Prostate_NA_10X_1_1_ACCAAACGTTGGACTT,-9.40194874208161,-8.66928202437927,-23.1645158565045,4.08021565479171,3.71950084836824,-0.969349162381291,0.649227081558882,-0.908490319283691,-0.770477585690975,3.21382787056704,2.96080189683296,-2.90749582165251,0.0652343160677007,-4.20263105289321,-1.9502649927061,-4.3280983782505,1.0341246022048,0.041591673909858,-0.840406965339357,0.298949464677019,-0.534245578325884,0.064777130769826,-0.0745434745790448,4.91581418333361,4.1186800504275,2.35258171967697,0.72040707745139,-1.31654057723003,-0.0502085136089565,2.33924039390037,-3.29212740271572,-1.6095959733484,0.47317509879209,-1.67521768777296,-3.03396216962254,-2.52534170536255,-2.36177427580253,1.05995127341193,3.15223118616923,3.19040765704962,0.363792260404231,-0.0554471773644872,-1.94735058281762,-0.318002956133324,2.17309924890325,-0.31741374764209,1.59381181093257,1.58681586267958,0.996480768607198,-0.0400548032708723
TSP25_Prostate_NA_10X_1_1_ACCAACAGTTAGAGTA,-3.25484628111496,7.39194799259879,1.00268793688006,0.617064786860735,-3.87479207387938,7.79489158300902,-6.09672939126745,0.171142711580666,-0.0875512779028291,0.0255527664443241,-0.797349747203034,-2.68004052987944,-0.056206378814868,0.025246615267557,0.310052958882365,-0.306525628158065,0.969290091050347,-0.188798682717109,1.31049823984448,-0.0897153489464079,-0.242210691106755,-0.511202911793643,-0.00906788833341281,-1.31787126013544,-2.75388663133387,3.13251707738759,0.218452963676307,2.78058323811619,0.112628449881768,-0.20983813160777,0.545179591701256,-0.847584169497227,0.792080750756299,0.220842032612481,-0.867765645994366,0.204657000693297,-0.271023386973329,0.0984444318080445,-0.617276915927961,-0.751831324223244,-0.939303759035663,-0.512847000386593,-0.614862566012387,-0.647308348715551,0.179511462590481,-0.0262004922488697,0.0926217222360874,1.07317642469442,0.906192118791806,1.41242914538624
TSP25_Prostate_NA_10X_1_1_ACCACAAGTCTCTCCA,-10.7686107427819,-6.38973052758489,-22.4027431538749,3.99162244194198,3.46307913680025,-1.36517927514409,0.688288070717635,1.76028979925974,-0.83800682605809,-1.71957673145368,-0.692733379791249,-0.0978370124965996,1.1423962281301,-3.2868255270485,-3.46003102014021,-3.89247373732872,1.74314999137056,1.65605235131682,1.10631380459232,0.453431234159666,-0.175414142302731,2.32806620204333,-1.28639354820423,-1.04757347727019,-3.30492016006475,1.89288807257943,-0.763306630925535,-0.771288852715577,2.5967330535602,-1.55400650264709,4.60273552574752,-2.56286013539086,-2.77254959967156,0.933377560273216,0.430926362036265,0.149445806553674,0.854519632568683,0.0821164831298987,4.27132014163605,1.12908232780846,3.74570200949562,1.77286107463532,-0.827660035586674,2.35061122779289,1.82784050201249,-1.93570206215338,-0.753284278353876,1.25450186868126,-1.61584632587111,-0.458748969617075
TSP25_Prostate_NA_10X_1_1_ACCATTTCACTTGGCG,-1.9149663730171,6.72706856666526,0.729207431099535,0.832497897762481,-3.95229455918346,8.32739762761017,-4.40064321794303,0.461876531314714,-0.277383954979238,-0.771825292770583,-2.04974970747528,-1.16786031805748,-0.1766687292402,-0.0896368099035205,-0.706172832773446,-0.295851467001534,-0.0138237016809501,0.707525142810541,-0.667542669405052,-0.0611615377940963,-0.607008393721838,-0.507965213306975,-1.0195263844874,-1.75124829763629,-4.19708459850812,4.87948565956634,-0.485254665650074,4.11432722365093,-1.74053151712508,0.814482836059794,-0.948838821659753,0.00236072258280269,0.1706283901193,-1.27951385020166,1.21992073522427,0.404570873145062,-1.31166762414142,-0.549246461904248,-0.910629858850031,-0.748547690509987,1.20404969320124,-0.983855161466198,-0.364409642788931,1.65590534729672,0.293915607361589,-2.01230308205836,-0.338267473754857,-0.351016887490655,3.55854274362483,-2.77626831976015
TSP25_Prostate_NA_10X_1_1_ACCATTTCAGGCGTTC,-3.75599224131594,11.062857372671,2.86519582839893,1.84870860474243,-0.434351032239948,3.85842491183718,16.0430144289647,-0.14188426017298,-0.781787647192976,0.776839803411683,1.60542322345263,-0.0732166014603334,-0.619589509286031,0.472061668542699,-0.148109252507753,-0.872426603311315,0.255788779678396,-2.08490061875943,1.78386028177519,1.16475077518318,1.20237419176781,1.14941368144288,0.223343754843353,-0.801478612687688,0.0493283694175439,-0.968209742092046,0.77600680862332,0.714248397117792,1.41939985585681,-0.534846848464371,-0.255901045486562,0.653964755235625,0.261473858884191,0.606560285030271,-4.41657949870694,-0.563523806701996,3.11150326762611,-2.85101423974004,-0.777052465510039,2.23001758991046,-0.95214914710877,2.71036778771271,-1.20948985793187,0.291183978533491,-0.616918892373732,2.05955155620043,-1.22162511330306,-0.71544879525808,0.526702154263214,2.61347517515399
TSP25_Prostate_NA_10X_1_1_ACCCAAAGTGTGCCTG,-10.0773711023513,-6.12815420556715,-21.610856497519,2.87096754622351,2.53587420503501,0.145474622908374,0.27547537631727,1.5785065017674,1.02926560094332,-1.29028918852418,-0.304136878102186,0.625180130528214,2.40850885725932,-4.99649796527777,-2.96467525286536,-2.88179715160742,0.660591947803214,-0.0219663776136059,-1.12765063107109,1.0348518736741,-0.865944047261268,-0.078476772787504,1.45299201181286,-0.970338476140079,-1.2228544350279,-1.75968443867315,-0.293647912412259,-0.420864915090105,-0.12195748288902,0.750472288129165,-1.5468368128474,0.268123503350836,-1.96916930346883,-0.540185814458,1.06356548042059,1.8345881231353,0.0737951714587293,-0.161228227290194,-2.30066616695049,-0.848931842694832,-0.218345942583805,0.567521273455506,0.199917863137882,-0.293351142974978,0.374697742770596,1.43005119291542,-0.430165774991175,0.809888926412551,-0.0802212738367264,1.5962734910203
TSP25_Prostate_NA_10X_1_1_ACCCTCATCCCTCGAT,-3.6459499209465,9.31485471345579,1.81828830894091,1.15121702996716,-2.07644199721869,5.51375052607259,12.126848372774,-0.408388472958349,0.668928524250289,1.11790760430625,2.88572704181457,1.41523717263085,0.223675453822366,-0.0897570003304238,0.477091792638174,-0.575108408125112,1.26187005714287,-1.36201412347477,-0.500831245030256,0.231219176730142,1.13526599145029,-1.48054578614215,0.858119355451774,0.720650133489547,0.218716209281423,-0.118185609581024,-0.805971131522413,0.301583616676166,0.681360168924605,-0.090208911233017,0.036196639332941,0.353401664890338,0.321601404831393,1.47818231730105,0.989847107819928,1.15096215025215,-1.48062871165287,-0.344373063391771,1.36065448224403,-0.104778319582709,0.800127510445449,-1.01661125488927,0.978819468025397,-0.0729703921641835,-0.618656442512004,0.0809939904951137,-0.111700212848457,-0.228422426263153,0.0834952359519519,-0.195300414761529
TSP25_Prostate_NA_10X_1_1_ACCCTCATCCTATGGA,-10.2617023592959,-7.09292518223789,-21.8596862843968,4.51107134188944,1.4021085416367,0.159879914891536,0.697215984369868,0.0915257794392225,0.767355253140586,-1.96559687221358,-0.0515145438468598,1.28324737827861,0.729083096966882,-3.81750569915362,-2.05371623145925,-2.33145392875006,1.20190202188654,0.143472260546292,-0.681029810475008,0.618583295070456,-1.20701911157004,-1.0342886493593,0.776024554652519,-2.97932303646479,-1.51237360690168,-2.32028782421943,-0.637012945231069,0.35260207423453,-1.31464960390181,-1.00068006675234,0.711701469683109,0.235837387561621,-1.06900597168308,-0.441693941357963,0.935099180531636,0.293381275100146,-0.490090106608547,-0.0972574852585276,-2.00203783249199,4.68728634511545,-4.0609786628617,-2.34827602239619,-1.85346338734474,-1.31632357063414,1.18058477222124,-0.553976738772996,-0.0967360059369624,-0.611636048138197,-0.592288437777661,0.530333674535693
TSP25_Prostate_NA_10X_1_1_ACCGTTCCAATTTCCT,25.151791498879,-6.31873924349142,0.00120959651501891,11.5107650967544,0.641312392150829,-0.119892355510289,0.989899432197853,-3.79228849325272,-2.37585783789342,4.5406884275338,-2.46922419424151,-0.123287769188544,-2.46749050826605,-6.85207387713789,-5.43362295361815,9.49545491294263,0.938458019573144,-1.4577283850886,1.65525877015321,0.0660593139647705,-1.4457211674813,-1.62272546716413,-3.83754882347921,-0.375114564474741,-1.07626550863082,0.0576911891260462,1.90053149622069,-1.23120459113124,1.36862812462762,-1.15703426439384,-0.640892412080409,-1.51776714747504,0.41619804063708,-1.22934232128411,0.622105877082371,-0.455008951028852,2.78858867992157,1.8916859908288,-0.00904114919656741,0.723133695670741,2.80754986932458,-1.09920388326141,0.699633435871819,-0.18129927491025,-1.34798389321386,-2.64828511455664,-0.678238742059829,-3.16094157074691,0.158237659145426,0.840243176481847
TSP25_Prostate_NA_10X_1_1_ACCTGAAGTGTGGACA,-2.94360560742366,8.46050255772797,1.34664588326803,0.349043242278782,-4.26634145326835,8.45366826102793,-6.67758645049051,0.528894450680904,0.0373692778853996,-0.605393842366113,-0.747001414506608,0.392004576975594,-0.271405525718877,-0.584039982413345,0.229577147800362,0.0328027656571722,0.00336186221729814,-0.305678944713234,-0.441035453356182,-0.0575927329577958,-0.651342511639872,-0.357350308455218,-0.0936607235343554,-0.0770133135620937,-2.26350379147822,3.09744364056989,0.698585977994845,1.87851494216962,-0.323632942864735,-0.0025278820463471,-0.297884092410868,-0.170214090699942,-0.474129977547681,0.979199036977643,-1.32524055792593,0.667147169787338,0.446551163249338,0.00234117955893475,0.493391416673267,0.0450706815919347,0.225038910988092,0.272416014327382,0.226023031404993,-0.0851966864347432,-0.650999271916969,1.90965625255325,-0.575396945970349,-0.508870536333688,-1.28418964907136,2.80822985045968
TSP25_Prostate_NA_10X_1_1_ACCTGAATCCAGCACG,-3.41604403274744,7.42309456359113,0.366695198842984,0.566375951583825,-4.31709454409341,9.58189909916856,-6.51406646006149,0.131642663343102,-0.652492237918998,-0.726521061809696,-2.45340895388759,-1.70460983848548,-1.10262684555692,0.0748608150231042,0.0450642524593803,-0.256011330622063,0.765658408690573,-0.630458749644277,-0.619316406041991,0.519541838142097,0.869907695868247,-0.0481227914744876,-0.568877121752767,-1.24485410765645,-0.642536100961925,1.19049144897642,0.561832192245227,1.23985233892084,0.250974765723685,-0.328944945458845,-0.505504479937473,-0.143872626785739,0.445482877498044,0.133596797872218,-0.86725210258762,0.102162867912557,0.113852529731003,0.477620805068496,0.681731996388607,0.67205704467328,-0.880644289912131,-0.0554588609866606,-0.356315917722324,0.78038720529049,0.255048256263272,0.508616422003034,0.182386930633268,0.243498115078042,-0.1808206396334,-0.941062943010525
TSP25_Prostate_NA_10X_1_1_ACCTGTCCATGATCTG,-2.52088097885257,7.6163535254496,0.720371481425787,2.10463406614851,-2.21605565851744,3.65010298673331,-5.14453998903795,-1.09891051929126,-0.305505491967119,2.79376057594551,8.11926794009948,4.79299903519789,1.66749252216206,-1.49607721927513,-2.25007569959065,2.21227319968781,-10.9012596986406,13.0132679363993,3.33939393528842,0.215475269033237,0.613801945788257,-1.05768728366168,-0.24583958460746,1.92892632996563,1.52711467666402,-1.81727875589532,1.44661459426303,-2.76137571878488,1.2949328328916,-0.690393320088406,3.38650876179323,0.208398471092111,2.12455525283033,1.4184395096334,-0.772842436438552,-0.453258483701092,1.67089374133039,-1.01776699888711,-1.16477920865142,-0.450310191532033,0.323227240527719,-0.313780731735397,-0.38428260597375,0.177822494541833,1.0360774615579,-0.618211713964216,-0.87753567880618,-0.00387138312958204,-2.29304868118047,-0.304900021445145
TSP25_Prostate_NA_10X_1_1_ACGATGTAGCACTCCG,-3.82956181342937,7.36905974528038,1.06149502426903,0.429359153861561,-5.2141825384943,8.10039989310692,-5.29443817264288,0.298684096574541,-0.19994603037297,-0.457720135963264,-1.74233315035811,-2.04316308518982,-0.310263406180551,-0.00452507195690661,-0.461646415027259,-1.46505744636513,0.933667035128556,-0.406722116257333,0.63670937887914,0.31262587357988,0.685270571861783,0.651024253719344,-0.512469467885889,-0.240173059201588,-1.9883325711723,1.7644475222073,-0.0874203159090427,1.76873420161729,-0.331406102060017,-0.119881418155411,-0.36097167011315,-0.516664260914457,1.16739109313062,0.265595210654029,-0.664663028647203,-0.670037217344231,0.653558175840656,0.548638186259812,0.436922909058703,0.48800459069585,-1.1816521192849,0.608821607776383,0.412866725434517,0.859639690677664,-0.355538607749681,-0.678761452114651,-1.01881828774372,0.966675919489763,-1.96345024413751,0.36524290791554
TSP25_Prostate_NA_10X_1_1_ACGATGTTCGAAATCC,5.77346461913639,1.62217198357811,-1.76813558432384,-12.4366747698287,0.264383734707776,0.838744671832406,0.732305987842709,5.16179624460169,0.261339294923175,9.29480649863114,-4.7042486318794,7.57804617645553,0.795798902448218,-0.297339726116817,1.18026097162744,-1.8259160989734,0.48522239681873,0.0768768141486983,-0.884219604475497,2.3559087139258,2.58295784378581,-0.640024752180872,0.740786436877207,-0.350373295795741,-0.593712432949951,0.905627518611673,-4.60531876649181,-1.16525654273353,0.31197963887011,-0.0837481201340652,-2.25237082346756,1.98771794810275,-0.0664448332633571,-0.51705374787899,-1.25312671874258,1.3419081370623,-1.79702620808929,-0.332832834258228,-0.937664946836387,0.494019853455422,-0.1646701844321,-0.370732298010973,0.713561478559519,2.28144562460611,-1.1522251093756,-0.67643398458362,-1.36306354563703,0.298507131697799,2.26124901585938,4.07563877074866
TSP25_Prostate_NA_10X_1_1_ACGGAAGAGGTAAACT,-11.3071500346877,-18.9570481343105,14.727025781334,-1.56637035352998,10.0726873583228,5.7688458684104,0.100156235706339,-4.60261948209939,18.1264571380819,-0.676033815663497,-1.69654126682361,2.66949420844938,0.187288954633141,-0.476504192967858,-1.37729126455709,-0.612467015801904,-0.57327242532738,0.60159683832974,-0.575850704267894,-1.95566129807696,2.50911577989537,0.323103021686447,-1.56121895658637,-4.29170884959591,-3.16145098645919,-0.768692824922259,-2.19272194207166,-1.62668303155136,2.05930046137824,7.23671447742451,2.30767180984818,-4.18075177271021,10.2798535664799,0.07078832341884,1.25299665563208,-1.63603905783646,0.370086182638368,-0.994744646946418,3.73592261935542,1.40452062915675,0.208286924906893,-0.632940954107976,1.76692826436598,2.98074964972582,-1.09107441723523,1.70551021014016,-1.36872442663016,-0.48705008377189,0.896408718224394,-0.171469831211794
TSP25_Prostate_NA_10X_1_1_ACGGAAGGTACAGAGC,-3.95410784414646,8.58311892119227,1.61968965703705,2.43138025864539,-1.42760078538469,3.33754135612777,-8.50176057082095,-0.301554635722916,-0.748115205909587,1.41215356660291,7.71809751154198,4.5642128390723,1.43913151294513,0.0790450668983506,-1.53225535350348,1.71682691614008,-9.74748281466914,11.3033852416784,3.20725615978668,0.0842847163755803,0.862316807218858,2.07346161725394,-2.04415963104385,1.55043770903785,-0.255306523527009,1.38422323667403,1.86072304267126,1.12080087196485,-0.196087715198356,-1.43460173171366,3.26302891200908,1.12625046183967,-0.178487957713249,3.31434034540479,-1.8421897366987,-1.21045868315167,0.650782446488128,0.286972422019012,-1.63877402336969,-0.640845713695087,-0.0874091127969146,-0.315949706219502,1.54930822480966,-3.10560202905311,1.95975533373219,-0.941102594759389,-0.447595962595919,-0.69120186027863,-1.42975098771892,-0.309823681702941
TSP25_Prostate_NA_10X_1_1_ACGGAAGTCTCTCTAA,12.1239653693715,1.28926889181465,-2.74957747832621,-19.2568298555234,1.90572264524666,-2.93220465325092,0.717814052752888,-7.76277465895719,-2.29856681542718,-2.58659386136152,0.208706467409394,-1.30661636641885,0.222258604683876,-1.33309513044138,-0.229199597556364,0.0372586968397477,-0.712987767268672,-0.16860244838066,-0.354581392429051,-0.176140358513138,2.96858077491504,3.07572514187697,4.44126974557298,-0.486763741249416,1.12363901155406,0.10298699993665,1.86197588399365,0.529941601648179,-1.69018432223855,2.09757820391888,0.0952766537700237,0.158824302983454,-1.05863097702933,-0.754350155925081,1.84652520476942,-3.04329289065643,4.73646378369001,-2.83897650204626,2.50849942494329,-0.396429062234225,1.33586877222726,-3.00962461355108,-0.45102430293114,-1.62293333973497,-1.74169830191219,-0.511288891168921,-0.271507685217957,0.450993688796087,-1.27745397359928,-2.21765141248652
TSP25_Prostate_NA_10X_1_1_ACGGGTCGTACCCAGC,-3.22872948469695,2.33582676796905,-4.48074565570685,0.475818902606549,-3.11808076472253,4.57325712519319,-0.15323371640591,0.398771468825418,0.120918926767915,-2.18986526541398,0.663146826393928,3.39726584022565,0.968839608731491,-1.52588223185014,-0.784676509778515,0.0818986286769738,-1.09180389868788,1.26091677826095,-2.13824658143583,0.924272324401995,-0.734011953610365,-2.32135247227584,1.35769230545725,-3.16794410958438,-2.64230120073398,-1.30820620178722,-0.945754411959739,0.0611320813833479,-0.136063399204814,-0.286779834306871,-0.754062529000447,0.230915725333999,-2.84332736031078,-1.05476256744759,2.16672716948266,1.68246083066556,0.243689185635906,-0.0434944287087866,-0.70145571304205,-0.454042545985675,1.00770576287564,0.283982397557733,-1.48933750066936,2.36687757712787,1.33073751000627,1.26805221729323,-0.0230417483819551,1.15895826752816,0.14227268388701,1.23207286498969
TSP25_Prostate_NA_10X_1_1_ACGGTCGAGCGCACAA,5.97046544690644,1.97207529800513,-0.754396358399967,-11.6244263735126,-0.399582057616087,0.0604856008099886,-0.513061447692327,3.06431175167397,0.0722977559669075,6.31385760920212,-5.48100563644086,10.7137074653344,2.37599817938409,0.643811388614604,1.78965846095078,-1.68676391240541,1.16714816741805,0.645773764608089,2.05541157853142,3.23203939513457,4.80014278002999,-0.466709025005624,3.19884364109909,-0.548257151391973,0.719547606263476,0.610926127954146,-2.97961297008634,0.465672248629595,4.80482750535023,-2.83909400241602,-6.17214288114717,-1.06211671694882,0.0836902391137406,-1.30502320546562,0.418224923498679,-2.09490492929534,1.96197921428704,-1.20109143557729,-0.0991767925468244,-0.0689185609739492,0.0995393948190232,-0.722880224169563,0.494885732585281,0.356234685402611,0.249775700967719,-0.6616719637667,-0.0664154589615965,0.689072335089801,0.613239988424857,1.915126369482
TSP25_Prostate_NA_10X_1_1_ACGTAACCAATGCAAA,6.67484994605654,4.46814722188025,-2.58066920361769,-19.501299264818,1.35856634451298,0.202690293108478,-0.990001414332841,13.4785338087853,2.9743844080409,6.42839729810292,-2.78712113390866,6.57321487151407,0.217212667062509,-1.54480359446995,2.23089601581504,0.429522405029881,2.326619437765,-1.73408964444472,6.90581627818036,-4.9402663555016,-9.0303477547914,-2.99842516206155,1.71085675714107,-0.40006365987224,1.61060956566477,1.47033140135676,6.02688528894177,-0.239037630902427,-3.47954861973944,3.97978444099738,1.95541566763365,0.380518429661203,-1.99115647576678,-1.30978067415143,1.87114102791016,-4.48478328463367,4.07512378562809,3.49801013645474,-0.80941956080072,2.22719250311285,0.773262134876814,1.83087244971062,0.205351822023564,2.60143324103377,2.39097170766235,5.75916128038571,1.25779436270669,1.52812861566556,-0.866988822350711,-1.2705796890118
TSP25_Prostate_NA_10X_1_1_ACGTACAGTACCGGAA,12.231558805167,-1.62673361186685,-1.78859726274795,-7.07366248456904,0.309957456025964,-0.753360677302524,0.261658296513078,-15.5253211683941,-5.30873341761616,2.14420516512516,-2.14869536802388,2.47604463971836,-1.34648682276888,-0.862586061471011,1.74265178785638,-1.2912023220077,0.22458005384896,-0.0193437651072601,-0.373114387358649,-2.0578157295419,-1.47860994177145,-1.90248184642753,-2.66157920662034,-0.741398068905897,-0.300277910004815,-2.03735901878272,4.72221200529711,2.4926820689646,-0.0271617518842848,0.734698680167393,0.106407329382848,-0.717862891044411,-0.438793669015823,-0.511273599043112,1.33091580044384,-1.16673793873625,-2.79334115483401,-0.47213729533552,1.42071355812504,-0.850418076193893,-5.81499722370034,3.2868530843973,0.470766172356521,0.792035867580584,1.14731754444544,-2.87668452795636,-0.384542504451095,1.89363058642519,-0.4869467009442,0.692598529963591
TSP25_Prostate_NA_10X_1_1_ACGTACAGTCGAGCAA,-3.09442713576137,7.1027252554115,0.20842970011309,0.150917150255172,-4.05669765007867,7.53958871653837,-5.89476533714709,0.361211673314291,-0.852377273873812,1.69530557166547,0.110280379822879,-1.72803773275124,-0.476229091844424,0.88104281815253,-0.642190678073866,-0.803485136421823,0.133199626343453,1.18444725487407,1.69144554777319,0.852015238681842,0.793023627492834,-1.16382307754309,-0.583933929288275,0.816089970149754,-1.78292758473936,2.53584697984188,-0.0612932417169897,1.72815146077093,0.828288465043451,0.49040675786687,-0.530515131176414,0.54958440957067,1.44642862237198,1.98196503016215,1.62801452461398,-0.884053322803297,-1.40520297591021,0.260822518989939,0.832305758577087,-0.55344151550323,1.89254193558154,0.476159958066954,0.980220384153202,-1.69663690935048,-0.170895035440704,-2.29620169774545,0.118164346157587,-1.85813554119114,-0.558471288861987,0.475378813389923
TSP25_Prostate_NA_10X_1_1_ACGTACAGTTACGGAG,-6.30013892624602,14.5954234136678,5.00595635834886,6.47375292199288,7.28502047287735,-13.2184664179132,-8.10785557346287,-1.06187742828636,0.139326609191088,2.68422620957383,8.56417347320352,2.84642298695851,-1.55799257174832,-1.27915936621015,1.12210823745512,0.0639728255912114,4.15164081709542,-4.35284127875634,-1.4320746987505,0.123270853466468,2.4143146115034,3.86033520127943,-2.36817433916069,-1.25042815253562,-1.79743283012166,0.558688703583135,1.01467014120484,1.600027411818,-0.584356660752485,0.978232898043319,-1.07534856382969,-0.690909250599025,1.85466899436934,0.292047532482703,-0.661674357633961,-2.24266794668938,0.0976297180989843,-0.934730504677122,-2.10296813560112,0.427094207041557,0.475364944266347,-0.105123403967631,1.03922923201529,0.334592265146265,2.0082469629988,0.107696353075042,1.63634868152626,0.419510472795071,-1.29778216840515,0.733976226922842
TSP25_Prostate_NA_10X_1_1_ACGTACATCTTGATTC,32.5317856354415,-7.32064688347268,0.0749837285260296,15.7749557874219,0.634139577694789,-0.405687320932309,0.123613819550067,4.87468583534446,1.88928293899171,-4.02147347400275,-0.375273107346564,1.59068882320418,0.351565619569086,1.00756226425628,2.47941000110031,-2.39347247038727,0.2182387609833,0.631280254438267,-0.947812000795515,-0.211783219393941,0.0731875955444907,0.97592384727113,-0.465626185882183,0.453020657267469,1.29555028027145,-0.104763320436547,-0.515114861450027,0.593790737512928,-0.32218463011914,0.219961505415781,-0.0444665570022454,-0.167951388681665,0.494228445866616,0.421904701238144,0.223028508910043,0.164045918356341,-1.2054451677942,-0.891909713737967,-0.228567285393542,-0.421279746959774,-0.408067007918181,0.217351817529553,0.287862744350085,-1.34622751962199,-0.56874521757969,1.78469996782121,1.10716208232838,1.5275097144753,-0.461319325759489,-0.943968064004812
TSP25_Prostate_NA_10X_1_1_ACGTAGTCAATCGAAA,-5.4623509222525,13.7753389825884,5.56401119750534,6.62311869386622,8.62679045847425,-16.1488597706401,-9.30409794112511,-1.11976939199081,1.11767699615781,3.81372686849862,11.0566264105661,2.5011457992028,0.267485094241005,0.528715423399615,2.32218289625287,-0.741338927842884,5.62112479848803,-5.78455991538255,-2.88774978905909,0.468821392700947,1.67649918029902,0.0178719167556627,-1.79062538809479,0.455858669241902,-0.485741761284911,2.83443628390612,1.74673703616179,1.41126154853308,-0.437276601434798,-1.39445898896272,2.17145638999888,0.48498418481622,2.13829130371062,-0.252204396253464,0.549008890941743,-4.34105764814947,-1.52640820960415,-1.46038037753961,-3.84570295349846,-1.15895779138319,0.855070884653715,-2.6651182896631,3.76302641878888,3.34988697005212,5.90649518441584,-0.950601063626346,2.13254739620276,1.57336088166775,-2.50896567350325,0.508361725215662
TSP25_Prostate_NA_10X_1_1_ACGTTCCCAAGGCTTT,-7.53460973077347,15.0640564299728,6.35967420902546,6.76394223217215,7.74763600979306,-11.1842512270199,5.35603597599731,0.0901685144068138,0.293501615866871,0.00140915879099674,-7.44904701146801,-4.45618941438573,1.32144853667278,-0.927561760974002,3.78104582998107,2.66073828843133,4.96098836154615,6.61464160193748,-5.1545142999842,1.59249702605675,-2.05724823106983,-10.6694730005073,5.71482396272656,4.41749398520915,-0.0710729297448109,2.00247318574856,0.623200028770297,0.136826999352174,1.88616672841175,-0.430793167932841,4.92819480626638,0.150920743923917,2.272475528668,-2.49162050501569,-0.0232165756763661,-0.34249333696707,0.0787354329264029,-0.324170604961675,-1.18883527276718,-0.96581862483096,1.01152676443089,0.761450490185739,-1.12743036121286,-1.60158581018217,-0.950394189022159,-0.0567676223550061,-0.87956561278289,-0.9270274173471,-0.845027902052581,0.662955918430124
